{"conv_filters": [[[-0.022694478915852592, 0.12729736385700954, 0.20051405449003554], [-0.009479866314208048, 0.027811630775183005, 0.09726073971917773], [-0.17865512593967534, -0.025080400519012065, -0.16419441144622443]], [[-0.09708710932310727, 0.02579974207571366, 0.06847341214373698], [0.08371025262509385, 0.07688133080912161, -0.07098120251033604], [-0.09174226654153131, -0.08449641429564039, -0.04523081088633538]], [[0.03844379567751783, 0.09863163544703178, 0.01839379805502993], [-0.03340030086318146, -0.07987784888779534, -0.020817688377056155], [-0.040915071911031754, -0.09368387039741836, -0.04979760746425548]], [[0.058646432784314285, 0.07226958019287523, 0.055902391498178085], [0.03304958611497666, -0.04528191886505485, -0.040280823605065165], [-0.056937502955141675, -0.014491446992708558, -0.07273011381189702]], [[-0.0858061420639195, 0.006283852871015458, -0.031014948116249247], [-0.03735330263543011, 0.005235985598073493, -0.0019091998459359776], [0.11325549819227065, 0.10015068091227326, -0.0818955550675574]], [[0.029276944403441436, 0.037487496458306284, 0.07371783830410336], [-0.015709852935541713, 0.05719083790064729, -0.034399998322643725], [0.011730586812431576, -0.007087264172055743, 0.03546795688150298]], [[-0.03565920853565593, 0.05223798325840626, 0.15662988297078823], [0.02155023180348987, 0.06616010044957246, 0.034431629606323386], [-0.11623048147499633, 0.059602518177730414, 0.1367235309871084]], [[-0.05791063356710002, -0.023678909250199623, -0.09679951682098802], [-0.02916977184658684, 0.08530173392732227, -0.02174825780001997], [0.008311759864038178, -0.05307305788313166, 0.09196335834970436]]], "conv_biases": [7.4188782140007405e-06, 0.0005573633570836572, 0.0002962377519897338, 0.000424354706932034, 0.0005314560049130128, -0.0008061920808905868, -0.0021970052624914675, 2.682756783125747e-07], "dense_weights": [[0.032465415137563486, 0.01118785821907794, -0.021590977133941112, 0.01956685577546399, 0.04971939274895718, -0.009197280154159562, 0.004565504259296638, 0.020225523778647187, -0.014883131588285413, 0.0013855127840199303, -0.01334793661443799, 0.020265277504728972, 0.0014359759665836668, -0.014226042087622877, 0.007988010261990527, 0.0013753295925874466, 0.02912276658777316, 0.022865637811858776, 0.006702592971521993, 0.001014778780849702, 0.015427394993188591, 0.02316787850347967, -0.0045276558397642, -0.00043960437167858636, -0.0387621356853219, -0.01529832290460323, -0.016917147132474726, 0.007715956439103622, 0.002805213004910238, 0.018309553003637916, -0.021883603487976275, 0.0016882127481329609, 0.008171376543014202, 0.00045607850661613414, 0.010540728151549977, 0.027800748138645533, -0.019726732312998898, 0.002223702657160872, 0.006239464611180129, 0.00938317295002596, -0.03535584323096912, 0.01969030349549087, -0.015699618423917386, 0.012650154921430557, -0.017646645212086576, 0.01637312093455695, -0.0028446265461663867, -0.023608338957221784, -0.01716106541678681, -0.017260921922379165, -0.022013290627618514, -0.011527422757571884, 0.015290810461751106, 0.000258276887864257, 0.013749351863356319, -0.004406718708825989, -0.011845835519177395, -0.012201066145448695, 0.009482178487001967, -0.013337005718817846, -0.020910613083631617, 0.02494946883303519, 0.002259588468607403, -0.008701373357447074, -0.0015762911499401164, -0.005195191443427818, 0.004439961726610188, -0.0015960115386015638, 0.01716635570612995, -0.01584649118063853, 0.018581223974621437, -0.006735156839624555, -0.03859749275643128, -0.013808090269962468, 0.0007743382912906519, -0.004270294596842986, 0.0013374282744058094, 0.009779692559506925, 0.016615027313012114, -0.014167361183223875, -0.0238618423631695, 0.00722942954527631, 0.026578669426891282, -0.017571989040448426, -0.016206969454353376, -0.002037851861391492, -0.024864650010159865, -0.008817810343718587, -0.02311244619427805, -0.008599310598209134, -0.013860686291491061, 0.02307766361104276, -0.012287523367915333, -0.014131648834300176, -0.06678394413096078, 0.023627477545520328, -0.010483595899955199, -0.01247238456528239, -0.006089611288626029, -0.01738990394119044, -0.0038376210719470883, -0.006799398976505401, -0.05740289020271641, 0.01579282140984073, -0.034207901125376805, 0.002167199845071117, 0.017132912749104397, -0.012071840221004482, 0.0013038641705513652, -0.03508415350018334, -0.05085743936915086, 0.02417673096064662, -0.03617904820016978, 0.04186595749442284, -0.009458911788761248, 0.01961990816814653, 0.038368365880097, -0.02016766761312059, -0.037696519528433524, 0.010753013953678748, -0.05982818359780487, 0.01531419367005486, -0.020095638948293935, -0.008579453142906422, -0.002267093724963471, -0.010282565089677797, -0.06696908118897531, 0.00048808321698464417, -0.031899971703919436, 0.022610456023134894, 0.015858018818910555, -0.007565931660719804, -0.0014565069739919804, -0.023148052305030153, -0.05139135020199723, 0.015299144619189735, -0.018730795909521068, -0.04146092597267365, 0.027755148107519605, -0.0075967900165042485, -0.02603519449825257, -0.03238299101069755, -0.011099906748459372, 0.005159085705133443, -0.004500599003969361, -0.006820006405771553, -0.01935919187771041, 0.007058876506577706, 0.01801773776437377, -0.00016969422752318006, -0.013164148200803456, 0.032885903332459096, -0.01336198174144975, -0.013266607504377897, -0.0047653201032196325, 0.007313254991723499, 0.00973611867241218, -0.006297911134542317, 0.015123532135387753, 0.022972272521446683, 0.0232911530397918, -0.025760065308228115, 0.015736353828989517, -0.01745927371691746, -0.010139275371913236, -0.010906249796925813, 0.037295532178311615, -0.008510309056423056, 0.019175442811611487, 0.016638027756211378, -0.020762295247785965, -0.006589933663955849, 0.011159823820358284, -0.011396270954110282, 0.07537648686784977, -0.018576105714179923, -0.05649889961525988, 0.011991941294487126, 0.0005369590116193841, -0.023174210275698152, -0.01262831296370912, -0.017637921692707274, 0.04919062568273236, -0.011729224951685676, -0.008936449802398615, -0.016302631946066053, -0.012872612562614034, -0.006689814236885137, -0.034521223413901375, -0.009644400709689424, 0.04106854997139463, 0.0004807113102284045, 0.018783849554496464, -0.004258739323555686, -0.004519410506602128, -0.04347208964560981, -0.009354837065909758, -0.010875016551753675, 0.0128775113970473, -0.05212844464994612, -0.012923574092171843, -0.023398585267465754, 0.0004924170430588957, -0.027295317290503683, 0.03049563997901361, 0.012909791697505146, -0.0022921893134558117, 0.017504875688052236, 0.03142399370197436, 0.02492881402659262, -0.006659753382090818, -0.003701381157030671, -0.03588191956259776, -0.0007530718744254785, -0.005767109547458931, 0.015336186706362897, 0.007915193691925676, 0.0051730699674606105, -0.017180183346427364, 0.015598173660131843, -0.010511057774277304, -0.016392437064639415, -0.006088953471607357, -0.01891449247854215, -0.001165904182693429, 0.04490268075439316, -0.0010744604796570334, -0.013806049216211239, 0.0043865453663086695, -0.027649325736680146, -0.014284155606632343, 0.011889412500223252, -0.013538172547426817, -0.023020217328921795, 0.0008129610420258419, -0.018101084622029105, -0.0013001811940260987, 0.004815519086343781, 0.014053147994905644, -0.006586587258701171, 0.01784428424887089, 0.010823715139319155, -0.00793283730061663, 0.015489731973425359, -0.00021487125688759407, 0.008455722373041699, 0.0010559864054448217, -0.0011132233167991843, -0.009604727021111209, -0.006641095761820614, 0.01211191562983797, 0.038198382206444975, -0.007214930935041761, 0.02263232969220181, 0.0038306139643607255, 0.01639039725150532, 0.03588049812277295, 0.020473283132004437, -0.002050911313196018, -0.010499000354549235, -0.008065067711089696, -0.0007901125034846844, 0.008611816610841608, 0.009845855560441567, 0.028949362078703553, 0.006281871369341209, 0.014995518124215176, -0.0300955826799668, 0.038412269495156325, -0.01068755134923215, -0.023363343670109515, -0.01472282554083898, -0.00250831513516414, 0.0012631035866921155, 0.014993601273118447, 0.01668304624391477, 0.002594338028385294, -0.016777506441828516, -0.004182224559703914, -0.02973777297733607, -0.03302276153056477, 0.00937188148586242, 0.012356682991966126, 0.025857469141071694, 0.00735612672629219, 0.010737135098526277, -0.019931114518519203, 0.017644060155973446, 0.023534171784776705, -0.005758258381785563, 0.01242389948050129, 0.03579164217481504, -0.014758409666511802, -0.026808527327297795, 0.012877821337966729, -0.055657359743142364, 0.012091855981185829, -0.02017046873231267, -0.02130089512089154, 0.02735938384314587, -0.01768334822705423, 0.010977057772172408, 0.03682335637003294, 0.01416740234473116, 0.011341982137739834, 0.00806787763598565, -0.021170811378605176, -0.008986824375536015, 0.001562055738907338, -0.003493368249269394, 0.028191524945057982, -0.0008624717770678084, -0.0025047352391949214, -0.0013387258382948812, -0.021054480666959228, -0.013470956701705806, -0.004898359613665241, 0.019653452801097128, 0.03589737654869501, -0.006216321273848167, 0.015575531339579748, -0.007058693299009166, -0.00456362612989376, -0.010043854395842055, -0.008386386520644004, 0.017677875944397833, 0.03610782380144914, 0.0211854807640637, 0.04403506710381201, -0.015835339235166283, -0.02981480483370497, 0.024862891797217047, -0.02100980582207343, 0.017185423050100086, -0.02729713055896127, 0.0010612697867969532, -0.01331145258089569, 0.003458947508349505, -0.003636443631400508, 0.0026984211325601407, 0.015266703129438642, -0.016022855784851363, -0.04453904978164987, 0.02930743459572051, 0.0043521182593820925, -0.04205390462877244, -0.0058089241460927525, 0.018078833030091376, -0.006405124226207235, 0.001457198755388527, -0.02199519076429226, -0.01798623249327665, 0.003143284560495863, 0.01936809173231745, 0.023794666721784843, 0.017710960413403025, 0.002768006862911974, -0.03913142628920871, -0.04066782378185572, 0.013297571391106027, -0.04829213482515483, -0.003065771264356239, -0.03594244380481404, -0.0057335762095939895, -0.015402442742345585, 0.01031356446307055, -0.05795793460579106, 0.009970145662300315, -0.05700519352031499, -0.011620554985643383, -0.0009941806424368163, 0.010490631595010243, 0.0021399467442004493, -0.013431310943538298, -0.027796754337853776, 0.00031654007213887905, -0.020078921826425292, 0.034339531036075316, -0.01046607090734, -0.004539246174677199, 0.010669279416966281, -0.04783347284660472, -0.031071027336919094, -0.007759428170182387, -0.029954116992855058, -0.014228176785660311, 0.017785359674227147, 0.031081794932713222, -0.00839646755775312, -0.009051012471253925, -0.014300879989606153, 0.018175379851681356, 0.016734118517232947, 0.004337143043070781, 0.009715735684361697, -0.0034870141158408626, -0.016388306849996172, -0.020414230582931174, -0.013621077228433582, 0.002493554528773617, 0.040017321625310895, -0.016408243847189044, 0.015791011053660292, 0.0230366509588396, 0.018872690354687756, -0.02008378188164929, 0.011428677903151434, 0.00875821101358547, 0.019524097274878433, -0.000861278614926625, 0.0009318411012390934, -0.028332138201262333, -0.007429078141350601, 0.03392841250996373, 0.037188366536586956, -0.0010300274721111726, 0.01738051623535542, 0.0392304635855276, -0.014396531064988189, 0.007478057174598304, -0.005985296287283197, 0.02239107457049523, 0.029625300460776233, -0.010217334150598284, 0.016787029499668742, 0.0054567453291216655, -0.0030543044040275418, 0.0014519012183553497, -0.028148826364409792, 0.03237767326247823, 0.05464215765196629, -0.02364331494084745, 0.013873268917946685, 0.009423709955036977, 0.0063890966829635, -0.016226998994532987, 0.018639804788074782, 0.0002425188519031479, 0.008060184765237302, 0.022927974528532628, -0.02930724277119809, 0.006903978517718474, 0.01605942389190524, -0.031014506732038132, -0.0029171934473423036, 0.012838537087993616, 0.024659462264777863, -0.020656856630305333, 0.017292336193596384, 0.004587346590848056, -0.007845149550611715, -0.004784547795637922, -0.005256953739851372, 0.0009917596280703007, 0.017261287714879614, -0.018710261814236413, -0.002133640323320868, -0.00909122528192298, 0.01554470979723847, 1.1049625455285866e-05, 0.02096625163006187, 0.007837522987048762, -0.024394365092383644, -0.0068764480760063786, 0.022249358520804546, 0.004911594982477381, -0.008705596729181185, 0.002001564053750205, -0.005564120845620904, 0.017363363207517347, -0.007619036327786049, -0.0028059190204469896, 0.0305734729673984, -0.015549035357247576, 0.006321778658799075, -0.004209030852137629, -0.00032832315385295164, 0.027059633766098514, -0.00695159677123023, -0.007078888537364985, -0.00439817758969196, -0.009236623310978466, -0.0017424432561252195, 0.008980306322456938, -0.007975456869433425, 0.008979715530981092, 0.009418558526118151, -0.00416860493794589, 0.006438908246018488, 0.006993406275318458, 0.022602464262363228, -0.0033051854068231945, 0.002736407962707934, 0.0140202572258455, 0.016996726266872573, 0.00013507537206122278, 0.01360274319263567, -0.018876433501157433, 0.007540792497364078, -0.024727281978892, 0.010692870251402056, 0.017842800681093583, 0.015755800325422724, 0.0024507510802262342, 0.02578691202257276, -0.046303218214396626, 0.004634521405800884, -0.026659791598163163, 0.006496603929187119, 0.021187764078324324, 0.027380907624782447, -0.014904356949663366, -0.015849310368832796, -0.03111657125221306, -0.0025436213424380317, -0.017220281614354835, 0.01081502808416401, 0.005201944656278719, -0.027681062183576674, -0.010959886062683765, 0.008315767902612441, -0.005454401719736272, -0.004511520839372526, 0.0034694688411148946, 0.005030684977987646, -0.0022784494862900743, -0.029964303162759953, 0.010463780565876669, -0.041128445114920975, 0.009131109998594587, 0.005246717011746385, 0.017132095293175383, 0.018078325801611717, -0.0019312500678158799, 0.04273200949923405, -0.001290873091206557, -0.017424528595164072, 0.01203627628515232, -0.02627039737835774, -0.013072584363073996, 7.435120782109099e-05, 0.018635617116505344, 0.010699953082957481, -0.011260433424609348, -0.005569915459878061, -0.014872532478299432, -0.005230064937117613, -0.002282121545354725, 0.01700951413175323, 0.00559468483177567, 0.0218574651154032, 0.024705219713492155, -0.013191344332222143, 0.004711235977532048, 0.02488531563650981, -0.011184802934394871, 0.016373457729064393, 0.020713486541799466, 0.027546429754412738, -0.009766535833500603, -0.020147402421566603, 0.02433846737429549, -0.008303434346202858, 0.011604298445684995, 0.007262100451412286, -0.000684059323071107, 0.02439692797181228, -0.0014128604430664901, 0.006725497493676807, -0.030781377966402745, -0.008919502213445455, -0.040052721891482346, -0.023127272332754703, -0.0038228614646404965, 0.029536660575375358, -0.009249708547885711, -0.018210771642772065, -0.01715543209183812, 0.009832186138665228, -0.007248007623956683, -0.015301141305386444, -0.0028251112586854246, 0.004898323073850357, -0.016210178511645613, 0.003346821073343887, -0.014448003793268792, -0.016683274451094784, 0.00992122084258079, 0.0037429069679199584, -0.010289176428074434, -0.00967075631016662, -0.007920662703335312, -0.03492097781147702, 0.031591198502383185, -0.015163742405076733, -0.011845391757463289, 0.0038148449043786995, -0.01957027191499334, -0.02051903251649964, 0.0029341951978585556, -0.022897456113237288, 0.0058624626156134185, -0.024962532445689946, 0.021070622106690053, -0.002083160693849288, -0.0105171274749486, -0.0015944794591639393, 0.02032624315800088, -0.03157724437315459, -0.00042169626474671554, 0.004123046608696678, 0.011770459372237337, -0.008210927974940007, -0.01518411932267693, 0.009943967071922126, 0.008336484661873844, -0.051127951135635105, 0.007871592160689039, 0.0026309710485656087, -0.006836084070692237, -0.019264097603139543, -0.0049535232610226805, -0.01902777573436641, -0.022228824524763626, -0.02027950730665979, 0.007409096678119482, 0.013091693659160856, -0.006620973270910428, 0.019939027111303506, 0.005725632951521013, -0.021072841351316755, -0.005572031890355973, 0.019515010280536475, 0.0020299988757585415, -0.04536966794076557, 0.0006626094864478095, -0.015918601501360766, -0.02908334549365857, -0.014916448539581786, 0.004842140386722039, 0.00950424863666747, -0.01665502492961938, -0.012657024558617539, 0.029599512433934876, 0.005180851532146171, -0.02891125054687877, -0.027797046813598947, -0.0011434578989396394, 0.0099127363371609, -0.0019518045888728295, -0.009696129366379067, 0.0029525410214381823, 0.012343728394498342, 0.01002843100183574, -0.024776846846027534, -0.00385508099706838, 0.03382154572282063, -0.0012032761674687954, -0.015221947446049884, -0.0013600359864961997, -0.02556868740731046, 0.032706225510639245, 0.04278535603460038, -0.01930363137266015, 0.002169108526411646, -0.006911951938743165, -0.007399332495407586, -0.013022264814748778, 0.011539474572310601, 0.039790234544244615, 0.0066739972259627755, 0.006865778849025268, 0.019380482332539386, -0.010733731102456486, 0.009930956926252362, 0.030651880952036515, -9.615204152941833e-05, 0.03254259460737788, 0.020742258864186736, -0.00788572080539666, 0.024420871639413106, -0.006001905900217328, -0.012276188619995028, -0.0023089854565145574, -0.0012442231057467083, -0.001436413691042533, 0.04419252195729373, -0.014341777335350222, 0.011989366310450257, -0.0030526418481436396, -0.007184392625925732, 0.023821240993201324, -0.02196322249974788, 0.012176207189058232, 0.034482090237172226, 0.024666512087502212, -4.816138596928701e-05, 0.027017476031357443, 0.0023556306163634183, -0.003890652684622073, -0.0028261235672876112, 0.017574022247022463, 0.022394053012769057, -0.006381449401775312, 0.02995559923788919, -0.020754668059391555, -0.009954172226940158, -0.012017157330496936, -0.019500024223187768, -0.0012966662662486758, 0.004066612763081309, -0.015883936891556472, -0.0037246508348325194, -0.005091562499710307, 0.009559038989342513, -0.008888021782371587, -0.001060818091858355, -0.023821489267972524, -0.004904904354734799, -0.010585315026905883, 0.00041971697490412004, 0.01658317690963821, -0.012583481333730374, -0.0023163795713255857, -0.00798888033723417, -0.01443174019587137, -0.005247975780089245, 0.029207338951561787, 0.012260486791438019, -0.04194411799032795, 0.0350399229455225, -0.012396447647308215, -0.0012791512495690985, 0.0030814492804346117, 0.026689384474978817, -0.03606167578388135, -0.0038077340357415787, -0.01063137672759127, -0.007427056596373021, 0.002135991435719139, 0.007613178133847717, -0.0022169356162632034, -0.012226972807999104, 0.021080035775303933, 0.012368621352552253, 0.02626156861481532, 0.03380408766424679, 0.010567904316252317, -0.012466574374962422, 0.03372996342749745, 0.0015784806562835032, -0.014995843348291873, 0.020896155698720015, -0.00314586448108274, 0.0009414014709852511, 0.0077385756131553435, 0.022399088596424886, -0.0054396959490523936, -0.010959395735855538, 0.023948555282500204, -0.004627701957904653, 0.02465907466903596, 0.010045951940262362, -0.02175250054192667, -0.006607505505813898, 0.005116427030006119, 0.006709920866493756, -0.018493588746050282, -0.015370803903481193, 0.003619326411440803, 0.01834210867934674, 0.013670055808121665, -0.012417687054409678, -0.0025431047184528753, -0.03714357064253328, -0.013841609443533779, 0.0186820788421881, 0.016198130115285467, 0.006003670045204895, -0.010366391504221726, 0.007807905289544616, 0.005725580889976073, 0.013529029828214922, 0.011459955188016508, 0.007497652477004363, -0.016658224669914533, -0.01723783663295826, 0.003906714330499302, -0.011995412083346578, 0.010696189225951235, 0.012853250816818443, -0.029739912918869696, -0.023428172066093652, -0.0032780026485864098, 0.006377487614388462, -0.010476507148829752, 0.003069778827337599, -0.02976204345024909, 0.02515308595232152, 0.008619505602570481, -0.01978314739898421, -0.020281463260043143, -0.029915627063051328, 0.018689557473324885, -0.03168608505998286, 0.014065669802262787, 0.002619199570824123, 0.005284535769616188, -0.01852183730848837, -0.011185571442050905, 0.01768673728022668, -0.003596063612560126, -0.018972497616662604, 0.014967617995978148, -0.001381962729453577, -0.004942483667005783, -0.009834650783739424, -0.017174646691818514, -0.008172444291726873, -0.003440913375045604, -0.022540872533741332, -0.022227920723075365, -0.024991557054095857, -0.004613337313825218, -0.01838939405581953, 0.015673936982079875, 0.027005019958265795, 0.011482327832060381, -0.03058379656499694, 0.011427147606469259, -0.05095376699011047, 0.010447034770512734, -0.0011666116217968917, 0.0023148523916659107, 0.022719173224701364, -0.005576616000416372, 0.030360877494945017, 0.022307656435612055, -0.04244109415672793, -0.014970894804440468, 0.00673988970287457, 0.004241511563849496, -0.03362615762349828, -0.00019275114532590223, -0.002806924956783922, -0.01622160803599456, 0.005634914039797188, 0.033181667970402576, 0.00499460772817259, -0.0012116180894486334, -0.01812108508251789, 0.019990809902762266, 0.0017982375011576137, -0.029301085401438047, -0.016655233195679384, 0.0069234298739965046, -0.026200718871652522, -0.0027742172497277513, 0.0016170327501821165, -0.03316064497978071, -0.00329920331064095, 0.021690870983756154, 0.008131575825364976, 0.0016259990267361397, -0.005612621041625517, -0.012739117626404603, 0.00967841452190231, 0.01674432693824308, -0.024646643505892688, -0.0131351948131948, 0.007212793583611895, 0.02114892796813597, -0.033046973643642584, -0.018618869846176205, 0.026614281461638134, -0.017745316304616385, 0.0049936719741165685, -0.023182722385126222, -0.016263055104346478, -0.00435482102669849, -0.009674822882545434, 0.015426130525217017, 0.030582446916086383, -0.013940818371069327, 0.008199814531191474, 0.003370323197225464, -0.024551707772974014, 0.02023886145837418, 0.005549783587868922, 0.013535730755781752, 0.04003868328964907, -0.0025492792787658093, 0.023843428776720937, -0.0022116206059153783, -0.03553681771186244, 0.005894828754630815, 0.0006345976521257494, 0.006214055979193436, -0.014959213148687757, -0.0014972919216511803, -0.021629460293955217, -0.037515391924837695, -0.014776484744025242, 0.01383337958416316, 0.03003653410988631, -0.008189063320340573, -0.002670924902963659, -0.01379142135095545, 0.013032163679240727, -0.003371036446630694, -0.011717479615428562, 0.025736725832797857, 0.0003902644231002347, -0.007958248913679562, 0.0018218325583217408, -0.00512113418003337, 0.006549093453691507, -0.004796031018087366, -0.007175976941652045, 0.0024434729053739537, -0.0022193017656035228, -0.001899012265913586, -0.023412988663557274, 0.009858538376346176, -0.006428736810466333, 0.04202362167049853, 0.03578881808149381, 0.025529791129667554, 0.01638802480444383, -0.0351122061890805, 0.01776075024385716, 0.03612984979131187, -0.01701906267322055, -0.010741152912134946, 0.03973208520307404, 0.02050893382651867, -0.004855815167501648, -0.011093822231095745, -0.005484351851364254, 0.019343256705494707, 0.028152208988020306, -0.01478998640244223, -2.4478046663852665e-06, -0.020887951775640606, -0.02091167833145033, -0.0035134878550178448, -0.006017636734427692, 0.015830018767921925, -0.0052257601732259434, 0.0020815777764328584, -0.017897132918304744, -0.004273005035399876, 0.0024550207766096967, -5.900236731876346e-05, -0.02493995559206227, 0.021312613671090302, -0.00811651307024538, -0.004317405274313227, -0.03804633464850407, 0.00354254832959541, 0.012284998653738693, -0.01800820573334077, 0.014598901779671259, -8.35911761021197e-05, 0.01286718772892614, -0.01627948594945907, -0.02127621715228195, 0.00022961537480391072, 0.020482207161382673, -0.020013374501198996, -0.018239684499857668, 0.014561991186705737, -0.007230067591709553, 0.0030454540313806003, -0.02695737169684226, -0.0008519393747915364, 0.005807386945916353, 0.03968195638411035, -0.02144029811684126, -0.0036094012611613937, -0.02010506831617032, 0.025974281033378184, 0.03702432753015958, 0.023611885403116484, 0.007543454913850689, 0.01520373649516546, -0.011894997912791916, 0.02295635322919417, -0.017717433206274474, -0.0074689668117968195, 0.0016347052151250705, -0.001092957579908661, 0.02997603707823113, -0.0041743968390050125, 0.01413455698204993, 0.0068673184321621245, -0.005502501842156494, 0.02460460582131808, 0.002703665765197484, -0.022658454512491353, 0.030627274261361425, -0.004750394533524882, 0.00017255828175693626, -0.003928644239682471, -0.01256311389523371, 0.0018198521552682172, -0.009383578255188787, -0.032507094127779794, 0.018413819925297382, 0.0032176688663423225, -0.008159546909188799, 0.018865004239408283, -0.0038341840225066246, 0.0011608331695546446, 0.026769218695471657, -0.006487022131873203, 0.005048424094047768, 0.009631311769573226, 0.02828102629769271, -0.024513942148514406, -0.001052648836454748, 0.0244188486205139, -0.029953354055232157, -0.032581311461100514, -0.016766362263705772, -0.019480640445888424, 0.006237209364813795, -0.004086220630331345, -0.022561359144584126, -0.014663668467945269, 0.014860594695327495, -0.0051112287153308325, 0.002306611672766985, 0.0010155400662033671, 0.013792437666330879, -0.02920124657775159, -0.02095920620015883, 0.001804832192404953, 0.02880479957909311, 0.015002192361096612, 0.02467640940737325, -0.020764201765156018, -0.01681042931918455, 0.007917596394287338, -0.018685467633907948, 0.023738127027476012, 0.0208557963806258, 0.008888107740320526, 0.003516863027058151, -0.004047435168485571, 0.009442599790246009, -0.017433306000771396, 0.029068905552312868, -0.005086630432704811, 0.010705990671405966, -0.021330927151925874, 0.003320303560324219, -0.025271656255757172, 0.021495254765077052, 0.013729008020906508, -0.0041909757200440205, -0.01800833755233555, -0.024503603460980176, -0.028538350446549836, -0.030723405776775573, 0.00040528863473431037, 0.013635552067322846, 0.010012427033894095, -0.030728485196773157, 0.011612901611493455, -0.039914551846235644, -0.012881197143785978, -0.010605609192657468, -0.0013550625438903214, 0.004501088913070508, 0.01099378753444229, 0.017789832775773763, 0.007362029613530649, -0.03180142578466556, 0.02880945662421997, -0.021187658845632146, -0.007351316894707324, 0.0007355782944073586, -0.01065518456692678, 0.0006644231813290861, -0.014532139243553111, -0.03388902159739068, 0.018135842719202135, -0.004863941844683309, -0.004869107255158333, 0.005277152237996369, 0.02372260537051294, 0.010518667678330014, -0.024842376573131056, -0.000838985696793924, -0.015446338710281322, -0.004402080044384084, -0.011562765331173695, 0.007410549292496118, -0.03319537122075252, -0.009839485125900287, 0.0008860743243556579, 0.019389464479541586, -0.0013259450220999749, 0.0046531889736103225, -0.023385628395329087, 0.030304841553837895, -0.0075086669904736525, -0.009457078093064005, 0.012246155971938446, 0.018470329897878005, 0.0140592639492394, -0.004601719784698869, 0.009398317168148198, -0.005867468917993936, -0.0014484720397112101, 0.00019858863607506992, 0.0028185493991783744, -0.002957237304167667, 0.0005389879185808618, 0.00098971106948088, 0.017248555955249337, -0.009196795803518648, 0.02656511416033369, -0.005898491004613473, 0.017024543546599574, -0.0018704231525484714, 0.0021186880184753017, -0.02032605812312853, -0.012756279161074085, 0.015799842915661555, 0.001614306459506891, 0.010634588435348329, -0.011103112184837682, -0.012769854693692032, -0.012426183022376452, -0.02535891869224019, 0.01968027778416176, 0.005368169421560583, 0.008865677788261951, -0.003154252077555425, -0.012697536770871607, -0.060500466322806784, -0.007862796938354736, 0.0026706068970862116, -0.012879261176440428, -0.018050537404368093, 0.0009478536229615507, -0.015129313780539156, -0.012518091586491194, -0.030471928565914932, -0.005534125129327749, 0.020896379408745714, 0.015621483801290149, -0.006224747477164274, -0.014621679607821021, -0.0033425226712709075, -0.008477932432550425, -0.02079291222579603, -0.011644181137458257, 0.027887778750920106, -0.02312178716227846, 0.014935088882624023, 0.011847412418472147, 0.002957902866582383, 0.009908986967435309, -0.005788338430867093, -0.003936536813447783, 0.008140156702466836, -0.006724898669010564, 0.022416208228848884, -0.009448460000871291, -0.008479506234905116, 0.0013340684979423565, 0.012270688029932073, -0.03551884589575841, 0.005870099189129119, 0.001686830074359983, 0.009633949168875467, 0.023833246242061085, 0.01684596791227159, -0.003082552474082766, 0.0019753933366120457, 0.009642963241183921, 0.018418108744866112, -0.007017267276524342, -0.005516260743470006, -0.005495411086229108, -0.008549046120406575, 0.014156608828809302, -0.017956769471503486, -0.026657743222414387, 0.010874820505168395, 0.013097212362518741, 0.013906229623714444, -0.01237126486129227, -0.02660302013343202, 0.016180531199778712, 0.006178307364886981, -0.01781744592264594, 0.0014662808345672425, 0.012078509807669714, -0.015911837454938803, -0.005907114677205536, -0.023881603134291298, -0.012522134434609563, -0.011527404158015899, 0.01687991623556286, -0.004605218736025212, -0.017377350571493255, -0.0022587692344859843, -0.020829890835316132, -0.012161899157086315, 0.01780797457456246, 0.012761669773058407, 0.00390892930211426, 0.03620252252475993, -0.006518946467875573, -0.014819127490948481, 0.03515681698423486, 0.0038212535343746805, 0.01644091095649315, -0.017987594694463094, -0.004183979398119912, -0.023670543578471558, 0.0007414704732939582, -0.010641689775165608, 0.014927340276703392, 0.004291165978957428, 0.0025743560001499884, -0.01063265593511799, -0.03602137829615072, 0.01103925762985179, 0.00804266455860175, 0.004444697503112569, -0.00931263555240688, 0.023987172382088928, 0.01359008126575497, 0.02906329573696036, 0.006752511505383556, -0.012746626944758253, -0.005370688368484191, -0.020928641491309262, 0.007665382046013724, 0.0036418000372740135, 0.013550464645840065, -0.014458584439193612, 0.004729630646695154, -0.03855837899194171, 0.01916184355665595, -0.0010494616208556473, 0.006935686316929457, 0.014234033445097482, 0.016176290770661565, -0.025807829039705063, -0.00022790207865138314, -0.0062307267636533955, -0.0028151805075792404, 0.009151371552637002, 0.00742429508802114, 0.0016762676269529103, -0.012989536381370547, -0.0027517402255533, -0.017461838962480557, 0.014848334058979796, 0.017216070272381753, -0.02281642246465836, 0.008065512274635138, -0.020694230609713874, -0.005858548670877467, -0.019889456785623327, 0.010733007235816782, -0.005936054500172769, 0.01699817783122656, -0.0023284465862858125, 0.006300378475326351, 0.005758577608834862, 0.025672224026229585, 0.0004328608455387436, -0.02625342682278759, 0.029042750130769315, 0.012709815141409163, -0.017294133083783095, -0.009831687612670833, 0.018154413877166903, 0.031196214812669428, 0.015334323162879273, -0.02111979284372673, 0.053290488789227416, 0.00010045377368758762, -0.0017342382674643668, -0.02141684780224049, -0.027543052746528643, -0.012917673337373748, 0.005752719948672275, -0.0011406203325793705, 0.02033978638525786, 0.010216391095539675, 0.001972987066278574, 0.009067024117397661, 0.023023529913796796, 0.0022344940866526252, -0.00676903736677502, -0.007440466328379131, 0.004831573925369412, 0.004703653283447724, 0.015663929824361402, 0.009945664955467972, 0.009487797026943388, -0.017427773304618477, -0.011011553151889647, -0.014830658779619648, -0.05944049797297605, -0.009230959546711957, 0.008951715373016374, 0.019320650349787125, 0.01225164233680865, -0.008676509776060852, -0.0395885744924131, -0.017106512553512115, -0.0224167313614686, 0.004534470226075109, -0.011724331063491652, 0.0018674548737176665, -0.003935924394946746, -0.02624843882592154, -0.03674873488880815, 0.008083881584078445, -0.012409702449676385, 0.009705599985350259, -0.0016385152136482023, -0.005410422478064866, 0.037886097812119005, -0.03756531329005237, 0.0034538164523971564, -0.0008635996021945031, -0.0011855870161893874, -0.011072265317635045, -0.004507937387027074, 0.011875401740071205, 0.006910375769225586, -0.01630383268675946, 0.010106977044757166, 0.029868218727706654, -0.01773574261416636, 0.007542533157235579, 0.0024162215589991604, -0.009427627547732829, -0.027541507313916077, -0.005666960964613259, 0.01723714144206183, -0.015699263449657722, -0.011669739635715572, 0.014207320377474124, 0.03651027031272981, 0.0009188868598424632, 0.008236463046828296, -0.024800328950967877, 0.03375772366932173, 0.003451091570878078, -0.032142648200515454, 0.00650905009925583, 0.003215191840408877, 0.02330575859309186, 0.019571039620242335, 0.004859708748356274, 0.03820123403228299, -0.0015937681552865902, 0.005020138502782284, -0.033578232650179424, 0.006332515524052483, -0.0030937239403999403, -0.010394733850039063, 0.013412219873850566, 0.0015630478401960702, -0.006187589073502377, -0.0357544594349552, -0.003158034442958011, 0.004763726255085101, -0.01767713627297324, -0.01514152101215466, -0.006148353495120341, 0.01993675017285314, -0.021422045492192107, -0.04859940488640761, -0.023838785378583836, -0.011379477688733564, -0.0023684721755245323, -0.016161543159270812, -0.004027888536586811, -0.01687791297828694, -0.0009972429328682756, -0.028915140956533764, 0.006126264489974379, -0.006231450645408432, -0.012811597760476932, 0.014323489589374891, -0.008927516341395967, -0.05923429286273215, -0.003914232585122979, 0.0028604057628673074, -0.0011281877465593381, -0.01990624333457626, 0.01333248488358123, 0.014999820690083423, -0.030689296765573335, -0.051912115704436955, -0.01421727328393767, 0.019584696510185847, 0.01968361525135603, -0.011571689206208121, -0.002532874397958648, 0.005639167987995325, -0.011146452348745815, 0.010166211974206392, 0.02195571190336165, -0.0006919363366258356, 0.0014711215478575262, -0.001108946136251852, 0.016072170993365362, -0.016930298738695917, -0.02274643013087734, 0.042174207329925655, -0.001126734523368532, 0.019616628828104558, -0.024682359237743617, 0.011948352501542202, 0.008159125617879005, -0.00046251482116682716, 0.004945857776572435, 0.0027633753216658365, 0.017428934581743636, 0.014949569445915356, 0.02093586530761959, -0.01846718638984944, 0.016765158003896434, -0.007218972617942248, -0.02605688164141509, -0.010569883902828368, 0.01323175646517118, 0.031229921321701062, -0.021244969785562815, 0.006797037307786898, 0.017514444132183463, -0.013549728426121547, -0.008755202425015374, -0.008620075278463217, -0.013738474836301988, 0.020079086691028526, 0.026622495107501396, 0.016129533243074687, 0.022512665417785137, -0.000775812895792806, -0.003584658417739255, -0.0030473627565594194, 0.01635823507929674, -0.002874170961043171, 0.006043094575533801, -0.003932829308902451, 0.015883698006533366, -0.004809464526798464, 0.009931876547155315, -0.014836664182667927, -0.012384282018849429, 0.020823013596624564, -0.02739318681176128, 0.02706360592560783, -0.009365355629907852, -0.011953792424307903, -0.011753048304247568, 0.004251133838117601, -0.019501043895634385, 0.0015859166357290561, 0.016991851460024986, 0.001337021544796779, -2.561103597397941e-05, -0.00030822633585159066, -0.02133987260612166, 0.024561935561537063, 0.009195537650250836, -0.007418652494515525, 0.012937935478331133, -0.011198591088165276, 0.013682809774934693, 0.023243383920425766, 0.005880207707805549, 0.015774478414093126, 0.0043534453214606255, -0.02147950533904275, 0.017247022021086657, -0.01366485393395498, -0.02601708232661172, 0.017270509969304897, 0.03529281204736406, 0.007789543232212225, -0.00202430256096309, -0.022072373840949497, 0.00465846609277532, -0.011843027186614206, -0.009198471590125606, -0.0025158194284267466, -0.008776303402349495, -0.033331780321865394, 0.014790033538904786, 0.006538111829381861, -0.013925102711049788, 0.027862204759383027, 0.02719606459722775, -0.012659828463789663, -0.010847981930322452, 0.003131121465689562, 0.003129169861107084, 0.005961262603284012, -0.0026503516812565217, 0.027658123079887385, -0.014505366651686469, 0.01613935680566649, -0.011796989205622933, 0.024087650197875097, 0.005596211291665447, 0.038070561815430705, -0.011102412236412458, 0.015209160091284807, -0.003085456602326485, -0.01886492707732464, -0.0317431621420602, -0.0016421444585956305, -0.011471002467438707, 0.01852314411466322, -0.004730986163449484, 0.005396445244207326, 0.006196629598623258, -0.014951872635089021, 0.0051051083775639616, -0.007773785944087817, 0.018751211931214845, -0.0015949580540724941, -0.024072284951342764, -0.011263371515507993, -0.009553059732555094, -0.0028834638616167087, 0.0038303512956952496, -0.021497426751226456, -0.009315059502219428, 0.00257769778866971, -0.012328779182966165, -0.007344672636800314, -0.007705253820498729, 0.01544511171219663, -0.01568321480541286, 0.015555905551356945, 0.005878222291665081, -0.037578289053872935, -0.012140254006848646, -0.009118067930567469, -0.005482508081197085, 0.01265623923101934, -0.0003096585956225046, -0.01845947823309168, -0.0026638629064450266, -0.03207299997405266, -0.018636759403895607, -0.0020891690994899277, 0.00532221141360313, -0.0006112257312305982, 0.006230716599048254, -0.057462508531905855, 0.0036986036097738403, -0.020534355987669048, -0.0205828101500901, -0.01037677152542898, 0.0039980192860379835, 0.008982333586097103, -0.03548712178760949, -0.014760302739071111, 0.04184945069714141, -0.043429700623558366, -0.01163957359806546, -0.015253591412438601, -0.011880396403868084, -0.012472394830695429, 0.008499640658776599, -0.0013695439881911372, 0.011900039210931673, 0.016896161411520727, -0.016868184550466202, 0.026756551167011512, -0.002630848509067896, -0.021543988345126486, -0.02211455613296411, 0.021934930329554715, -0.008592349336942145, -0.0005816401165868991, -0.012576173344999214, -0.013530127896383361, 0.014763488823973792, 0.02230845982677042, -0.0007037693710125382, 0.02479381663636217, 0.02379318737560435, -0.020270942801098892, 0.0038921252632721616, 0.004294524547113181, -0.00790607840464265, -0.021473064686455892, 0.02420276365455129, 0.02069049392387251, 0.00496617313290902, -0.035004823725725435, -0.007915956965335756, 0.012195783522752681, 0.008738463240844721, -0.015144236818998192, 0.013160565760415011, 0.014401505888622525, -0.017484755350436372, -0.016306402724836973, 0.009762200338438845, -0.0018464838591469104, 0.003511433746999175, -0.01397226286936704, -0.0023306313990211175, 0.03535157900159481, -0.0003030368929491349, 0.0073223708351478015, 0.004812944976030184, -0.0002710610248105765, -0.007013500025331377, 0.00419769548916028, -0.028268442025305207, 0.030304431620317072, 0.02169739740824803, -0.035747305236626364, -0.0007943865472653806, 0.0022857054811583994, 0.0033841718407742844, 0.004971185818321606, 0.008672885042563762, -0.024496716648978005, -0.027955084512994482, -0.03320182692017352, -0.012203165545667933, -0.0025036116078944078, -0.005963672912572671, 0.01381878242070993, -0.02340437464167464, -0.03923902706350495, 0.006673602760130554, -0.05098607480612976, 0.0020669717917410064, -0.01291511324123803, -0.000956417209009286, -0.00548295172305164, -0.016572882150494097, -0.03747830451231875, -0.019605041364944068, -0.017628211895307885, -0.013561874198465763, 0.0033482025230494694, 0.009185984508834955, 0.003043149437477592, -0.0023222304605324553, -0.010175889863655023, 0.02694161784874924, 0.020939113533219738, 0.018528056711071113, 0.020908753911337792, 0.03064853695860636, -0.008266460919081786, -0.008838517206579142, -0.006157738892238781, -0.01005943553669582, 0.042592300325130096, -0.028551957921674365, 0.015240871062326142, -0.0037832989843213983, 0.026230896968188682, 0.011953036374544226, -0.012441632268111598, 0.003480696859126122, 0.006676960830323916, 0.004834340675533851, -0.008106996282636654, -0.0017553610207438229, -0.024833344149674322, -0.018440278139999947, -0.007545005039944171, -0.012123514333187304, 0.018813517503642914, -0.009466043701424802, -0.0020319927014982413, 0.032157501787877504, 0.02157355463364476, -0.013973116389273408, -0.010222283307722124, -0.03659481274740004, 0.0014702831853631733, 0.0048686754107663995, -0.015568104952044116, -0.05023028475624506, -0.004298503460140788, -0.01622539399216948, -0.012823843191840531, -0.017097735874128044, -0.03208121162496943, -0.004088339269234853, 0.045223790168450254, 0.017856275985671563, 0.0053496945439697845, 0.004559363489001135, -0.00537692563892254, 0.014032440477551578, 0.021575922088671238, -0.005344339045258813, 0.031570046048398706, 0.011433395728838806, 0.014761459733477285, 0.002148322028897136, -0.027771841068139323, 0.015910452478773863, 0.03604394762006558, -0.011530599142662178, -0.024790411962836677, 0.007439961433446906, -0.013345399407685633, -0.0034627904152953613, -0.014287014183296358, 0.014472726064278104, 0.017628968842178575, 0.008613417329273872, 0.03511728574553513, -0.02357632359023031, -0.017837551171633534, 0.01299652506209399, 0.006375404931001227, 0.007927236365940891, -0.02113999699874237, 0.024679320148189177, -0.0008434711338287143, 0.011245664975658484, -0.02901907507587237, 0.012509958970971681, 0.006968218584661782, -0.008538400914564795, -0.013974007873953474, -0.005368899023132145, 0.005032924334411708, 0.0044149320584567055, 0.007436686652856897, 0.005439731866820913, -0.03414011707450189, 0.0065433563591454896, -0.006975562507581368, -0.00935271612328695, -0.0015454650303472473, -0.0017923417580073978, 0.0074021647868602325, -0.006817739814076226, -0.02020812253506586, 0.01804413672191832, -0.03538705089469363, -0.01286793416959291, 0.020262057687799515, 0.026668513501939932, -0.0006491269509180963, -0.012291047109310846, 0.022242528196691994, 0.036162298595979914, 0.010654224912099133, 0.007403723373673835, -0.010267140850338278, 0.020523860403148953, -0.025280111081463278, -0.006842337263121392, -0.0018803029702030528, 0.014514633676542583, 0.0012246027961621067, 0.036280199013446396, -0.022708764815186137, -0.0017407930050359773, -0.02246299555247273, 0.004042985736294098, -0.005795253041396367, 0.011749315278809036, 0.025922211635476162, 0.03303595621534262, -0.032344588914548486, 0.02302060628727796, -0.0017624943920052014, -0.0035430751396531832, -0.013955396253478664, 0.020474379672932693, 0.014547233672581796, -0.0031135712266307644, -0.015481554556895557, 0.04140752859964706, -0.020611004741003965, 0.016570145060958358, 0.007905572178016936, -0.0023524768600000604, -0.025640300473736333, -0.005985830213107734, -0.002629038559541699, -0.013314651145235772, -0.011857238225577993, -0.0034128804512808435, -0.021669354593197795, -0.0013445152939191198, -0.03777821976887507, -0.004705359542035299, 0.012706782950806855, 0.014133491957958665, -0.003113373926735769, -0.03490685468263046, 0.005067888046073373, 0.0028977840127063057, -0.022447789678903724, -0.04168094968740657, 0.008533660290225707, -0.029145944275105046, -0.0181701358106758, 0.000888798087578967, 0.010706999140909078, 0.020732207910775638, -0.019727949546041408, 0.0063835410222165675, -0.009570420633237799, 0.010703696944863448, -0.011190652160390469, -0.009018150113663831, 0.050729692150455516, -0.01964389426125613, 0.003521843249434792, -0.019082614950071557, 0.01056829219936658, 0.022513995513254732, 0.03520264725901077, 0.0014867389666902864, -0.006073725177238347, -0.0398588467856585, -0.012225142747398825, 0.008221631205456744, -0.010468647367417724, -0.032501909229626084, 0.011973129019951928, 0.020127611772432413, 0.02595773176711783, -0.030236828382109723, 0.012935424399992958, 0.003684874694354255, -0.03501757600921768, -0.0007650149659605323, 0.0073212542835138375, 0.006177446850772231, 0.012743565963966906, -0.027777374087190578, 0.013953753712713976, -0.0066099738097187225, 0.027851662424481966, 0.010776909705906104, 0.003941074282072626, 0.011243722801457858, 0.008571933040710085, -0.008634208426685214, 0.015177426986044393, 0.0005175118469335611, 0.013327892981764662, -0.018041223137993504, 0.0033200267667244385, -0.005071593218942004, 0.0001839734742860766, 0.012703693240459456, -0.023390057471624846, -0.009511531545217992, -0.009652455572242138, -0.01931941884510907, 0.021125175639512737, 0.019974671945782212, 0.0020733435962762333, -0.00011646259960058751, -0.03880786904903512, -0.0128254018182784, 0.0015372060144254128, 0.018823277723090098, 0.0048749127384971344, -0.0076851916659524, -0.015646532015422602, -0.0034428591666582744, -0.05121356746523073, -0.008976306246474918, -0.00730532491759683, 0.0016711839072598453, -0.0033238543699371233, -0.005707691679837058, 0.004325045984920781, -0.03942326394434859, -0.03671748562485809, -0.006798860221671723, 0.020783379873574797, 0.0006029832404755896, -0.004336139791375201, -0.01272008679890437, -0.05216310667261548, -0.005488433781344366, -0.013557364577692431, -0.010320857826048269, -0.0007733375637347558, 0.008688672871420035, -0.006689314544357383, -0.0241594819094435, -0.004313721996555881, -0.008305001255207684, -0.004279165829805608, 0.012114735900806918, -0.01731655149761911, 0.003978566915374762, -0.0011222038990194038, 0.013421283169256807, -0.015462573970988118, 0.01911978362455932, 0.006609372866370253, -0.005768387725371916, 0.01571822428501634, -0.007025087655265086, 0.0150135083429814, 0.03335826804791545, 0.002562354919218435, 0.008057250780906047, 0.015237932122068651, 0.04307852805335367, 0.027085120421934412, -0.026091694873677962, 0.002919477555331237, 0.03144030824428446, -0.034827475651913735, 0.0029485503003034287, 0.017314865097167658, 0.01275185916735566, 0.004568440856354418, -0.013508124758650574, 0.001105693591982186, -0.04622353238700931, 0.013092990692552245, -0.0302019681903533, 0.01177781798721273, 0.0026705737918611785, -0.018125568124404325, 0.017821486042841502, 0.035792822542616363, -0.012192791669446071, -0.033365636304870175, -0.0019424850570672603, 0.008990840977076328, 0.020823514703664992, -0.014685875920247398, 0.01238254840165536, -0.010134860085702767, 0.0234431449660916, -0.022064722166314388, -0.028177051844307858, 0.011427069346665894, 0.013216388933390163, 0.006593856289261552, 0.007547904545111127, 0.011049115897991516, 0.0030342484656917202, 0.008270402474414476, 0.014098715546161341, -0.00529810516329089, 0.006123499837683278, -0.029553557476322476, -0.01232704379559803, -0.008237710305541449, -0.010544401936469713, 0.038538841217371146, -0.012500565342539073, 0.03784655502615871, 0.026136923260044492, 0.021816153306220557, 0.005522175502089185, 0.019145293004538513, 0.013059213179387448, 0.0153148840179304, -0.010583909052994674, -0.021128567286477686, -0.049307540158380764, -0.018023433609762402, 0.00495963601791868, -0.003944416808832876, 0.02755789941715366, 0.0019039996966998967, -0.01777401884861421, -0.024460518468844422, -0.01211500018363476, -0.020233434329116694, 0.014573119653613709, 0.015860167836055376, -0.005689846022580614, -0.0030733681160626516, -0.011800930146811873, -0.014643993301896268, -0.016547324567070212, -0.011159071834525693, 0.0009332717002105841, 0.004787606037716975, 0.014187476316559278, -0.025827905769153527, -0.021435374048792047, -0.006421936044487803, 0.007233085068897086, 0.004627589940685561, -0.008536430719202055, 0.0003843782822294658, -0.023903114205727424, -0.011289189294856556, 0.014275798276171463, 0.008296131341540518, -0.012576348545111731, 0.019514920057636245, -0.004801490659715326, -0.024207749776070327, -0.014064202205712315, -0.02769309363621018, -0.005092921221705651, 0.02319049696848613, -0.0111199962374538, -0.0024153577018480974, -0.0035533053332845606, 0.009003240730182466, 0.01269677937944954, -0.03213499775831484, -0.016430891266031127, 0.01375103895194206, 0.028234529848517813, -0.007501857964676658, -0.00022098473414451642, -0.017479465471544962, -0.0019422619108208855, -0.03165206823470529, 0.0022670349475694108, -0.010470016886834436, 0.025951840449768036, -0.02158387570043005, 0.02236625510104523, -0.01539419087232256, -0.017984784815463582, -0.03724131501583092, 0.009224580292295326, -0.030222422461009875, -0.011783604078265017, 0.021693578356144386, -0.011887791757124875, -0.022611523910317087, 0.010038784381837005, -0.014824846395133666, -0.006199971789299079, -0.02197836908906722, 0.02224270173616434, 0.013060320765668968, 0.019838483496492303, -0.033831292047200104, -0.020745301421746347, 0.012820432387280383, 0.0029548754238658483, -0.037884762485298734, 0.00217928866165786, 0.017516569610020155, -0.010548712121119347, -0.023287553080923437, 0.001456669429640816, 0.037653371230690666, -0.00959597152510012, 0.02948169806735842, 0.010513926813962658, 0.009110322954641991, -0.0015479096362385732, 0.01420142771633518, 0.004570058812817525, 0.040937072962740885, 0.00045475420303145295, 0.009241825848371918, 0.020761693908590048, -0.01276593422301705, -0.017881923896354353, 0.04802008624950369, 0.016536867689399288, 0.035671345744300496, -0.002916482587273157, -0.027732592732404783, -0.009986824539939652, -0.0051062854779671575, -0.014047832337626978, -0.018239443941629123, 0.021206667754829416, 0.026018517970297406, -0.012642059813518269, -0.014197523661056583, -0.039947246220739946, 0.0017231772971072065, -0.0017024180806573025, 0.02747597389268991, -0.01930193675090761, 0.01028200800864604, -0.006441450647445394, 0.015237485000556364, -0.010469851338985862, -0.028262723489951506, -0.009052557189965678, -0.011925493536408704, 0.016038868560445303, 0.018223365925349417, -0.007640371969822411, 0.0075359553580472225, -0.00835077569261302, 0.009577173657701277, 0.0206083861230735, 0.010268235682584255, 0.03043503628936178, 0.0010253855600995034, -0.024638604265372267, 0.039939334184339016, -0.003662978366542363, -0.0019162259516856302, 0.022504903666027153, 0.01971020969487552, -0.030242604385590687, 0.02442994592051073, 0.02093714938898672, -0.026935174452212683, 0.003728079404213365, 0.012722799185232336, -0.010169971080613967, -0.003802805325743453, 0.014249545914317506, 0.040064364665207595, 0.010169675579285633, -0.03735834623959197, 0.007437983346087079, -0.040307590451409726, -0.028708896209576017, -0.0018818801522626132, -0.0018304162361965487, 0.02173937040169573, -0.0056242127102516725, -0.02519741770873814, -0.006553050029732187, -0.009197727179172588, -0.012438266727024238, -0.02847104151139973, -0.04352217336972482, -0.006654794456553063, -0.002280420669774539, -0.016088529199772172, -0.028268466851500976, 0.03187088232963424, 0.01974357916895233, -0.029231595585202122, -0.029964039250780308, -0.05307243463158717, 0.010634697933572627, 0.007743164952643193, -0.01911210872860908, -0.002339670990633757, 0.0023411017714329596, -0.008440877694190576, 0.009292715425802267, -0.0565080858166385, 0.017460623061861497, -0.01122577957169961, 0.013778726322328634, 0.007181225023369728, -0.026743522777451623, -0.020819043746895805, -0.00588654887274622, -0.00481131844388405, -0.01534782792307816, -0.0077011063333085866, -0.017042685673936804, 0.0019953915188297474, -0.0026121647499599307, 0.0320688526698687, 0.0018801841857996418, -0.018592638533125344, -0.0027084082500441857, 0.023157103275215793, 0.014154461722991318, 0.013544466856817337, -0.012404124726331284, -0.013691797845854939, -0.004003285967033747, 0.0034310916694303803, -0.017583517900543803, 0.010847543583737287, -0.019117719980013867, -0.002518171406131659, -0.011358062375132783, -0.020373767333220286, 0.006224402001690594, -0.016553693091002155, -0.012484328213606623, 0.004876136909413102, -0.013318402099208163, -0.029132583056620042, 0.015604630709506571, 0.018754487054817984, -0.0015757882313557178, -0.0021573694327139447, 0.0029942086368473014, 0.0036615434584359174, -0.007541071796442231, -0.024874552954566805, 0.010017679236826236, 0.033182559253574086, -0.0010490205030911181, 0.01668785256879615, -0.018977478776315972, -0.0001482319469675585, -0.04272041305723723, 0.013742201054818054, 0.0002540362102727129, 0.036571327222591266, -0.026749102609871914, 0.01435490730614044, 0.007458728251948145, 0.006922957132292545, -0.021591161921505907, 0.01909739778839883, 0.009681167819793154, -0.016975585970405205, 0.030314352038423177, 0.011648998021511791, -0.0037397483323773685, 0.023678804969080192, -0.007463480713976431, -0.022803497472556142, 0.037865594559359915, -0.022597102786858878, -0.02269638377654381, -0.01696927280283444, 0.01719089944681139, -0.023416019285207552, -0.019701353829474612, 0.009829785387850877, 0.012224034547455968, 0.023281141065755868, -0.01615310110986801, -0.025817201455681546, 0.014696621273361625, -0.002303302243873849, -0.01744408217878104, 0.033354964616007024, -0.02141088988075107, -0.0033980011016742167, -0.0012326295512709994, -0.018154485318573322, -0.020898924247097734, -0.016437605203481274, -0.003778618550763279, -0.013668534986815722, 0.008306170907178986, 0.0043486698230168624, 0.006441716089841617, 0.01197303103884816, 0.034643050108038954, -0.015492591821070304, -0.006266799075469108, -0.018069668799845204, 0.0020559451769901695, 0.030083819828222363, -0.022707774573162438, -0.014510784758495878, 0.0030803497395131382, 0.01716367764807624, -0.008624062313186789, -0.0005898934794771623, -0.00032204119740844567, 0.006247291608651521, -0.007791488337249345, 0.012805107017021774, -0.007050454758240553, -0.005194610305006297, 0.00868232377922806, 0.000783697653810262, 0.001849528898889083, 0.019165501384894805, -0.00593967735376819, -0.02181338465819266, 0.0023674780231116147, -0.007565445156117638, -0.0023051108055933784, 0.03448027089614934, 0.03227504787906408, -0.033721771135293045, -0.03473749388040988, -0.04434187201391006, -0.043722222455123506, -0.02591340179622342, 0.01899846025417528, 0.006878038592807493, 0.012593213184204265, -0.011298459691329175, -0.01640498288387936, -0.021037118877824237, 0.026978598141550462, -0.0036586436789242237, 0.0072509264675254875, -0.01312262079913673, -0.024188683050516094, -0.019617194253379575, -0.023031819408105902, 0.01045466189700887, 0.019281760427546108, 0.009704960066099007, 0.009198694234357825, -0.005953018330036892, 0.00781771368995989, -0.01815468757889704, 0.00532621535612621, 0.03328012953292682, 0.013143325172049788, 0.01497266745765983, 0.004861617895719541, 0.019095712031861715, -0.0175393630283167, -0.0034551988934202202, 0.013287173495515624, 0.0277727453343521, 0.01624977593383274, -0.015004975188476702, 0.024423827020468872, -0.0054403086266573124, -0.00448785413380933, 0.0038491191542783915, 0.02166397593118765, 0.022482720082411943, 0.011832222285596716, 0.023586473186256705, -0.029437230436678133, 0.01000942510501748, 0.01521330864441346, -0.016135109047582665, 0.011321189550999294, 0.02869171866989109, -0.010125848705643585, 0.0058326069825612205, -0.005066130791029705, 0.007326468848573847, -0.0009298042574955862, -0.00802028192121381, -0.0196076799702906, 0.018606169905026098, 0.021198274735508657, -0.0025276648687627373, -0.014755503903369157, -0.016755819532209247, 0.0034610444050764645, -0.010267504553338814, -2.7675472436349507e-05, -0.007120123108126767, -0.005023974839303313, -0.011197701522811314, 0.007334273688426931, -0.0030364068849771117, 0.0010575613916873358, 0.0200820074762269, 0.016950515622480716, 0.05070820785482079, 0.026892307834094506, 0.013297401772640008, -0.008023951306475369, -0.0066253573615624286, 0.006827570469983095, -0.016143137255120992, 0.02345955456319066, 0.007175361864520399, -0.02437901980102508, -0.0051988629466687575, 0.024850139355822035, -0.0061439817919197205, 0.02626368189672087, -0.014025241730371285, 0.023266482044499753, 0.02475729202121282, 0.02421131115925479, -0.010133846058502916, 0.019084883159933074, -0.011354997829075737, -0.008033139165258505, -0.0042583683571778465, 0.013121099332261075, 0.021875953658088417, -0.02867596052605649, -0.028665347943191248, 0.018663320956430397, 0.0018385326353679466, -0.012910395714201509, -0.007599205551704626, 0.019098804466298278, -0.009617439495634797, -0.025184907474159263, -0.046321642066717135, 0.0044634568460893915, 0.0027450827736307847, -0.006926276027482555, -0.013604307677149003, 0.017850059213142182, -0.025171944019907386, -0.013004293843679108, -0.006145974472961321, -0.020789578584710464, 0.041079285743455145, -0.013876370866785701, 0.007684767958395505, 0.00014484875609212513, -0.02444922725467129, -0.008218048001188282, -0.022884224202471607, -0.01935090354749067, -0.028338980843200894, -0.006841297744094893, 0.013388591522157007, -0.028316521015824755, -0.005767233325688411, -0.010037254639459323, 0.005321366195373448, 0.008246582838236973, -0.012022683823776477, 0.02453502692964263, -0.002541135730141301, -0.016707926291916614, -0.026728709837261697, -0.00548594935909613, -0.0015662229149586138, -0.018722449718400175, 0.021597623200738835, -0.002134024939069204, 0.0018065499115756387, -0.0023335102193331432, -0.018779069214561215, 0.01070221840133712, -0.032353924664284835, 0.0041859853005034135, 0.003015440202597253, 0.022161919163201704, -0.0159897793134137, -0.029744487868497132, -0.00531071917239205, -0.009377433461043177, -0.0022245673849498886, 0.010281869022259834, 0.00890802685791927, 0.005018515301389865, 0.006587995771530164, -0.005787617861634014, -0.034350528164602365, 0.020196154424263587, 0.0018494108355741794, 0.01712297421327855, -0.008391746016975232, -0.01726183369046299, -0.01931145168884436, 0.00822240627505989, -0.004906597406042175, -0.02018318363803663, 0.018038262540089712, -0.003694732066904259, 0.0420455568331459, -0.008000257601433788, 0.020174426109089923, 0.004480517046614412, 0.013095514114099108, 0.003471092832819946, 0.021848661427470627, -0.007986751439438418, -0.0012059849057589297, 0.0028806683713845384, 0.017122513529554444, 0.0012702132283125395, 0.025972331285140024, -0.026943423257215597, 0.016431486607491743, 0.009772066151389822, -0.004775538631779644, -0.001989418480107215, 0.0025033148004492286, -0.002895109693596581, -0.028076974314110284, -0.019090872646105664, -0.013935238896528342, 0.024999814768593732, 0.0025045948950070214, -0.0007974159922326358, 0.004911065511806181, 0.017030566198618254, -0.017670705725701837, 0.00958400547024181, 0.003982551001117471, -0.0076610713913195004, 0.01711459013427992, -0.04257274483446622, -0.010392775773519991, 0.04272170183143803, 0.001451730179723535, 0.001001848746782352, -0.042951077404578236, -0.006067284177148535, -0.02573175975914021, -0.013607821983561943, 0.00709156384439378, 0.015039116508581826, 0.020804528163230408, 0.015879407391747067, 0.029194473891729418, -0.005998323249846336, -0.013128597279962375, 0.016957126229825835, -0.01997578575529226, -0.0068308525744663045, -0.01613184971021399, 0.04281294921044928, 0.0059987443936724135, -0.006560032676687953, -0.008857102082988578, 0.025574937254949755, -0.014928614986560455, -0.03217122836096098, -0.053049181243702476, 0.0043586871034105995, 0.0021912327760024615, 0.010860839998725292, -0.028225973960389377, 0.035513423995080125, 0.004838928433601262, 0.00899719196032916, -0.04621321037462737, 0.007838674909678822, -0.03534763856317742, -0.009241977451831451, -0.004098081665109791, -0.013039731862867332, 0.007611406462336661, -0.009301636899684008, -0.01799895318506737, 0.007182596648604643, 0.007871082153061686, -0.017319450730013473, 0.005749479981093243, -0.011530389354697189, 0.006809510877949253, -0.013603936700408673, 0.005408903936124891, -0.014338334296961873, -0.01031680462941362, -0.024895982454540378, 0.014903163406295376, -0.022324481948110455, 0.019447077737862858, 0.02207753289493791, 0.03588100112578094, -0.004675778936096174, 0.009588768379527294, -0.007013728605398238, -0.007732058230632525, -0.006827386425206952, -0.017846502861454994, 0.00750120341456796, 0.031907446320901145, -0.008802925227748849, 0.013306765382389186, 0.00033398187679173493, -0.0006172133525886276, -0.004887649300992675, 0.009740031882930782, 0.035684308115649196, 0.043470033323384845, -0.007015072518631909, -0.013519312133253083, -0.011673723648411237, 0.02494338480999177, -0.004558109791435682, -0.012160466230541742, 0.006921741719076964, 0.022279606574561708, 0.018033165838750524, 0.035130762509089794, -0.01292095037692073, -0.017051904039392093, 0.004595277900996795, 0.01550615076650554, -0.010708989903321465, 0.029563730898393023, 0.024062614827494114, -0.021467994869039622, -0.010957209674250526, 0.017458018367694346, 0.006259701990114993, 0.034824362804393695, -0.007986492346265158, 0.0036920207605920493, -0.003956775703765938, -0.0022461771365812405, 0.030167934564327835, -0.014704743235490803, -0.006576401138981902, -0.01760600425930523, 0.007928896900844027, 0.008785982520129743, 0.02229777927218154, 0.019692640145104915, 0.010554081030265082, 0.010703006505437344, 0.004240964036466207, -0.006505621770825944, -0.01104054224027142, 0.015294503654803988, -0.014601891187222394, -0.01470796488880738, 0.03771186669767819, 0.0078382763852209, -0.0005646806163379298, -0.003728921636944215, 0.006289632990622493, 0.03705663731385325, -0.036325817174896954, 0.020544765422428855, 0.012125527124744767, -0.01622450023520338, -4.4428603918642e-05, 0.021298436015032732, -0.007671795285423535, 0.04639980695639824, -0.00904296171998276, -0.014432366078613755, 0.008846443097835588, 0.0010429382682949383, -0.03817107073155585, 0.0021271427668885226, -0.005490843894558707, 0.010768764706165621, 0.006699263568513975, -0.013392033853963132, -0.022357458776017747, 0.011945743251359064, -0.012140406049730709, -0.006127031700329903, 0.01506696281332051, 0.04828626394369437, 0.004409025777567988, -0.03807307859651025, 0.02274233724884137, -0.02761742678182628, 0.0008290390157483135, -0.007285969964536523, 0.001503063928286823, 0.02347227975550907, -0.014547919258226124, -0.021747480126687622, 0.011374523427449311, -0.0011053450812975288, -0.0022436948554127867, -0.013460712079087582, -0.013758173710437386, -0.03611057306134886, -0.006530450752101964, -0.02075176273908184, -0.010777145867493912, -0.017540243418183662, -0.010729679560726879, 0.006257938307354083, 0.00867942494552491, -0.0028356411105679613, -0.011543253680504075, 0.0024308160660166823, -0.002261228311116287, -0.005414007421430815, 0.018745555935482543, 0.0027693619353839167, -0.043654558536517514, 0.0014410585100230646, -0.0012078818311690661, 0.013940875583935851, -0.01985915649675567, -0.00493930493946794, -0.012195831963000245, 0.023435109711801117, -0.011466233434472149, -0.009665656518908473, 0.016540647548430622, -0.004488535944426996, -0.017945593567143592, -0.03343417057592433, -0.024522395889961898, -0.005361205491467713, -0.007603416381598512, 0.002224276855333091, 0.012605833327471627, 0.010927835021463954, -0.017727764136673766, -0.011879936227929787, 0.021786824884348424, -0.014329092959534937, -0.020185994021908883, -0.003221759624142421, -0.029199985513975336, 0.007078505495557913, 0.009248353270545816, -0.0070198358255761035, 0.015400028377411772, 0.00816588160042451, 0.013281185373723014, 0.026868271769155183, -0.014068119053918795, 0.007193055259696419, 0.008152010787277056, -0.025528302379218798, 0.016878842736153046, -0.005136238930366303, 0.024910222908843767, 0.022683186400995748, 0.010602536757576393, 0.020186640974199924, -0.019461923626672088, 0.009797491968363423, 0.013543814478669682, 0.03475553108334221, -0.008076229278841671, 0.02437795426077515, 0.029708482943393438, 0.015061300454938, -0.0027057585544762045, -0.015098347672866023, -0.012518389567019209, -0.01353560881658992, 0.005515131548234796, -0.00250203532200189, 0.01352429432643028, 0.00021459814419769107, 0.03254174912238873, -0.018046503011755876, 0.008128428662124116, -0.0020035731439431172, 0.012529721267330585, -0.009462889671085368, 0.0016398121743614622, 0.013894649765885848, 0.02101510345123281, 0.011210813638705294, -0.013471173796738354, 0.006954181858037959, 0.005178443572328084, -0.00897638344724161, -0.0017502674974313858, 0.03965740963932983, -0.022407213038046818, -0.002996202399203351, 0.0002269403412436903, -0.025628895068440984, 0.0073422810719543435, -0.01566636732928479, -0.02850017168924683, -0.007436908341465979, -0.015158972239938614, 0.018041546764119773, 0.013727421601538425, 0.027904210063222783, -0.01187036085323095, -0.016581237503532575, 0.009325818623465125, 0.016282880791031053, 0.009367764079504352, -0.011402880315732286, 0.030454063242931925, -0.00658363367614106, -0.0002640001293922516, 0.00303098387350854, 0.010032679228317212, -0.017280256425438463, -0.0005185340768916683, -0.01606422140739088, -0.010957086798079578, -0.003254067605585019, -0.02488912442930007, -0.04135893375488903, -0.002845840867657203, -0.05456657452188711, 0.005514109683149873, -0.02664533632479675, 0.008275850614646113, -0.012379874980343913, 0.01428424398421815, -0.007756592401815559, -0.013121406153509065, -0.00921797653148559, 0.008760349259965727, -0.008635389549238608, -0.008218762440938334, -0.011493879565436113, -0.002201182038690405, 0.004402549472349724, 0.04367268610357051, 0.011604764720783022, -0.02259925313438135, -0.026107539624940963, -0.01682207495231076, 0.00654357913345346, 0.021552208025960293, 0.030971161388205836, 0.022043282275175442, 0.03431205621028419, 0.0200508926442167, 0.0019477584627527762, -0.0008172607155500923, -0.0006380064320616347, 0.027187770739328647, 0.03840187237838064, -0.050199289923875456, 0.01273414259671122, -0.00034465403879913574, 0.007913438055639802, 0.015592551150079903, 0.03345655911853945, 0.0022083284341856795, 0.038771965766602134, 1.5406174065870077e-05, 0.011727102375003474, -0.020544620111293294, 0.010643437929133748, -0.019627253247088555, 0.004140657300983779, 0.012045031362750818, 0.02848085758480569, -0.019718586280859835, 0.022573249275555575, 0.0022130437541421693, -0.022567985407190308, 0.026020756596299672, -0.0009133510193976967, -0.02014542960864331, -0.028665942968211088, -0.01367958475625583, -0.00015954483582795694, 0.00573278361119359, 0.010190894821595457, -0.008975010501629304, -0.019968282347054576, -0.015086645760558062, 0.014336042709701527, 0.042834386561242895, 0.004659654497643019, -0.0035027498949466956, -0.000892178549304866, -0.009432887401742881, -0.010284139623630196, -0.016848223632723303, 0.01950799615400269, -0.007486943497822514, 0.0027101914670732224, -0.022385797250458757, -0.005580379694665509, 0.006420183588033764, -0.037358988305016126, 0.00838824100900185, -0.019084922328638107, 0.008128923110358538, 0.013170823609998557, -0.011874622002219594, 0.035994048425671, -0.014429717763060734, 0.011150928482976451, -0.005633238886178558, -0.0012392814304069994, -0.02503375944251214, -0.006318150342362077, -0.01548004896625769, 0.013191689357232306, 0.01568800797652901, -0.03393420998261484, 0.022547320315557777, 0.026012462498597632, -0.006577202791905333, 0.018583865595585943, -0.01587591275576879, 0.012715787030648615, -0.017437240839236437, -0.010252364768317535, 0.021110820260015237, 0.015935429645770136, 0.004410769310424223, 0.007395948346001208, -0.012156981464294772, 0.013577975770008103, 0.016207594962679133, -0.014581075125167214, 0.01694993459009467, 0.02712537865420375, 0.023059669659278526, -0.02065763806971316, 0.02496183226370583, 0.005870751378846602, -0.004338635037525122, 0.016733810127605924, -0.01328870849998066, -0.007189202780027929, 0.016408087144135726, -0.032417636071798296, -0.008969571779288964, -0.009606311445562225, 0.030143306797172843, -0.007723303931237973, 0.002620325697039087, -0.020301573222371933, -0.008910901676629704, -0.014944732773303713, 0.03262007999792863, -0.01232557214786385, 0.017266152540707593, -6.325626869658067e-05, -0.006337112719265733, -0.020327371034727273, -0.003986952541856847, 0.002066732345342547, -0.021601834799067222, 0.02955126887082558, 0.003242577623354088, 0.022989392595510763, -0.023153669457308106, -0.006198521564673033, -0.006762619298787157, 0.012909896699067301, 0.0011093918141169181, -0.007497362484125004, -0.015053976299013993, 0.015853482591340187, -0.009296771148840928, -0.01669154881166837, -0.0007492483452278847, -0.002415194069171208, 0.009719204181969277, -0.021331227433995698, -0.033421647812225556, 0.015725841738954745, -7.578619958065114e-05, -0.03862160577921719, 0.001387541529562256, 0.018852143812311237, 0.015334812314688518, -0.0027857708866959397, 0.010677585288314518, -0.0009171812634892853, 0.0023804701915608457, 0.014939685533743417, 0.011301172325127923, 0.01246672966029576, 0.040789332981062645, 0.006637423655228908, -0.011223430046499885, 0.003245646506708518, -0.03193925016970126, 0.00524747243913801, -0.021127211255318672, 0.005488191681924333, 0.03143587396241118, 0.015279356749646412, 0.0035557355333037054, -0.052542404822840644, 0.014155682069058144, 0.02203182021240127, 0.0015621973055375319, 0.049332691061392736, 1.0396653522540647e-05, -0.030858460565975448, 0.014919340740379145, 0.014869660876883867, -0.007985304169151313, 0.03008865469139997, -0.005927367440912066, -0.018840883268978006, -0.02457937222110937, 0.0033272344425521196, 0.017637562526172997, 0.0057688973856483815, -0.004364041704887339, -0.007203055408210152, -0.010523804649870903, -0.001497699826180724, 0.025600659034182214, 0.027572613917241633, -0.01940187365172607, -0.010006395260847423, -0.00928621805094639, -0.03135234299903, 0.005881193989272645, -0.021047476691437434, -0.017646937037672665, 0.004161605507821833, 0.011792241088271382, 0.02075247639971747, -0.0038272742346397407, -0.01571906753428672, 0.009420137262704378, -0.0010536568853143915, -0.007338375044814728, 0.011733472643273306, 0.004670189570426697, -0.026997394072480047, 0.012596753530628845, -0.00801849624546694, -0.00020090910500324062, 0.017858319940869446, -0.013111825143816619, 0.022757925455123246, 0.011278941305568408, -0.012843396564119284, 0.008236953383857703, -0.004995049333751629, -0.011086490586999065, 0.003300531965736956, 0.0011180192153581704, 0.01065570568380169, -0.008712944364970901, 0.0070110114490465, 0.021941585778123156, -0.03333976565223836, 0.023727673385144955, -0.025543210905090246, 0.007194516570830683, 0.01384912587321117, -0.02993233128018657, 0.004016206742902995, 0.003419371457733884, -0.0022394830237947045, -0.02272708310742517, -0.018065274928589926, 0.0007477558695976526, -0.002593460369867514, -0.03547249204353794, -0.00034084175933401053, -0.01691460594582075, 0.03115803711086383, -0.0010961606823043852, -0.007649725297730448, -0.0036566901602819936, -0.01685514079710825, -0.021886641485571408, -0.03344020910198434, 0.012972322052585476, 0.01666156953521608, -0.007642834691739367, 0.019780588112889026, -0.007105796067814428, -0.0017574765303670233, -0.010793162907917212, -0.018137410429683785, 0.04773696701804776, 0.017971984048419105, -0.020318952364515298, 0.01699729293261898, -0.030396684485930428, -0.008997699145712322, -0.021145551378840628, 0.039280533562823565, 0.024797186910335924, 0.06640803994232128, 0.0028983424661185525, 0.008823381159476127, 0.0177143268592468, -0.021776010192356057, 0.0012566564664145414, -0.017066243523736275, -0.013451993117517002, 0.041802820274182875, -0.0021355440593952076, -0.008811963510397425, 0.013576479677885948, -0.03043915215508846, 0.01061089518215829, 0.015981328033290134, 0.015758820665871667, 0.01996563955837181, -0.02812588847105705, 0.01203001036598532, 0.0002202935095704984, -0.029740972853951664, -0.02264764651090268, 0.013418590700645846, -0.0021210969960695717, 0.039849216384989686, 0.029334599320614083, -0.009197125230782945, -0.00023721314983712346, -0.0082415390841757, -0.0006559647776364323, -0.019121521474105275, 0.015094351839274144, -0.002526198773577454, 0.0014380490573276273, -0.010584604359043194, -0.0119854271148973, -0.009122278076664407, 0.0002366302172489519, 0.030622224402532337, 0.0015568012828292288, 0.029696755877256273, -0.004524293105215913, -0.00832178820353054, -0.018708145534636674, 0.008800202353907044, 0.04113120774947707, 0.0042509012861630035, 0.006793719379685492, -0.008605796002639865, 0.009805244008070467, 0.0007532192920613047, -0.011661692758675407, -0.0387460895143951, -0.00948678833749286, 0.0011155059215733367, -0.0013141420926378686, 0.011330763140468809, -0.016412059808962917, -0.0071079797218404584, -0.008520725213735019, -0.03328455217608235, -0.003829111576114343, 0.012534181866201331, -0.0013040542097823868, -0.023228237678691883, -0.04303592662636255, -0.002757586329932932, -0.013662181514584535, -0.017159038827037922, 0.023234332776873715, -0.0144769816427134, 0.01710118504156884, 0.0064795720319040205, 0.019684714209775037, -0.006851953961766956, 0.008816154008848432, 0.0032276285644434973, -0.015239529274648498, -0.0115281500276081, 0.028592840610214332, 0.028010453777455754, -0.0159817632687927, -0.02532722652742385, 0.0041185253910565305, -0.005745119174117495, -0.005434988722058272, -0.016671216506996902, 0.0017337221966579504, 0.013161397065200144, -0.005784968722994841, -0.0028974087263632458, -0.0177189187888106, 0.014080515037246125, 0.010226159703497486, -0.011111039888585288, -0.004549690796204088, -0.0042714163657711565, 0.006435715948939101, -0.00882524810414131, -0.011188881464393214, -0.03251916463562351, 0.02779915843401695, -0.02062115056333507, 0.017426058060931063, -0.025988126814078357, 0.03723968193851994, -0.005312794701859405, 0.02011408345409826, -0.015366877291712261, 0.010693037185567458, -0.01076336267421129, 0.010637461408342187, -0.01544829585807975, 0.02311661403906276, 9.583182487319465e-05, -0.00838434975361131, -0.00045763757107439133, 0.010203845541668874, 0.002252867672498722, -0.023185988787358686, -0.0008168820510484647, 0.005018706881972305, 0.009620817694401101, 0.012387637086029886, -0.0010277535641691504, -0.01946921586612932, 0.0007218481138526169, 0.005317979421487482, -0.026247651468638833, -0.009416212290875274, -0.048753184488295666, -0.00037241494999600564, -0.02368521730065976, -0.014838896068430436, -0.02630527261536899, -0.051474721601674225, -0.020141694713886583, 0.007436629036642696, -0.0034859138063496227, 0.0058848154978550955, -0.0314482680380196, -0.011196409543177502, 0.001280293195648936, 0.00489718976366819, -0.022212353342740406, 0.011663539219665077, 0.01284035311762864, -0.00832098505815162, -0.03319078907573317, 0.00258212391143344, -0.018920828340393752, -0.005612432329904885, 0.02061457715512747, -0.020431307943789386, 0.02572643784165646, 0.007008792017124253, 0.00965590485513762, 0.0181602116761334, -0.0005305678039547665, 0.03043830895735313, 0.03138805091332296, -0.008395802951816607, -0.005995355950741136, -0.026620436344190902, 0.019052771647529575, -0.015111381574040803, -0.012165309048903393, 0.027887446497107855, 0.03358588617341057, 0.005272836963766239, -0.004990008031772457, 0.0009826826568759268, 0.005725978759882488, 0.005692430139269874, -0.01120305349621742, -0.009236816325743306, 0.006552451237226442, 0.017339385955278147, 0.0010845813684478357, 0.001109104647045931, -0.0031366225640483227, -0.025843444235582352, 0.008957268289669532, -0.027630523146842292, -0.04039182141333711, -0.013971472168453347, 0.003498972308838615, 0.011424568639700866, -0.03059199095650448, -0.006203429442590662, -0.002834833871549269, 0.013773024932891141, -0.017447422653602548, 0.01647806530742157, -0.0016500085153192637, -0.002044776047761077, -0.0139373507986666, -0.02365383301406002, 0.006425960451907849, 0.0018167380384088675, 0.009029299476638025, 0.013706765300383375, -0.02966343965937853, -0.01602359408741163, -0.010765039826414736, 0.0008043713770878476, -0.02732272105649329, -0.0089494799307827, -0.029645783977817464, -0.019291098735531493, 0.0157022298104041, 0.01665618902005692, -0.01330874427954062, -0.010517265931037953, 0.006515623054627795, -0.034484500616526324, -0.016530713019570945, -0.03013738367717775, -0.0058750287907130385, -0.00040889893617679005, 0.014272575946030036, -0.008151732374517795, 0.023857994160824913, -0.028607026163197387, 0.006157177208974262, -0.01770796751382925, 0.014821676110678722, -0.026908993398311334, -0.03661605647592719, -0.018462992500251973, -0.006914854654218947, -0.03202806780714217, 0.013588488324169763, 0.020377001741935213, 0.01971872149251241, 0.010153650753671195, -0.01900055493919709, -0.012652090582123156, -0.008848233687904541, 0.024929299635259996, 0.03108809925556264, 0.0006608475300885752, 0.00713902097604186, -0.005048002397552448, 0.001111621767710404, 0.013833258733977439, -0.034960613873722034, 0.02173602913574723, 0.055724732892073234, -0.011087036737037752, 0.004157144183221694, -0.005320230588357576, 0.006485597800992369, -0.019247209962747387, -0.008330930058566551, 0.018155999864974848, -0.0004450687137747426, -0.0063614444362965206, -0.018126607860537134, -0.009600119346531296, -0.0029305174276009877, -0.0008515325195142915, 0.00017281397484050534, -0.0011858471181082227, 0.007430206655749976, 0.005291306907412445, 0.01953595495169687, -0.007107235288713922, 0.01178443404658348, -0.0038072841610443313, 0.014409175905772238, -0.0014602914161009769, -0.018858365250339876, -0.009565340873269478, -0.004150765171788931, 0.007403213537582934, 0.023833943158021863, 0.03922575270250419, -0.0027004047943929624, 0.008700500788201027, 0.036341922745206034, 0.02373433766478705, 0.0017204153081328691, -0.014250679627498495, 0.0033534169522321236, 0.02446380168353999, 0.0043889712195802205, 0.009962243864087408, 0.007072984165679648, -0.018597075113250653, 0.0151548392131224, 0.004087396112383459, -0.0017011761178922153, -0.017998643915517903, -0.006118473172294028, 0.02004074359987976, 0.011088901304288565, 0.0036810994817454957, 0.04041004457070889, -0.018015314309412306, -0.002911481088410464, -0.030414617527924147, -0.005305035571343212, 0.015744752939057378, 0.02327650251944234, -0.00041780749180019927, 0.012375923043202479, 0.0042753165323456774, -0.004746691092396385, -0.02941690020892126, -0.020523833067781366, 0.018425018705091233, 0.009204440176411168, -0.025094173502211062, -0.006057868910453276, -0.003850429701283034, -0.003826249116563726, -0.005418766916285266, 0.0016019174614965099, 0.00768441239843838, 0.02378231675511998, -0.003774445167072383, 0.030841193757070028, 0.002334980648191304, -0.005586715774010754, 6.96462316261873e-05, 0.00861883304677942, 0.013336368639356166, 0.03935575940546274, 0.008552691292007647, -0.010972509972883213, 0.0002908205416780444, 0.03231236688791055, -0.0003822215335481245, 0.02085234388266922, 0.02722205697950104, 0.019330240337654743, -0.009987261348829702, -0.02341243206918118, 0.031812290519550056, -0.009896711216566285, -0.0283348566904726, -0.023574926646544203, -0.004710350400533807, 0.014742664308057759, -0.039751358139598576, -0.04058315199837617, -0.01251819797161684, -0.0056812055226052385, -0.026381920561507358, -0.009499242842406483, 0.02141127071008467, -0.018981952786215832, 0.0019320553391378675, -0.01648657496845093, 0.004142843101073418, 0.0012654368330629923, 0.01724100243485246, 0.01082406543346082, -0.005241753907040987, -0.008928785082162924, 0.025061557992980713, -0.04069508291206342, -0.0029986662613178563, -8.223360515201849e-05, -0.03407263032244906, -0.011905517484958248, -0.01553752269992077, 0.0032971711383580154, -0.007272721508547238, -0.0034652493535450753, -0.013266988701453894, -0.005586983558748387, 0.0012869770166990201, 0.017447131487442417, -0.00022980200838645508, -0.03523828066971786, 0.004354836838519331, -0.013554007834900045, -0.005237882767283125, -0.004711101140315624, -0.012632603436764773, 0.03120351286908558, 0.013794731952991253, -0.021386932510856226, 0.013641434011493423, -0.015887263887652166, 0.004878012387043104, -0.008477396039870832, -0.015409416170642534, 0.013003965397084314, -0.0067544385317478165, -0.01989548638977746, -0.005399203920064628, 0.01331439145324662, 0.018707843770911062, -0.014930891527958299, -0.009661510930324337, 0.013296660825711012, -0.05757564906447486, -0.002155088658962626, -0.011336303692393445, 0.0018839840105904226, -0.00968452914343935, 0.006639573555447733, 0.010334079357814113, -0.020730324268988284, 0.008458559714226165, 0.048566476774528536, 0.004532842508249041, -0.021914898471102486, -0.030224307400004258, 0.0013714209215263747, 0.00551965652055912, -0.04924630307487729, 0.010995271554775744, -0.02253453112293994, -0.0030096268620086403, -0.00496740892314879, 0.025257136567064225, -0.004072169139981462, -0.013753508011213628, -0.001628065854912824, 0.011058844257778333, -0.03515613952397932, -0.005244599884729439, -0.001672698791762858, -0.00279182949997129, -0.0160448720797318, -0.026328035959627183, -0.002799970901482518, 0.008238556922593263, -0.013109925188258108, -0.0029422011960670417, 0.018307466581347447, 0.007427369013538882, -0.004567271368406394, 0.026012664779580325, 0.035695593307442056, -0.005645836568162613, -0.0264011974266611, 0.012030960603043471, -0.015194140369130117, 0.0011660109159492545, 0.019926921649013263, 0.03271381372737715, -0.03939780586829854, -0.01177630574547967, -0.02886422230019132, -0.013459847501198727, -0.028073543237726865, -0.014114187884184158, 0.004462651835540435, 0.0077131523742994925, 0.015186869473292975, -0.004658895174310758, -0.012589169082292353, -0.0032823094273323355, -0.021092451550133406, 0.011993687155649616, -0.001620229255188962, 0.03353599950481599, -0.019213452054300223, -0.015728671073754363, -0.0005065448606324747, 0.011779075826005542, -0.0077733455498827505, -0.017984089752231112, 0.004521862459399408, -0.03477285314665115, 0.0008028476800716493, -0.014802220742155276, -0.001780318328803704, -0.013448432634216927, -0.0020056582927553282, 0.014630153753847441, 0.029412255447583618, -0.002347705534978197, -0.00046114324319910697, 0.007938852020113631, 0.007984985492247838, 0.017038772130451185, -0.005740345422940639, -0.014060478302127765, -0.0013389784867903786, 0.019247872185955354, -0.009068154903734648, -4.643144715542716e-05, 0.018696345079145013, -0.007786063302990441, -0.016135003647169868, 0.01406479775698911, 0.01596213278789358, 0.01860208311015232, -0.021444567058334134, -0.004454536086786184, 0.014771156283048599, -0.015121260634358384, -0.007965905072243004, -0.010198766444884808, -0.000886808004471333, -0.0038348276739604763, 0.0018631672170013073, 0.03072281316502129, 0.004780147175382096, 0.010378699196537099, 0.014196131892085998, 0.01961588469848382, -0.013466439377005169, 0.0025570146068577193, 0.006115797345978565, 0.020407240294945988, 0.03224182767105486, -0.0025875431074457982, 0.010030643351156216, 0.017710372605637358, -0.028401513273508268, -0.021610713229801435, 0.025097097745309566, -0.013965953214588784, 0.04163246678967494, -0.0077549200009881395, -0.005661608354298989, -0.015665597946715314, 0.0023970938928450287, -0.004583063031453558, -0.0175677618852352, 0.012006546730770557, 0.004948468119713797, 0.013363172619837075, 0.013929439035531883, 0.013196350269492304, -0.011044204805391512, 0.014083375369422724, -0.025007037964838472, 0.01956183362732245, 0.0007981342887175354, -0.013950055397726422, 0.0102500484928699, 0.00029551536708027464, 0.00045747548525957584, 0.015496796497260464, 0.021404461434952077, -0.0021378452456309355, -0.01048198508254505, -4.748011979572761e-05, 0.04556831387976719, 0.003148405367056365, 0.02029356395946807, 0.020312334418332488, -0.021902703404341636, 0.018548265434608902, 0.0088666585328623, 0.011330513761342607, -0.011832393963585982, -0.0037691843361498593, -0.02347323484493665, -0.008657588427878955, 0.003464915256674572, 0.012731446013597297, 0.031419633325838886, 0.003145439188929786, 0.008603932532012637, 0.025821996726349085, -0.007006303449097963, 0.004203608022915031, -0.02345019024493074, 0.010702579359832903, 0.03990602396678227, -0.01246891900744739, 0.019182196943203694, 0.045457407559258506, 0.0180872150758939, 0.006767711892617569, 0.004685714037048395, 0.018408371350374222, 0.03420535827065373, -0.029601534472797373, 0.023125733366382878, -0.002418945287957058, -0.011139921611904576, -0.025339763342240654, -0.01776642966817219, 0.012359843111564439, 0.04412889301525271, 0.0002503487945174867, -0.02091158325425404, 0.00417627353436783, -0.008700458025278858, 0.022826820100360187, 0.004278859458425319, -0.00633086962285338, 0.019369206044469782, 0.007694134788213984, -0.021674201806398247, 0.0010392009259167386, -0.00974186359883001, -0.01769000925630527, 0.010304828030768117, 0.02601754494358548, 0.025805526677637015, 0.026344273207858565, -0.02597143933666758, 0.011096619416350078, -0.0374917186223127, 0.018374525062398245, -0.012833147144438579, 0.011812029830328962, -0.02034452051936175, -0.005729302792119854, -0.028775604947154313, 0.007563064253548052, 0.001836856913939304, -0.0001269336137095052, -0.00665960434897493, -0.015532082078343173, -0.005579755810478811, 0.007778846344765353, -0.01335616082362513, -0.007802894271172722, -0.0039494949397238755, 0.015362830051506078, -0.016142654034700006, -0.01685526628748548, -0.03728479780877184, -0.004621340331628736, 0.008029618902332305, 0.019166885598119642, 0.011143003809338407, 0.013170732063383015, -0.008007550827088945, -0.031115959963887833, -0.012658726704971472, -0.020996808162578214, -0.0020037687515548006, -0.002734032431433086, 0.015980852435418406, -0.004356840667174776, -0.01507913023222571, -0.02096347048744869, -0.024709005954872604, -0.0023917457120219707, 0.011149018673171827, -0.010146770007966398, 0.02353785821825382, 0.008365019692258745, -0.007011484382386455, 0.00891379371394591, 0.0022699014642460313, -0.015281027472266477, 0.03032711706626778, 0.0077692425229806406, 0.010557862397822379, -0.012197764845669817, -0.01824605696171763, 0.009836628872617895, 0.014562579662139046, -0.026561288330345965, -0.044966385284310816, -0.02685503949023107, -0.01974397040691085, 0.017775264338194447, -0.037132311600245195, -0.03428961143946072, -0.0355286044027494, -0.019763627146876007, -0.0017529300002880833, -0.0036247664499476496, 0.010628829553355344, -0.0273520522636704, -0.00392827295622331, -0.011089306392561721, -0.026785447056357006, -0.03066927728106221, 0.0005091512234973808, 0.014210117305178583, -0.002778865328139181, 0.001107160384641918, 0.04891667535710997, -0.00883910381679712, -0.042780955515127846, 0.038820710682600325, -0.0077487198106943045, 0.025247447986516323, 0.010368324115880272, -0.005964866303295403, -0.018809007116256375, -0.03961090572418157, -0.01464140009694614, -0.009423908029082549, -0.007884732997056451, -0.000377568398858915, -0.026202376387051234, -0.007300791991715186, -0.010706160987126553, 0.014112119693122302, 0.000711180257749715, -0.023014443105347223, -0.011313040029394272, -0.0021211481993940514, 0.03434748657104433, -0.00030464160636522943, -0.001486662485976755, -0.012275810604678299, -0.004747898947853378, -0.011497003606449412, -0.020821621092148742, 0.0017435008316193544, 0.011720696056953743, 0.0015795642227555966, 0.005885936109561514, 0.0013614218273332204, -0.014730949602862673, 0.011282207718271483, -0.025569265954004626, -0.0008350600430592112, -0.0028351302017731927, -0.020590290438732253, 0.021310457142698976, -0.020299194158307773, 0.037686290387359815, -0.010158868118286113, 0.024024063311978476, 0.005454258902928025, -0.025832186620799426, 0.011709493706389733, -0.025278105267308046, 0.0010238147613370653, 0.04226234492488055, 0.004503472953352235, 0.029133771418756983, 0.02363962820183326, 0.0016466835227304329, 0.03679948311131517, -0.014023413412536358, 0.012126122481055403, 0.024387168627431427, 0.0019610760628082985, -0.009897405065689724, -0.006184057943238737, 0.003676420020316127, -0.034598286657610694, -0.010447224965018728, -0.015167039150616122, 0.012922460989631984, -0.006745346623322485, -0.0261644157629222, 0.000987695817193344, 0.021427440016692632, -0.035719456237072726, 0.013148046687442247, 0.0008185221891579248, 0.04220140205489118, -0.009334906165447398, -0.002895755127038939, 0.002157935601774257, -0.014596416177421976, -0.020232627759618732, -0.012881852341179473, -0.018479536129165208, 0.0068505427829408765, -0.02044602052025893, 0.0018276313153575534, 0.027008907286798303, -0.040441574547080625, -0.014723947981808956, 0.0422229052040082, 0.0036323738955027053, 0.002054434050262242, 0.00329867480675608, 0.017341760815433597, -0.01745196482268663, 0.007323825456114125, 0.007882451432238537, 0.006783867304351196, -0.012872938346642666, -0.001132200482551083, 0.004817592329235783, 0.021988590055869676, -0.02703857793742349, 0.012685613078500904, 0.00140476763636942, 0.020549616109048534, -0.00934864587608904, -0.009154322668725482, 0.015011406274064954, -0.0026806048617008275, 0.010490010174141938, 0.0020886333475094204, -0.02552037320252576, 0.004588762649714218, -0.009182589380878537, -0.02786952706925341, 0.017225579675108432, -0.018967208508427556, 0.007103529780644991, 0.017201309428905295, 0.020679133046439337, -0.003299720749945938, -0.015797673635026297, 0.023803070433251285, -0.0010217032363905977, 0.00795775201484656, 0.004728592444356808, -0.010657208952531876, 0.024630331244751422, -0.006284717624140502, 0.05181162426358453, 0.014576368019126857, -0.01732081203083638, -0.01461690239250338, -0.004178758081022409, -0.00027067738920747797, -0.02178283176476873, 0.043620814359784675, 0.004176475415019908, 0.0391333244191368, -0.009042733365078699, 0.025286867879775635, -0.009696918268129413, -0.031047835340631717, 0.023266124056240046, 0.02169475797958942, 0.003966695412613811, 0.020540294115842173, 0.011399150255087915, 0.01110259774785221, 0.001843079644853572, -0.006067659246848953, -0.03637477923399387, 0.026849079217146736, 0.0417796897637682, 0.03719984749205966, -0.011681256225583156, 0.02402095288511045, -0.008398943360852505, 0.004570307578794902, 0.011940207272966397, 0.01612566338744663, 0.028739461013546748, 0.00834486321482102, 0.008955354921863225, -0.01057338417895801, -0.004264846601046974, -0.018748205692300603, 0.014076216536941603, 0.016220850877130908, -0.012137119341214309, 0.0043554258697811295, 0.022988930032342085, -0.029387905574030804, 0.0008592326659254571, 0.0016635091106459864, -0.013019499217108576, -0.015935958561969586, 0.01432547177752681, -0.024751518588136626, 0.019765918921410153, -0.025978982802358958, -0.00013224857276871268, -0.0369401893465757, -0.011610711186874362, -0.004772577573866293, 0.006225910917743975, -0.031813092328182975, -0.0024320342085518074, -0.00030895433383877857, 0.007572758500808398, -0.0003299002144935578, -0.004899295469038318, 0.0043285140531644836, 0.002879574989863998, -0.02188499660978717, 0.022247854973897252, -0.027777675940095108, -0.001175720925361489, 0.019783457882957278, 0.012850442384393207, 0.007701163489371781, -0.01152044011979138, -0.012813033691059768, 0.024994273522451198, -0.020336551856912785, 0.010820383930268204, -0.02754568785566729, -0.005612172259841214, -0.005068914330827142, -0.0278153058191985, -0.020909290377467502, 0.0035216231436839916, 0.021970430932864715, -0.02535763865846951, 0.003035316757030053, 0.02324321296260563, 0.019211003125253277, -0.03507696028934362, 0.003074622553455261, -0.0040203798918777255, 0.005153183992158091, 0.02184254068416993, -0.0056722052091716015, -0.018745221023713298, -0.005083848382434694, -0.012368379259675433, 0.034138962189992995, 0.02030541428411907, -0.023862665666281136, -0.001463111489902343, -0.038801178001537664, -0.01945265305643108, -0.0015320521484845043, 0.004133663637590977, -0.019867287717170716, -0.011538162220966128, -0.015403371967675588, 0.01159582262623233, 0.01053024307723954, -0.006655753380100695, -0.019378152413471662, 0.007673705343899456, -0.020691620883734788, -0.012953883993220791, 0.012522578067176854, 0.009542159514456207, -0.005593519469627794, 0.006439521088333712, 0.017780825276054294, -0.01069758779068853, -0.02533423252909226, -0.005189440785250672, -0.004441840754340669, 0.017310101466930954, 0.015796122343283925, -0.0006030182886263733, 0.0025820012509967733, -0.04280044974695321, -0.016419832987206555, -0.019989552078121395, -0.016070522792199275, -0.011406688739618176, 0.03975405617631008, -0.02271311202958565, -0.025245903389952386, 0.015156767970562587, 0.006930804960920335, -0.0028775240781729293, -2.1703244034239294e-05, 0.019846402953068568, 0.012529446168162591, -0.013300157479694576, -0.006172772323607305, -0.011439682463760167, -0.013412460869308999, -0.01617352083174083, 0.02627190678813692, 0.02058109395652253, 0.004621164940689629, 0.01234694431487457, -0.0026336319772832773, 0.010071551351772713, 0.0361543710437819, 0.012141709410288483, -0.015017938653824359, -0.016927642358321785, 0.00634608067898795, -0.03349344417734994, 0.016532684310661804, 0.03701777812770734, -0.01140024674014748, 0.0188476754705289, 0.013029989369888672, -0.016599661016322043, -0.036862343151650684, 0.0014278704242463884, 0.009397127350004043, 0.022744121449515715, 0.04152926956273934, -0.021367549260372386, 0.010555721071762652, -0.037798866034314586, -0.020379791071665945, -0.016495990497689485, 0.02008080988066434, 0.024007064135320024, 0.008366715805831992, -0.001008917275814527, -0.00034471034885479035, 0.002763331571226781, -0.031125189915033397, 0.004582785318155563, -0.02458464808759992, 0.012526287862340049, 0.0169725061331762, 0.017336263846890455, -0.025302554584407916, -0.009386690581108224, 0.0006021224359649709, -0.0035081733150692674, -0.013900063808110798, -0.001746716396987359, 0.024681741181658716, -0.008504494000677694, 0.0022048957621271198, 0.006413689942014326, 0.03055776443634842, -0.024873122296297373, 0.005335062578308654, 0.009223976760049256, 0.03768288476799546, 0.010327146058238378, 0.004589334482467244, -0.020919626774305266, -0.00035434594053694227, 0.020953759668435636, -0.004847372850450079, 0.0056628116803971625, -0.008240243594410819, 0.039084324650483386, -0.004682958885336917, 0.012151622438777699, -0.0013401670338703516, -0.0013710278940773967, -0.0019446092510601338, -0.0099162470722889, -0.022123904678540144, -0.009107988396917302, -0.006032269244572317, -0.019015964107124576, 0.01760563805102491, -0.03829935073331789, 0.011089551193632712, -0.02952018249633036, 0.005624294264423293, -0.0029662503782380135, -0.007970747418668182, 0.003380326090757565, -0.019714250844518055, 0.01898492340475195, -0.006461268654969439, -0.023449753024711164, 0.0313342944024, -0.019072162773804528, 0.0102672273091442, -0.01004677778895925, 0.02252279678424391, 0.019572349359489913, 0.00750696285865739, 0.012441755180395808, 0.005091262536632425, -0.0001339701794192352, 0.0020617761279875706, -0.0015689504106351023, -0.030889868858521345, 0.009674732767036471, -0.015535739123900471, -0.01607628019710618, 0.030857871541848363, -0.0023272238305465597, -0.012104343768391241, 0.030192689442386077, -0.01626112045037027, -0.014651192834352853, 0.006223909100740829, -0.008184337353716613, 0.01711207932315341, -0.016704297856920104, -0.010389223004563276, 0.005077823719391503, -0.0010985556263212789, -0.0152945318291794, -0.026750191649264773, -0.0032771141044830544, -0.003362620489719594, 0.004175867003289093, -0.010317252431756088, 0.005464791069762264, -0.004910495262732504, -0.022445240529875697, 0.015046410835102355, -0.003233804222012566, 0.026441290295977988, -0.0032626630071801075, 0.024301276420589404, 0.019294537583174915, -0.018619206749719504, 0.005592622378109548, -0.011538815776252384, 0.024066831883994853, 0.04909074194754054, -0.025801820445384163, -0.0007573903794350268, 0.006546603193508963, 0.006393833930352368, 0.01943586883566987, -0.013419828827999726, 0.022001552216739283, 0.03529768720118271, -0.010412258652825385, -0.016282394080924686, 0.004871851034266756, -0.008076833589804194, 0.02224841319629994, 0.001049848210153865, 0.004958838073497294, 0.02468120952134211, 0.010367916309127662, -0.02760798002448247, -0.0032680982998582312, -0.010374551166478068, 0.015110693238485942, -0.00016443474781241383, -0.008599256550399456, -0.03201135858676553, -0.012679008697632624, -0.017173892470807008, -0.008128042412519366, 0.012556320358802572, -0.017240848394421852, 0.005998687249795139, 0.009101296182140709, -0.04127681484488807, -0.007481716284362894, -0.006745908249241323, -0.006411005180676049, 0.022778173597218128, -0.014651854611493929, 0.001371773212804202, -0.005266191201388039, -0.02781328184526978, -0.015618291241748114, 0.009742800314783586, -0.013969595243662885, -0.015032351386441782, 0.024099629842302107, -0.005790530079660959, 0.004837248862830054, -0.0466364277448014, -0.006299908680723676, -0.022227505233570064, 8.926974283786127e-05, -0.008036999934832348, 0.006272782835758973, -0.010812321361785612, -0.03663906835375979, -0.04110864012618659, 0.007704885781394941, 0.030348342339614514, 0.011668359070777429, -0.0016779844562272606, 0.004026776347858156, 0.0121772515663557, -0.021514327170030684, 0.010771375457941258, -0.0051109543417313654, -0.014926000999779912, 0.002590070301224593, 0.008729814103014027, 0.012130894863277432, -0.021278875543650027, -0.014927346972422888, -0.004888939705235584, -0.001836232206082341, -0.03552480680408577, -0.0071134727030095464, 0.005646554906859144, 0.013393611234310912, -0.025046075366650933, 0.0019488828549483008, -0.023834110587113166, 0.008453166375699294, 0.005052689781880443, 0.0007202889691287214, -0.011900916305643296, -0.005458910983855022, 0.0021292096433893635, -0.004642927209168083, -0.019127712576906205, 0.0020270090412544454, 0.00453071717569148, -0.0012435027256657728, -0.03131253984373734, -0.0019183637800154968, 0.002476153065375194, 0.007093684038169947, -0.008920160696028582, 0.010258302047746805, -0.005339648414280572, 0.03590655887691962, -0.0006865586126290906, -0.010511640615296252, -0.012491428949237712, 0.015139604140933925, 0.015883666839894065, 0.005479079605426563, -0.00034907048995149874, -0.01861484056939624, 0.01969390182809921, -0.01486727097308965, 0.01117375619891292, -0.027044744056372458, 0.010775894909401914, 0.023047534404583462, 0.003351329988018687, 0.005445379141686826, -0.00045621063950354037, -0.010055289190928664, 0.023536355285532627, 0.023252108837632516, 0.004577165659119836, 0.018245622437784544, -0.0015248622946891913, 0.003594313686782807, 0.01881079065154552, -0.010033542277520758, 0.0014233528610923033, -0.010589967720098558, 0.030624775765836623, -0.019273721183644885, 0.01851875306424758, -0.022921489763458546, -0.02484253390779295, -0.05094969595336713, 0.010662793868433513, 0.033609627799727704, 0.01602346066081548, -0.0011729418342874272, 0.023858744359805166, -0.01168085326371369, -0.005731776420435445, 0.0012014636343899486, -0.034099854070351154, 0.01723095639408257, 0.04320620999623418, 0.0034995497539990843, -0.023498124373669636, 0.0025227935612248827, 0.027168065012039833, 0.025134140388446375, 0.023015064828894535, 0.01617111208743713, 0.023781269395201084, 0.02375284846635028, -0.014288868630733663, -0.005540200628050264, -0.02809088770572934, 0.01278892087855668, 0.018009958753786068, -0.020318397574173336, 0.011407618931709568, 0.01806420414724826, 0.0018015877242342955, -0.019556138109748652, -0.010872667622047309, -0.022952946026928708, 0.015364084810793821, 0.016523770769684306, 0.02496016163074324, -0.01634196427298427, 0.004961992657348519, 0.0033183392003156356, -0.01814184373932468, -0.005146511464173884, 0.022164122381357027, -0.018132448920477492, 0.006701890412051303, 0.005135205101346582, 0.0015616617526796014, 0.01212563854864552, -0.01760408956936888, -0.027856448936941895, 0.005606918541783841, 0.0281782725734389, -0.019063819676122744, -0.0018253550287152445, 0.034395419054543325, 0.009113903264215698, 0.009845393030272095, -0.004134085629899985, -0.000737972029546622, 0.012198197427039635, 0.024543253395173895, 0.02697766821014374, 0.01896930557356547, -0.03674581326766031, -0.016298329064393803, 0.0035576021130748676, -0.017745117200932147, -0.010100724253304747, -0.00015168133825156624, -0.0005583796499052026, -0.010484858098811573, -0.012138095584021617, -0.011307625972467351, -0.01473853458249855, -0.0018691681679971093, -0.0001590196899817997, 0.018875843294097052, -0.004065270790222943, -0.006029656606881411, 0.012411078131259886, -0.018803375457664286, 0.010183880180315385, -0.011235027370693424, 0.002468372978474489, 0.021869128521120766, 0.005419525027148833, -0.012012300193953301, -0.028246246866550653, 0.007955690852645105, 0.007360002170435605, -0.013227439318426284, 0.029007110537156978, 