{"conv_filters": [[[-0.08816864880159637, -0.01926019810706104, -0.058375813930778495], [-0.0759148347301803, 0.052786001565023846, -0.018260990062728234], [0.06302082606007386, -0.020159424848283806, 0.04383724085077701]], [[0.0724566708128456, -0.021366693366678714, 0.011075971682126878], [-0.030350866602746517, -0.06816628394199059, 0.02490544819161378], [0.06839835855857913, -0.04777207781680996, -0.02040659674938555]], [[-0.05226436736753067, -0.02561511525259404, -0.07984460034551313], [-0.06251223732712471, -0.08602136913263692, 0.07481240515370875], [0.02278979903395577, -0.05121147127988844, 0.013105293970575428]], [[0.03996091148007622, -0.06093220271256995, 0.08901189430538563], [0.028886416848012894, 0.06016958492405191, -0.024779829103365163], [0.0873359831662082, -0.015208435960085169, -0.10248252544439958]], [[0.009204253882260439, 0.04114649859268501, 0.060742122579186875], [-0.09356291241901915, -0.07843861781162303, -0.03377604820089002], [-0.007232339726946119, 0.07068903345653614, -0.08106486682386918]], [[-0.06142168056835552, 0.010459046177813312, 0.10674490556838147], [-0.07804965325332011, -0.06651496525567059, -0.044866736225032025], [-0.03337279001688771, -0.0363116030611241, 0.09905458486898469]], [[-0.1265222584305819, 0.0643264630712218, 0.06978928504673954], [-0.09593268632848558, 0.02522307913229175, -0.07352581176403562], [0.022836505519539432, 0.07286401111540801, 0.04735608273615479]], [[-0.10817519930530603, -0.07399296590182972, 0.03781780441221472], [0.09461410893410879, 0.08948510954207586, -0.08290732000145029], [0.051868566983849916, -0.0466765571819107, 0.04077410509622235]], [[0.07062749917052523, 0.02242555502412464, 0.08909867515614386], [-0.05055652707274104, 0.08178371619422621, -0.0025355593950715407], [-0.03089047080164836, 0.05181366798381382, 0.02253628760228573]], [[-0.0350318566826125, 0.05781673541124017, 0.007509035348555156], [-0.06773819664189235, -0.062004317895686646, 0.09244372735008098], [0.042495612620326105, -0.10393854710235373, 0.07183021352352946]], [[-0.06834307731821108, -0.013577372553047916, -0.024333584908549123], [0.023174404729156283, 0.047173295468552555, 0.07311680297835783], [-0.012806561482845457, -0.02374386331136991, 0.05900921765357103]], [[-0.08477509078730475, 0.04835825510867957, -0.058944386734458246], [0.050485287238117176, 0.050699791369027636, -0.051308018456537846], [0.06177694548111965, -0.003720852885129125, 0.029113960650239388]], [[-0.05453104534841985, 0.0007865765316318497, -0.09387674575251238], [0.05340546896638431, 0.04435354880643097, -0.06254837144571539], [0.11118596200218613, 0.06405531912479741, -0.07313592715709384]], [[-0.0843784725641098, -0.051174551550714285, 0.08790461562825211], [-0.05645979191607404, 0.04908091838978078, 0.06063399391824411], [0.06471546129013805, -0.09689301300600442, 0.012371768941590793]], [[0.06069309071497409, 0.03402846980589913, -0.06295371552552767], [-0.03411821255112961, -0.04001465629394861, -0.09417789299380319], [0.018400032259128236, 0.053720698802523385, -0.08097217565876882]], [[0.02417270805233091, -0.0463982094450127, 0.07808274447552883], [0.05652762467617001, 0.032580808583907606, -0.08523408165060406], [-0.012452498588267179, 0.0021037707050220074, 0.0796970725104193]]], "conv_biases": [6.012775179538249e-05, 4.5624211778673566e-05, 7.297540618901272e-06, -0.0005766536101471481, 2.494243886047095e-06, 0.0004463276468657106, 0.00014986096249659876, 7.101719868031785e-05, -0.0008375350203074343, 0.00011895481927900648, -0.0002555214783144543, -0.0001537981477550324, -5.055546533594968e-05, -0.00017136092538972992, -6.77655849659396e-05, -0.0009321372150534782], "dense_weights": [[0.0027600698478025608, -0.01304570485196311, 0.0035459364812602937, 0.006355691552740553, -0.005611203827993529, 0.02603408742114627, 0.00040204916060477023, 0.017913574633741797, 0.02229495327852043, 0.012538924980810497, 0.016611923425885116, -0.0042687858215757594, -0.005925082532839719, 0.008386500420670457, -0.004642386228961231, -0.008286337366749774, 0.005461637284469328, 0.04691915183436876, 0.015114485342412562, 0.0007824214859401098, 0.0033331812015021654, 0.006424960948116257, 0.018979006840855035, 0.005598189501444367, 0.006930106926535793, 0.024432676536833724, 0.021133108593342685, -0.0037487000445441433, 0.013619840337684689, 0.0055400090653967655, -0.005699126678080805, -0.012010048060565418, -0.005634299508184067, -0.014098423329944605, -0.004138682334466434, 0.019436912812819368, -0.0038077512127975784, -0.0013354865765163515, 0.00573138121992061, 0.012015671595755558, -0.00835547171346383, -0.016677137223967742, -0.007495568697825515, -0.014287408605749565, 0.011821685575678764, 0.004149084470883715, 0.0136248930325632, 0.00520150441424738, -0.01337121661235177, 0.015496749660723216, -0.005584046598723452, -0.015619026746584662, -0.009557659887724501, -0.008148372801753396, 0.0017607785846503086, -0.011110339443909207, 0.002332825766517321, 0.007729383889319757, 0.008634530542177467, -0.006300562551107441, -0.005107118841380602, -0.01978713091996526, 0.016557013962857702, -0.008758056796776052, 0.018718079077532365, -0.010771709572328512, -0.005893251220661828, -0.0073477157962166225, -0.013911734375854079, -0.008293250282052238, -0.007966556287325153, 0.002398175296048197, -0.03229472726575394, -1.9318822408652474e-05, 0.004640107195634055, -0.004962971918473916, -0.004438423433464557, 0.00011253622209387975, 0.0022889108647406358, -0.022195852533052448, -0.00824641166101051, 0.002147144015541197, 0.002316644607193558, -0.009736085961515907, 0.013477743203585189, -0.01748997251467458, -0.009318079305526873, 0.0017151324331879593, 0.005276586975595065, 0.006001343067240187, -0.004157876752077928, 0.016462115192671822, -0.02184609320846294, -0.011071974331825284, 0.017965309269566253, 0.015238160768150273, -0.0021023395269574425, -0.002047587931597848, 0.0073429119104313585, 0.0002520902067917425, 0.0130552573053987, 0.011019980227424968, 0.0018515457200800759, 0.004416173468330495, 0.012166114473480262, 0.00762348981165561, 0.01631746881431389, 0.007787220859868243, -0.032366295707405575, -0.006955045042669387, 0.017970482414052812, -0.0035784343285999226, 0.008984695298620326, 0.012011306871314147, 0.0033776807662110773, -0.014552432948337317, -0.003044568586230784, 0.007162906217479964, 0.0178561835272811, 0.0009584562633885972, 0.015370444891620174, 0.008285928957392535, -0.0022887172603398534, 0.005746319476283505, 0.01779850348798403, 0.0012933657730756678, 0.0021204977752862747, 0.002615817698753801, 0.0009593921402735671, -0.0018826552690850659, 0.012701377478532522, 0.0024561489238262343, 0.002128220113559233, -0.009822362840383429, 0.001017492340910139, -0.0013576217432295845, 0.0038219524256783103, -0.00782842799099907, -0.009640408951260268, 0.008283145731327797, -0.0010284860176771888, -0.0006904486880342974, -0.0037303597971794404, 0.003440275544116094, -0.021306536749394027, -0.0066607035434430905, -0.015817951364341578, -0.00972585671365564, -0.019967781304685184, -0.0032624617918310178, -0.019855739737386573, 0.000937467280554803, 0.016086740332327546, -0.004680355598347841, 0.020433678070645736, 0.017922727527560904, 0.0019329017030188236, -0.01000142615734931, -0.009889682982534941, -0.0017636063978209912, -0.02784502664915343, -0.0033723791479073994, -0.01245683908417842, -0.004848786281106353, -0.006935219908022002, -0.030172504132075853, 0.008278338085469628, 0.006912185368808132, -0.01924942195644627, 0.024778170963516973, -0.011328069229570463, 0.033511242537328144, 0.0016638817116721052, 0.012430074683613032, -0.028883635487856583, 0.006303568554104253, 0.01930128709522589, -0.020596548774764696, -0.0006444591948000181, 0.03018519246513642, 0.009577691969741077, -0.006822875473321867, -0.0028934185864414297, 0.004384930675027242, -0.010356639074709028, 0.0013937140556075126, -0.02171111492724873, 0.00798043901337021, 0.0001265622332125437, -0.018756484547306652, -0.006707824795743814, -0.0033322894910324165, -0.003766869650098625, 0.006638529635079357, 0.00913181919952512, 0.007849401502126374, -0.017838437146322748, -0.01234321364067951, -0.00414691764860776, 0.009960831541668377, -0.05384450780582476, -0.008505412264204256, 0.00026385783153475207, -0.017237913160322943, 0.01811897572524647, -0.02125273559797313, -0.0056973423065403645, -0.027508155680055085, 0.015987256666577375, 0.014091630951998769, -0.00482172987134866, -0.02779284097700181, -0.00133734920340568, -0.0051649962622351536, 0.007998441015496663, -0.015588855509129926, -0.052018177952758, 0.0045932818141273925, -0.017721859593881, -0.014727502162891341, -0.0037079166370063647, -0.010255707256573692, -0.017836288891418854, -0.01417766851785872, 3.0579105559876805e-05, 0.002460465177482792, 0.017938517614901575, -0.0022964396306156053, -0.002016535956037786, 0.005514036488354592, 0.002919192222106322, 0.0003113712962451175, -0.035622889755526126, 0.024854020986340014, 0.003478432870520604, 0.008909959565760177, 0.004152920800048564, -0.010634601060657483, 0.0031874094269508588, 0.00422272676745419, -0.005013480385801773, 0.002372494541839984, 0.014329560040917731, -0.0022701316550217733, -0.012977404612004077, -0.011728727338770251, -0.011979812537476415, 0.013406096037011527, -0.04791088147424409, -0.009130612596891033, -0.0331996449591159, -0.004704695028574392, -0.0011989040089920328, -0.0021499288669315627, 0.01113363271740978, -0.035497857583690264, -0.011841722943986988, -0.001924561824369122, -0.0026151170616128946, -0.015243679625743793, -0.0024714034429958462, 0.013775227511878414, -0.00672232116142935, -0.004795602159309177, -0.02987287627313696, -0.003025030134479632, -0.005938394084883356, 0.00036115928060535016, -0.002982435785364168, -0.019936062957055214, 0.0017979747981347034, -0.03174876987499284, 0.007990301582559744, 0.012711624248582467, 0.004198384438316587, -0.015475694732566233, 0.0201061502225372, 0.005636416558217092, -0.005023223216040528, -0.014343292316125165, -0.03551431478210441, 0.011427232313328109, 0.00017847473267171448, -0.0047706914203653515, -0.015081743093656761, -0.016310579465634245, -0.00756916734796053, -0.006193258793233039, 0.009045404458122207, -0.007417738393514992, 0.0017373254574443843, -0.011735040035982263, -0.002098947523401509, 0.012123363984100946, -0.014443428466993346, 0.00929353196074029, -0.02513863578964552, -0.01709847781885033, 0.02032433251447833, -0.013893979098509134, 0.008713750335898333, -0.006727988643220541, -0.012150351711983701, -0.01282540997889308, 0.010294074633600202, -0.009650476117109537, -0.013135556291755971, -0.013794686795359687, 0.019904795721888288, -0.011345479754044558, -0.01664110581632404, 0.0012186325455105253, 0.005972875713525792, 0.018225377999836295, -0.01377094139731543, 0.008650308231150402, -0.0008935172314679191, 0.0034227667089576533, -0.003838923484337186, 0.0026613143613517867, 0.015901511909750563, -0.007088525480390717, -0.016167065697618502, 0.008740602343925076, -0.011535026989021807, -0.013642582608757524, 0.017700409266561568, 0.01516781497490832, 0.0010793310552797634, -0.005559762572942378, 0.0045945998804514145, -0.003746570330513516, 0.006505028050309158, -0.00555201576098484, 0.0011635726441596216, -0.0005164098703050112, -0.01116618252341124, -0.01128531376099146, 0.009681209867249225, 0.005958515077498537, 0.011555508131511143, -0.0034021960725624904, 0.02466041441237063, -0.012812601763790349, 0.007633876527778636, -0.0027678356173641227, -0.0004660525255670847, -0.0028114345904938, 0.031267298880380136, -0.0014800155433707053, -0.0067973370120775305, -0.0005790959988297848, -0.01490250505153312, -0.01611419348833681, -0.002794671216721383, 0.008857562154548183, -0.009438772031429631, -0.010388700576890968, -0.002959845657575649, -0.007803190346023513, 0.01163504801445529, 0.0004024375460389795, -0.004553655637177898, 0.005538632042028667, 0.004220134927827948, -0.0008076680779307493, 0.003271301080452145, 0.007443728871737802, -0.012174171361487497, 0.0009264383122119387, -0.0008282065470030377, -0.0037604164132452977, -0.008267055024165066, -0.00380899263899545, -0.010225835261213675, -0.014213762694130673, 0.010397356122835162, 0.0032681300425286652, 0.007336353874743403, 0.01532427686095312, 0.0034729107154612957, -0.006145038720029272, 0.019273074911413484, 0.006201037212179195, -0.020138841754014227, 0.004704664512587482, -0.02175965698606172, 0.006329926806089958, 0.005160983191717773, 0.003254812462898144, -0.00803383059955189, 0.000400886874360926, -0.021140497085745086, -0.012772959548824448, -0.02106964514113072, -0.008839691654618701, -0.006947014596019725, 0.010738122492119867, 0.02023496819658268, 0.016525806420615827, -0.024106358360798035, 0.008056916961141485, 0.01578515282966266, 0.011957501559140094, -0.00829397028337923, 0.005986836985952527, -0.0142152047678104, -0.02010412899895856, 0.008398890775879003, 0.008693192832608557, -0.004399738257402141, -0.003694956878928951, 0.008275569662241562, -0.011185283461390562, 0.011544664534961991, -0.002561274591789753, 0.015103999002805834, 0.004655534879731665, 0.005709084951860227, 0.00734915157532836, 0.01612228180278695, 0.01737807468125709, -0.016668057267489437, 0.024423019890546876, -0.006523953809180906, 0.018949856559888695, 0.00156095883624299, -0.027002520470031148, 0.016481024445742072, -0.01511727232350665, -0.009897990655640818, 0.026697286028284133, -0.008098584625029277, -0.01848643762774615, 0.0015330147376336602, 0.02930216972306041, 0.015347472986775437, 0.006593550291664598, 0.002848805739858533, -0.011322660181191671, -0.003959218420958504, 0.004732638884773699, 0.009508474223168674, -0.007826252432124254, 0.00987653795001513, -0.00035101103446760035, -0.004121649394677947, 0.026833091713984732, 0.0020272362548958045, 0.0022885267344157157, 0.014368684155150111, -0.02038676396708828, -0.008831663246535422, -0.016873976718390596, 0.0033638345630946287, 0.009038798644807005, 0.008804229248699145, -0.0010542319672427031, -0.002841801368432007, -0.021250428156473582, -0.005088906664638189, 0.026804011263596807, -0.003665829777386467, -0.0028839244796314907, -0.003915730258209786, -0.0018383557796617974, 0.025389223328322563, 0.005849045845686543, -0.005195052998635929, 0.004909893422315097, -0.0037481662184072617, 0.020845620065390643, 0.026983640540316513, -0.004102191026182513, 0.016893528967993218, 0.01681962780096436, -0.014806481213502474, -0.0020226748316804627, -0.01588112918470913, -0.007131599547614774, -7.743347095197973e-06, 0.0036548957741447644, 0.014350787754155865, 0.013065984639877437, 0.026370806688590622, -0.02603123503594731, -0.0017148848234601725, 0.008183984243642405, 0.010006893293105772, -0.0023626694802917347, -0.002115498011389726, 0.014578963727013857, -0.020597091512688983, -0.0017432520933722438, -0.0072872639089652, -0.00890682259659674, -0.00916852512246083, 0.008672175461485961, 0.01714072093515303, 0.011413020685627709, -0.002513391744000264, 0.004371972082461338, -0.011207272864688563, 0.009066395264908322, 0.020629565579511476, -0.013764074821068782, 0.010053947038679706, 0.028014897655053786, -8.927626331703039e-05, 0.009514274222203778, 0.003788723822167012, 0.0027696279337847064, 0.00941045600604478, -0.004010131637151404, -0.0015661324717030061, 0.00968779888020096, -0.0012798257070613115, 0.009925415971519374, 0.017439560971585496, 0.02380607342520137, 0.013575263586562318, -0.008458488284677781, -0.00011878917572500896, -0.010018237406875465, 0.02405218848712864, 0.009321766608206206, 0.01930037184478573, -0.003007110719597116, -0.015394251377687757, -0.01412359963322228, -0.009889440087201112, 0.014632046371159148, -0.008501186963951095, 0.001025704360224822, 0.025898873272356453, -0.010065001555251253, -0.028763112069316706, -0.007130148199090807, -0.013169489989087792, 0.008934668228473702, 0.0005488776678056665, 0.008407674675403648, -0.0026383502167017744, 0.025618001701540574, -0.007617917987855601, 0.030018161252116846, 0.004501697387788197, 0.004704658042539646, -0.015453596697839937, 0.00014633542595518685, 0.0027319662720069896, -0.00113609527802302, -0.015256614699737228, 0.0003711612786776617, 0.013600030730304018, -0.024258692216282934, 0.015474903246020607, 0.018319020703421087, -0.010055317364263218, -0.0013120946190633466, 0.019389281518118365, -0.005051783736165243, -0.01461877855545776, -0.011732732179936093, 0.000982536238197823, -0.015698919037753844, 0.002873537123742154, -0.022118731702938797, -0.02935914363358367, 0.003370289432945208, -0.011098152450768657, 0.002817883340352563, -0.02358179130717594, -0.016954879910714926, 0.00042263358854937867, 0.0044597863579279515, 0.008544216245039817, -0.011414358398141995, -0.004457354231395271, 0.00678719095827037, -0.009160065703116511, -0.004977903964011705, 0.0036302703893292152, 0.007176768357059773, 0.01402568937272063, 0.0015141297558872613, 0.004598157622330712, 0.007340795600580999, 0.007573933343132836, -0.011667714556195532, 0.0033801063558995463, -0.011192293821097737, -0.010611515493133102, 0.00501498115402353, 0.00283339931323089, 0.00611224974560428, 0.0037726853953176927, -0.016693915626163524, 0.0005347524368828787, 0.01008755800486438, 0.021684589425127635, -0.0033165366722201733, 0.0070427041180180635, -0.013211302880900416, -0.019997186670562557, -0.005955930016922586, -0.020617229300151137, -0.015233770588104985, -0.008458016608175268, 0.020154541362215762, 0.008904149359057544, 0.0006095537681204065, -0.0037925841690887043, -0.0008703902418292927, -0.010974358516751824, -0.004071788938547611, 0.0033285105160158284, -0.011461700228425544, -0.0067040488861171985, 0.00552344091188089, -0.01665264918545609, -0.01910858793789761, -0.015681101469540427, 0.00537104929077148, 0.03908774293603859, -0.0015464221286479612, 0.00611448879284414, 0.024200653466056092, -0.006046333767127028, -0.020193181627975905, -0.013989399119519864, -0.005026026060019042, 0.008939743871984865, -0.009646859660538798, 0.01763449975788226, -0.013257950629208998, -0.021743497730815898, -0.005074241659516645, -0.007389238305384483, -0.0035739069026898664, 0.008037459898834766, -0.007818064801168088, -0.0204502767139136, 0.008221946657451197, 0.0017428423676858827, 0.0016946092603156919, -0.009677187827513981, -0.023142018456900205, -0.005569786214355346, 0.0053228283131815995, 0.005105270993968965, 0.0018710499726888848, -0.006294438151820106, -0.0054042503808233566, -0.006839830144773955, -0.011543741268640901, -0.00020297903268504214, 0.014246146697052093, 0.0031395815629865196, 0.010001664730771472, -0.0052290026797696156, -0.02439756807957034, -0.0063104452111609, -0.0030605425006224644, -0.0025459166976192758, 0.011201551321714747, 0.01935801509284281, -0.007491870945994601, 0.01726130420288778, -0.0011095040808656424, 0.0028348138430434947, -0.010218330171419092, 0.0016922181969896842, -0.0091236101742467, 0.0008095437567572795, -0.0032232192125260595, 0.013289236298864693, 0.005433195092529192, -0.003098395241708044, 0.016230322402534882, -0.0015050299198570215, -0.00804504291277433, -0.009836528878769558, -0.00797479942174578, -0.02469389224391441, -0.0010083339157402557, 0.002946487215696362, 0.005112762894506093, -0.013389893894085937, -6.382684068589244e-05, 0.0015026975756247416, -0.009129122467748095, -0.010308329588559716, -0.0038118357203247672, 0.012925293580393127, 0.01784295839929643, -0.009042766024880095, 0.00855965576723641, 0.010403818225398384, -0.017831237835515896, -0.012384657237301271, -0.01188179678985374, -0.0007511015866143514, -0.0013561719411123887, -0.006253236512576896, -0.005324136600063399, -0.01072604397419887, -0.023435099466216594, 0.0037413101802022614, 0.014878706900844097, 0.0014879812803665381, -0.002977257174638117, -0.02173717663705118, 0.008211755596508268, 0.002201950868870242, -0.013783685642081498, 0.0017294928579519907, -0.010553624588825859, -0.011515848382313136, -0.008730276203544971, -0.017282549865629618, 0.02426738792335817, -0.007654135217856121, -0.009454677782017699, 0.009850231620245177, 0.006425946640701481, 0.00046904201107061705, 0.0063860395981043235, -0.013911154370257008, -0.002020464794277696, -0.00906190385029587, 0.029776297399058075, -0.004830900471854553, -0.0035628003073470975, 0.0013645141172387877, -0.009987361264397825, 0.002772462931490684, 0.01379593168775366, -0.00388992914455942, -0.0006231171683158384, 0.011880846916468428, 0.0012575419003802016, -0.009957864536373888, -0.004906142706835122, -4.9948241201019265e-05, 0.0021700365346858327, 0.010181794952329683, 0.011017972572034119, 0.008311648272639229, -0.0015346718961587907, -0.005428748151565439, -0.008438873844484577, -0.0019244356142036744, 0.001310930091803758, 0.016056774513427394, -0.014696019887063625, 0.010918950605993507, 0.0050342021572009135, -1.3477079014236892e-05, 0.006297447830187158, -0.023379047914381394, -0.02073716026931226, -0.002410062249726736, -0.003162696385405151, 0.0007747719727299963, -0.01961884090225986, 0.0037854856374912155, -0.023893834614427588, -0.005064034061837669, 0.0023243668622755765, -0.008619255624707663, 0.006671954680082066, -0.02014680768043738, -0.018038070490002125, -0.0024562210878472774, 0.0042178388928862465, 0.000670139975311516, 0.012947052613056505, 0.005429643521235491, 0.007188619508111968, 0.0010702467111361085, 0.0023529336343914675, -0.0029509121657891988, -0.00984395044721181, 0.011971132075163949, -0.004784694420265127, -0.014067455665021794, -0.014747188567283041, -0.004065672187330185, 0.004182969257596561, 0.0006162797966771287, 0.0018905269578252085, -0.012287735400257401, -0.010991312038528777, -0.006644801579661189, -0.02600359248106623, -0.017270642867148255, 0.006070018381486761, -0.005168113463741295, -0.012988034175875433, -0.00010325956201587725, 0.010873972144909797, 0.009928896548631955, -0.0034419973240763305, 0.005459928891378633, 0.004727607292651884, 0.023194743418136817, 0.011059050666017235, 0.006061027832569107, 0.0031162653021851463, 0.030634321334303195, 0.0046604859980250764, 0.0030928817794133256, -0.001474360707170791, 0.009583395397450198, -0.001835241226643149, 0.01768467681880097, -0.0022962666789410557, 0.013667626615213955, 0.008250800703578741, -0.001972877854782021, -0.0077504995504650105, -0.007621113365917159, -0.008294173114228755, 0.009328210862534126, 0.01048836963533985, -0.002464048616641381, 0.010799888157976398, 0.02099430261141101, -0.0025399132341519283, 0.024602915256096695, -0.001538556647908492, -0.027265216895336813, 0.016006973540079145, 0.006226943386001194, 0.01891869750417179, -0.008261659059459095, -0.006561200028712209, 0.008062903754052992, -0.026970295968679867, 0.035663893458931846, -0.0016617744946184252, 0.0008737788937240845, 0.008047240874438867, 0.005800485402874985, 0.0064660768579177744, 0.005585344862883723, 0.003485300030401381, -0.013291505926145588, -0.014373567613866862, 0.006684824138043792, -0.012235388176547646, 0.01564804414698895, 0.017487899900585083, 0.02145932380423596, 0.02256360125650986, 0.011333351125700985, -0.0109168120508243, 0.01751235464208383, 0.006690265680904409, 0.0044795022331031295, 0.004829230253437376, -0.012985381233389843, 0.009760187848831026, 0.005864386363159741, -0.013058388523404005, 0.0028251607230504066, 0.03639639406425542, -0.004795397118336317, -0.00234678161951557, -0.0001751097795564333, -0.00327802216528133, -0.002671856488632393, 0.02744333630970223, 0.005096967932997058, 0.004497693044906809, -0.012459001345829094, -0.0076740983381914755, 0.000834656940925561, 0.0074348556997153575, 0.00417154566627578, 0.013810289264601405, -0.011629931354031151, 0.00899306003616293, 0.007195866704388351, -0.010203542552579065, 0.006355201013077754, 0.016345475467217034, 0.024314776806307087, 0.009386486685378425, -0.002748947155245466, -0.005613327967966515, 0.00030285368934709575, 0.014852394936686521, -0.006910818311599039, 0.0034550028570295007, 0.00949905999395488, 0.006018412326128202, 0.005544651809880776, 0.01721193102121917, -0.000746638928473214, -0.00026996729377196045, -0.006884378576623556, 0.005159112336047268, 0.0028304467900616224, -0.007580614181625954, 0.005265407080193717, 0.007487554908767936, 0.008690290213575634, 0.02259198269848222, -0.005318608167705375, -0.009190758714009931, 0.008038235224825548, -0.010403645381005765, 0.0007014230340250352, 0.022961160197729223, 0.012419015999753672, 0.0013646758064016426, 0.002541464034610765, 0.013425486230096978, 0.001014718773052304, 0.006562169927658707, 0.006465969564776746, -0.01091447794849423, 0.016925191309513463, -0.016895601296273197, -0.0061562046847887025, 0.0018808491892642987, 0.005351163170087927, -0.0003148557720669362, 0.023262150181033774, 0.018793828212028227, 0.01080750894546816, 0.010201938459542249, -0.005471816271753451, 0.024926391258889607, -0.008559377966049284, -0.00651076173828703, -0.005075773143149578, 0.005682406632811528, 0.023616661835016713, -0.016622933731181958, 0.01269673528178989, -0.011890842942428637, -0.00839628693091329, 0.012861873437472984, 0.014345045361318157, 0.0008226794597077397, -0.004956535756911, 0.007582421892423646, -0.0003680611592440618, 0.00019361831289736853, -0.02498091888058308, 0.012129010852149059, 0.019190875816669097, 0.028536256116627304, -0.001132066552309872, -0.01409624868227599, 0.0036387324094689527, -0.010473777778384662, -0.006936853888168419, 0.0027575599872526595, 0.004822904881829325, -0.010139254520630008, 0.0071485085298456045, -0.006111203045479047, -0.015104532183435847, 0.003305302622147182, -0.0117032530253808, 0.0021689889973496392, 0.016492884765355476, -0.013999505788957117, 0.0019311802394886605, -0.00627972478713541, 0.019145125342279145, -0.006938907730534625, -0.00905649856365419, -0.005678198482792444, 0.006702798236395935, 0.012915485584713648, -0.0023716899091770394, 0.005053679870053812, -0.014983621655199505, -0.017256119801475994, 0.007072282506414948, 0.004133930342616705, 0.003527463965946355, -0.00531525674923532, -0.011159639079787469, -0.00789693981482916, -0.01368123157908582, -0.011995164881862315, -0.010628260884977361, -0.012059242643137034, 0.00811361659298787, 0.014422926267064679, 0.011567631198666604, 0.00858180416271615, -0.01236717291387111, -0.0038061404156418477, -0.013702090555662698, -0.004604951193100233, 0.017499434364107315, 0.01364268150874172, -0.006074086048551315, 0.014066418290300768, -0.003073239778158862, 0.021399229606297265, -0.0025161478853402844, 0.0017993331617176971, -0.010962574201353905, 0.006693809785588204, -0.013055608918607303, 0.01048156517235343, -0.005303677121343282, 0.008011200972579489, -0.0036991324507308072, 0.016786953918726893, 0.0025901460716640607, 0.004465149762247163, 0.019888179138100297, 0.009158682634767667, -0.0018113735936276542, 0.0060827103038762825, -0.009146656442068675, 0.007326418968550884, 0.005555302127157459, -0.008190592036703736, -0.01245822266960367, -0.01275744136135785, 0.010471922321656944, 0.005185539888596252, -0.008896829888195984, 0.0014305591696935757, -0.011496708719261154, 0.0005378818142089421, 0.008000735388103603, 0.010499942613782221, 0.007116697258502313, 0.013782239644476401, -0.013557987871151459, -0.012547773833451735, -0.006202920480906034, -0.001824001927726419, 0.017903693383815474, -0.0036113556489472194, -0.0041009346481478215, -0.001763677352392062, -0.015121409493225428, 0.004026494440071331, -0.010385211650923536, -0.01774737322295522, 0.005475297906439325, -0.008438937843295066, 0.018008875548449755, -0.006309598802259053, -0.005313865227732865, -0.0032930869551563205, -0.0013375060596318628, -0.008664746815888767, -0.010514207328043115, 0.004568005506814225, -0.002047030257335768, 0.015045745314695685, 3.0213903297575336e-05, 0.02035642417196364, 0.02031735371324473, -0.00893735013365465, -0.0003795618033365204, 0.004398714282637727, -0.0071165258808361664, -0.018467446185774433, 0.015509157382098676, 0.011291952471605601, -0.007368163143229158, -0.02206078583564293, -0.011396150997616554, 0.00035174766284194384, 0.014675052853806894, 0.011383704587366575, -0.001955268114233446, -0.008366700813150857, 0.01312527676170948, -0.022612995445242815, 0.0028586918890119266, 0.0028355419499372417, 0.003121303455498225, -0.013284931107492988, 0.014844041966786486, 0.0015711003301846834, -0.0033047941774347585, -0.002666536888402925, -0.0004229003147416687, 0.007735813383525144, -0.002627774421337735, -0.011745992638034273, 0.028039816483624445, -0.014171991309286733, -0.007728035536251868, 0.015020462481588318, 0.0016208647415392804, 0.006902895882650538, -0.014346145207458836, 0.000991864212514004, 0.008133642395232836, -0.021148691725550083, -0.007530904990694584, 0.038198473367545914, 0.00118481335313288, -0.01246378281317903, -0.025339745796227855, 0.008222255966211081, 0.010822195758403893, 0.024779771904301764, -0.0010463024424166272, -0.0058232863856127045, 0.008738690477737749, -0.011371441773460287, 0.017335024166830536, -0.01674200352129606, -0.013526713528541378, 0.005852234186030553, -0.004175365890363715, 0.019452129316311937, -0.011355078187638793, -0.02263628821338422, 0.01497653284120527, -0.011195187113326552, 0.007055189254587382, 0.008885668546840088, -0.02427932670626725, -0.011942009513644299, -0.006346692135674084, 0.008064683970086034, 0.0037309243882824895, 0.01797378596214294, 3.2613186529202614e-05, 0.016143573390281316, 0.024452739336112566, 0.003906997326829718, 0.0084606897909351, -0.007019646460656113, -0.009019047353432284, -0.0032424428053150355, 0.002130835658258026, -0.00805452607723563, 0.02096903808977915, 0.006029946617176988, 0.0019105550830615966, -0.003359493802458472, 0.0049408434484186055, -0.01470535365836069, 0.012158635300159093, -0.014973372422445895, 0.02378405076252806, 0.02244409159004251, -0.018953081587593016, -0.002339250634835079, -0.010084992498847914, 0.0002923387886004369, -0.02074517445568108, -0.00501842814630202, -0.013917546196360783, -0.0010636001083884667, 0.00046460857135745026, -0.009039779710111, -0.005415656468622929, -0.013681943260318786, -0.011684635693135418, -0.00619200631507043, -0.012873506011833248, 0.0053626934133625915, 0.018294056804802845, 0.014167316670879192, -0.010980367449343572, -0.007926801375883143, 0.005170646375303505, 0.010198635378563588, -0.019021173715666393, 0.008797886779413504, 0.004528476902815071, 0.0136285930282996, -0.014077255631971439, -0.026369379040951192, -0.009052994603887051, 0.002387864554432902, -0.0052381634683804435, 0.0017921293811614843, 0.015288099851424151, 0.011362895422039363, -0.0023706539713625255, 0.013032949419059678, 0.0022717202792192585, -0.005633171469853723, 0.011023556382857945, -0.005574046672490001, -0.027192109028021726, -0.002949590710617087, -0.004549732949842634, -0.012712604343502236, 0.011714272429265388, -0.006859527313832069, 0.0033105694181098863, 0.0018810901344656651, -0.021403569137370758, -0.004779085451228079, -0.0008106302783964801, 0.0027954929206491295, 0.0026008742807824537, -0.016266065353860493, -0.007844126801252481, 0.0010494236556072574, -0.00579861781770985, -0.015118464602845234, 0.008602951051281131, 0.0001819495956245508, -0.01703443194770929, -0.0058575275703690866, -0.017515428755299996, -0.007271459396966522, -0.0027718959274087977, -0.005492735208521812, -0.0035043137286785383, 0.019696234303422214, -0.022365637523576138, 0.020746468542630528, 0.003011823841271741, 0.012883131425873322, -0.004317088324939261, -0.00974129431914099, -0.004136063502080499, -0.003240995075519068, -0.007305663484215368, 0.01603527692173003, -0.020310310529786386, 0.00013658486255180573, 0.008011560216335305, 0.002022815168129363, -0.01651695315004271, 0.009033325103336303, -0.0038075593919210393, -0.0008059517258405774, 0.011398938838970979, -0.0033270260582502235, -0.0022763973299706865, -0.021992079373496506, -0.0005429406515553672, -0.019070259011021596, -0.010850474031586331, -0.0011914713825713762, -0.0007659085581585894, 0.004266526077642701, -0.009391211496005816, 0.00395705325957173, 0.007796229223069388, 0.0033920400442532337, -0.015330530765750812, -0.002819975555402808, -0.018802729976669583, -0.009375270760846417, -0.016514879613073935, -0.007088334648739942, 0.004606744213741817, 0.00843453309871159, -0.01773992815235749, 0.020423480129917664, -0.0018148192796559614, 0.0015144238924567933, -0.0007701438979110559, -0.008570200062396827, 0.00933079990410698, -0.00840694812235719, -0.003183840829543613, -0.0034481471185381024, 0.0009855411702562788, -0.0037494130588322143, 0.00872163541488485, 0.006164188212830897, -0.00479897864932003, 0.004085227368579038, -0.02188024138486788, -0.014000292923744741, -0.004612739906516868, -0.013750942226888748, 0.011450923636568515, -0.015372212835656512, 0.008295000120544115, -0.019967590771649328, -0.0063248462216637215, 0.000138009954498589, -0.001849014908942413, -0.0017783875427037992, -0.02235294178969515, -0.011213600877078025, 0.013036002466291953, 0.02151339880906261, -0.017283377560119998, 0.003421187426629288, -0.00012881786846922902, -0.005262446091482463, -0.017797543343200686, -0.017148978792086055, -0.004743415521428125, -0.0027303399524014806, -0.008007555285861676, 0.02095268394095166, 0.0015664350321877088, -0.011731487054670375, -0.0013430645118253399, 0.011387679516315571, 0.004178366666146927, 0.014473759553737984, 0.009104087428951373, 0.014808040156312858, 0.0012774639545491474, -0.0008714187185714028, -0.0011292708031003216, -0.010765255052402192, -0.007820739563937924, -0.013545066564624087, 0.0006397657906775428, 0.0026946025094647884, 0.002190235343649716, -0.020663830102740168, -0.016837880615672013, 0.009863623701788242, -0.001631864639031441, 0.003934786876051574, 0.006782528847810488, 0.007695821940565124, -0.004770042913920857, -0.006203344966176513, 0.007722064305319971, -0.008308388205862252, -0.004642616542205076, -0.00780365327922933, 0.04566299562197299, 0.004130213695574216, -0.01338262737727941, -0.025133418719386586, 0.0005674336545594237, -0.008614189259543355, 0.014129219417347802, -0.004838077100259304, 0.00967870836817698, -0.009203028515131054, 0.0024398673703241915, -0.020426901916459156, 0.0024613982441889152, 0.010142024239566767, 0.005693237249164231, 0.01672947763079264, 0.027276892787272463, -0.01706703073149385, 0.0036646354116076437, -0.016884621120489964, -0.00809403680368225, 0.004075222622982157, -0.00864140396287085, -0.0009801768158224386, 0.014495740643403967, 0.0056499204904359905, -0.0033426168287528954, 0.0008380620816591399, 0.007882952031062368, 0.0002812780295630092, 0.00811376641385, -0.020078398590458853, 0.03453062714007234, -0.005634930188661936, 0.028738541053408753, -0.011228809370608226, 0.011783539905963803, -0.01364185649449905, 0.004240982727857474, 0.015844988877749856, 0.013858649418015135, -0.0009083749278518995, -0.003960762206588773, 0.008165171728943679, 0.011874807686821752, -0.004552162882279423, 0.0157605317969822, 0.005273385344475949, 0.01752804520217311, -0.013959787128854708, 0.003212580472131542, 0.019054335948211862, 0.009162328007056816, 0.006141033546995294, -0.00021106795820378368, -0.0024535011786907452, -0.032400526822831004, 0.002648638463270425, 0.008926356285722541, 0.006291906591751479, 0.002999642316663708, -0.0020220417675670703, -0.0028515751445999144, 0.00041843297742282654, -0.015332622180932167, 0.013877328596218581, -0.004114253173752011, 0.003764738652732267, 0.00565505925922904, 0.02040255736707562, 0.003528313384842791, 0.01221676915170979, 0.004188521309119474, 0.0028834263095371625, -0.02142666351594206, 0.012874111119587755, -0.011362684410568907, 0.009744079816885185, -0.009373280225709171, 0.016360631396754578, -0.000569989116928579, -0.00981632745671544, 0.006970286447864707, 0.0017713674315650502, -0.014418325192694476, -0.0061738761081645745, -0.008578664971392667, -0.017989974540377734, 0.022552491996530914, 0.009008307778275375, 0.009061666469065324, 0.009276365518992363, 0.0027287972908652596, 0.005213253409161937, -0.007024550490308108, 0.002497234658889537, -0.023676593902883875, 0.00826298944347394, 0.0017210279285342813, -0.0046006086239973485, -0.008910632680041383, -0.010345374318974447, 0.008805542381971737, -0.005135132769607087, 0.0073858298064177165, -0.001600508935456604, -0.009287713232755516, -0.01585819927927277, 0.0025713016383103306, 0.008823078158690548, 0.0037229197134372493, 0.005462092568112833, -0.01081869528870216, -0.0055000610576144285, -0.0064824843372073455, -0.004016686964423344, -0.009644055725881102, 0.003908802956931437, -0.00477038340073454, 0.00485674751265408, -0.010625923069977897, 0.001079812789297355, -0.003534598261609192, -0.0072305778968486945, -0.003964779320064079, 0.012563087748180152, -0.0025624270790854703, 0.024533154719766262, 0.019250737656441478, -0.01082432815351639, -0.006878071916494311, -0.01788858357161531, -0.005708213091756629, 0.01389859112151621, -0.010442311843250198, -0.007942387240484471, -0.0035437018252064603, 0.0037929107492139028, 0.024922632596488452, 0.007866776770741091, -0.0008259326238996276, 0.016874332066118127, 0.0005555497267109976, -0.011606055566435267, 0.0023696060679156677, 0.00016381156318890687, 0.010129426898843944, 0.012385227679925994, 0.00890590081867402, -0.012797626665947765, 0.012162176439647735, -0.017815689480194474, -0.01692916864532486, 0.011192884804022682, 0.018688712466814673, 0.020235835214259645, 0.020492792977716928, 0.011732693301225255, -0.012128231446221169, -0.005206752720546124, 0.016990393199671695, -0.002634839528770761, -0.00022120094714442963, 0.013811722732097362, 0.009789317279885253, -0.005817909033297323, 0.0157059792213721, 0.025711514920860254, -0.000788816058920593, -0.0018897496888365187, -0.002678567655646675, -0.005347058762919304, -0.009292033522035165, -0.01735332526545006, 0.00846123529044767, 0.017574752267430337, 0.016134477800741922, 0.011256920093379098, 0.007691542087595976, 0.02685534604264826, 0.01585415162901184, 0.006664371012158376, -0.0030966589529116337, -0.004556297602184688, -0.002233392967588619, -0.0006439074584967112, 0.009007476064557925, -0.0072481616084819, -0.01091042052120957, -0.006088441052680926, -0.011921719318348428, 0.004490744850163266, -0.016146952432456344, -0.009024595026247527, -0.020877906185506702, -0.008322377642810092, -0.0004418457585873638, -0.0004908019778496692, 0.02656961441114855, -0.008206148185441485, 0.016152769802046663, 0.0014629778334112821, 0.013830867271216999, 0.020767707332006148, 0.011503181606231535, 0.01524531533998638, -0.0059958782357788405, 0.00037983895855930774, -0.0006499766142036278, -0.025905861882171106, -0.012093151886293122, 0.01004514995139077, 0.003956703423969349, -0.007455017213731081, -0.008235586598428223, -0.014673346939902373, -0.011794767626913302, 0.01657087134686012, 0.009425290533801003, -0.0003588178356033405, -0.006129066377435396, 0.021636669524140305, -0.011218441484616527, -0.00887147628307787, -0.013646631649450463, 0.0014063538113249386, -0.007363148999254077, -0.011119775187875902, 0.013148757019226636, 0.015074429557230446, 0.01412673093267827, -0.0005072648962614278, -0.010058328127532155, -0.01769110055070061, 0.012671123324410888, -0.007422970427473493, 0.013493683293619576, 0.000737286533740337, 0.0253676729441122, -0.006055964125216794, 0.012456618916908808, -0.018748473604083556, 0.0096620335347564, 0.002701622115431332, -0.009755098448218884, 0.010300375257174255, 0.02653989539896358, -0.0038816687586931417, 0.005943444446823178, 0.004552667960132835, -0.013336509533953662, -0.012966066372790786, 0.026644328008566386, 0.004638014737874395, -0.0028115321556586256, 1.2597213170035467e-05, 0.002713968524212599, -0.007369510507667529, -0.002572507051728579, 0.011369544444300973, 0.011194766716718645, 0.009283720031276768, 0.00964515292907141, 0.008151996420024229, -0.003824806216001951, -1.2601450124013937e-05, -0.00831148015160198, -0.008433192724229188, 0.008506709773583084, -0.020331348251432017, 0.0041588003090138525, -0.004344428730780852, -0.007680309529453669, -0.006838320412127428, 0.015355785187189577, -0.014857134918607715, -0.009247457734203754, 0.0049035047568194035, -0.00890231879831265, -0.0020743700422192314, 0.004191340616374539, 0.009899088457974704, -0.0023951865637977508, -0.013065715594427612, 0.0015616414039213654, 0.011217286316027808, 0.00425653383459419, -0.0013627261488132296, 0.0173384738021012, 0.01818277580320507, 0.016196469317667946, 0.009379474781566598, -0.005973050035593985, -0.003588406274756524, 0.0007643394338269115, 0.02193073215226317, 0.02020841597999495, 0.018602235665113268, 0.004053296376439351, 0.02091826617761179, -0.009435049600984187, 0.011956403707859088, -0.01356738410281559, 0.01835591338982249, -0.02922218797041157, -0.001957784138167211, -0.00329589966470223, 0.0013211443006476073, -0.01473491521557306, -0.01236318719473353, 0.006864924028790089, -0.005991387250631049, 0.00016136532684941343, 0.0004489867823363508, 0.007553137272125989, 0.010682836436282404, 0.010010344087315015, 0.025477322086313668, -0.010854456537678296, -0.0038362368982812795, -0.0058620466057583195, -0.007358082050535847, 0.0020368634033362497, 0.00539660561046471, -0.0049782271597151205, -0.0067016753954359486, 0.002325535345717774, -0.009518932006551763, -0.0003228170578608333, 0.014079736782912758, 0.008181381882901824, -0.007623236476746919, 0.013928755267527945, -0.006699741589474815, -0.018903926467841406, -0.006151556099997898, -0.012546808201492395, -0.013722155424369945, -0.01815783873401505, -0.012854035637477484, -0.009625379908062061, -0.012910460749373609, 0.012251268710818683, -0.011365271607748851, -0.0030826041541669, 0.006812194545349254, -0.00931041288550039, -0.024299849850367636, -0.0022718186489233284, -0.00786671747762643, 0.005430001328338457, -0.016203748517478536, 0.0022716876830530105, 0.0037448374704831286, 0.004514140614473226, -0.023394853111826416, -0.0035902821896880693, 0.018062639970949364, 0.012953137895207086, -0.015593938258454823, -0.0017301833751236085, -0.0027324293346967193, -0.016396527416808113, -0.014408138282581718, -0.01878752001436453, -0.015386699720517667, 0.005257591399345991, 0.0009179093920788482, -0.032454273585319285, 0.01568596567692196, -0.0023606241431805538, -0.010092674314932338, -0.006284526843321991, 0.0073807648879522245, -0.016045954332377817, 0.005174449904685183, 0.018303378472535235, 0.01031412653026231, 0.007402165930907075, -0.01853275832665145, -0.023675321058071578, -0.002669526598320099, 0.005094102018064149, -0.004574358303726149, -0.013008371329936643, 0.0003728332171216853, 0.0032622460630874913, 0.00632986879214988, -0.012726882201121687, 0.00039615990290333563, -0.004275493086900315, -0.013969921473444006, 0.005730854933257213, -0.008778060209272956, 0.01395064695402054, -0.0052555977362820396, -0.018624372023638588, -0.004835765650435214, -0.008440514426164952, -0.008875646967875472, -0.008265228758375933, 0.01158157574658, 0.003021266077394578, -0.00826544863918669, -0.004102214999740332, 0.021552617480028673, 0.007263964818757525, -0.009744656046423375, -0.017826982508616522, -0.02120580604843636, 0.0009611006146423628, 0.002065837185842663, -0.02111026893267383, 0.007986189596339377, 0.012798191952914803, 0.004800153339662783, -0.0170658713436683, -0.0009171999784401222, -0.016043141087918777, 0.0032030397440120386, 0.01857445573912557, -0.0011965040014695605, -0.007747558056921071, 0.0007217875402184194, 0.016686328755466072, -0.0036789022678881166, 0.011278163488313281, -0.007591040010812096, 0.009022803780960912, -0.010880770693720732, -0.010066018870102786, 0.007359297214579681, -0.0005431145211061032, 0.0014905330886574423, -0.000824334635935828, -0.004105006770471065, 0.003014709303098355, 0.0008981110002349319, -0.0010328481728721368, -0.0065224828511669395, -0.0014461501792970525, -0.004942585465259992, -0.006129301439420195, 0.0008526741180316538, 0.002177423994013108, -0.003147183145213229, -0.0032647944734033405, -0.007479215526333374, -0.01611698103378174, -0.007848541862239567, -0.014701527299956578, 0.013234074533455153, -0.015417024702456619, -0.004060025355835654, -0.0015459622182559362, -0.00939465408372465, -0.012331957216209067, 0.003454952342416097, 0.015436373060259806, -0.005625251634788216, -0.011424091585371552, -0.0029950534126855994, -0.012344203001475106, 0.00046066230740305096, -0.012721265340587887, 0.013218744115513341, -0.01254772996731888, -0.0030113012563522962, -0.0013814296697054697, -0.015970314896281878, -0.00018363231181993912, -0.022349429728594893, -0.01081146522471711, 0.019869173813851136, 0.007974206580070479, -0.021629016872704875, 0.009969219099688176, -0.009400580388473119, -0.022317444921204452, -0.013739297429340512, 0.007606240619579543, 0.01624723085898521, 0.009546790845673437, 0.005947733943353589, 0.002348588201419382, -0.001773377654288412, -0.014725210348433089, -0.016186165882984178, 0.009663673438309964, 0.014356841841825296, 0.0028025180486177894, 0.009841774394236976, 0.011520591354284626, 0.01388865747547635, 0.002816021943500867, -0.001638609875867207, -0.015482661458118186, 0.012874385034220628, -0.01005111509105786, -0.018359641621849682, -0.010763175567484606, -0.01301031413617543, 0.00021315595156717082, -0.011638662748049098, -0.002695328371636442, 0.010762230771063376, -0.009915067714950267, -0.020908005760914006, 0.0041591847817423104, 0.006367438843201943, 0.014239699740718231, -0.023500077087559003, 0.011467444469192867, 0.006589029253572666, -0.012135375333533352, 0.01050927196788066, 0.004943776999373045, 0.002200526416885611, -0.005398058440820763, 0.021890973930790123, 0.008952218600424455, 0.009804932927139647, -0.004297853166550353, 0.0208153945520349, -0.010812922680625463, 0.012295899016410455, 0.009198127943386569, -0.022161924261738877, 0.013984206397508482, 0.005393048166006223, 0.013891742498103812, -0.014381598554768766, 0.01180238499238836, 0.009451568970039518, 0.011475048659976872, 0.01241628785183616, 0.0008556946096517148, 0.0078114492386460645, 0.0037000117495279298, 0.02274997178198629, 0.01428111422850906, 0.0029712055553535047, 0.0013079265364107045, 0.0048963697857784165, -0.019007462574588945, -0.005685227793090813, -0.007325785904301818, 0.017732995027414575, 0.0016080020453656401, 0.012724277765885278, -0.00934382521995384, -0.010471959960835482, -0.012705054889754635, -0.007824323068999375, 0.006979326014592464, 0.0185370644288014, -0.015574105049901426, -0.002924371120474568, 0.003562147258855172, -0.011388892162715155, -0.00038672956903904623, 0.003596169675105678, 0.0014499372083715263, 0.0031505632916231283, 0.014080463733220706, -0.015356180952169672, -0.025749487504022974, -0.0031725970498052807, -0.0017655786109677643, -0.008037224556717043, -0.0018655568810266407, 0.006596142148397403, -0.023399666938912767, -0.008087457796062538, 0.011180052482783694, -0.0006929770511945066, 0.0007185602718978318, 0.011021528092177407, -0.007698722063639135, 0.015507569651507005, -0.0038777164938850438, 0.0013346728250772661, 0.0187684720608015, 0.014026001631594908, -0.003239339911343003, -0.0014362121793560511, 0.01117661675771964, 0.014743562508415324, 0.010184690828970144, -0.01072725485972928, -0.0049178884762507225, -0.0004564318639954497, -0.0089894665342406, 0.01813083344509916, -0.011044195312389146, 0.013032697919686292, -0.018115527706130907, 0.013642557877467714, -0.001704695477886238, -0.015701072358571128, 0.004156304084113782, -0.01910687152549045, 0.007594305832186575, 0.0067828018524308115, 0.011090692995611115, 0.017406580172799696, -0.0004387924595738019, -0.006939718086758941, 0.001947567067254394, -0.004368144175740333, 0.014976950520015077, 0.0005510762801325372, 0.0008380749002877279, 0.002383004838170455, -0.005296600695212813, 0.007165801860089167, -0.003912661723327727, -0.013135179023931628, -0.0038442692931331904, -0.008291448493148248, 0.019002991260200417, -0.0012180857420007259, 0.004400047756067845, -0.006019016634784425, 0.0031127852172236716, -0.005240341741785455, -0.004623944905511715, 0.002074393218864363, 0.007945050511598599, 0.006488084103322131, 0.01088556226016206, 0.014402008325695345, 0.0027020143732825533, -0.0019347201060104769, 0.01242146164642455, -0.01984887415657994, -0.0017825796660314649, 0.010595456952045952, -0.013060895024978947, 0.0006245272040582714, -0.0007336969679309657, 0.0021985991773572837, 0.008186926278670792, 0.013214533964159766, -0.010558507961476254, 0.005103882205400532, -0.0027886777063951327, -0.006009648718376445, 0.025975936794014005, -0.0018134831886169411, 0.022111068555080802, 0.03212583382036417, 0.016287505473142595, 0.006074414416320481, -0.015038343724053075, 0.009059620567701402, 0.001811990526909297, 0.0026411725070634574, 0.001472929713553056, 0.0009237709431852096, -0.01041074843203926, -0.001075881583387393, -0.010205576419612691, -0.004633694942912084, -0.012539878763391545, 0.022332317348676103, 0.00015797446387001167, -0.014712907275286681, -0.009079301561133245, -0.00042063646432615354, -0.004934706116556417, 0.0025182212389786114, -0.015807085850311504, 0.00013485219864946054, -0.02483148787040439, 0.009930072512556346, -0.0012121872076459744, -0.000409606118913496, 0.017971063093303874, -0.0210206879196241, 0.008803249504515052, 0.008188308349849016, -0.0055860350817124585, -0.015560915500521187, -0.019396491683616263, 0.00010986305595495386, 0.006309131283481552, -0.0010538756650334206, -0.01546702793568815, 0.000451645639318407, 0.009768553392207701, -0.005287012948026208, -0.016194349197630558, -0.00745501126195083, -0.0022384592806411817, 0.004645040699376651, 0.008897605770729686, -0.007222526212772661, 0.006485202081097149, -0.006534337645312348, -0.0031694002178097574, 0.0014622163318578406, -0.014595681116903028, 0.013408122074182467, 0.00856347966391666, 0.02494023241112686, 0.020216212097645642, -0.0011880742781172865, 0.012900040259683585, 0.0019623462743395036, -0.001233886931018179, 0.00923674343680545, -0.005813538364701428, 0.021905637904181135, 0.03760917360932252, -0.012382069858084058, 0.014900749268624995, 0.0074753240393571506, -0.01014417389393816, 0.005363364352910008, 0.020855005053855416, -0.006127886294233679, 0.006579050366839865, -0.025380751517474934, 0.00431804080400462, 0.004239857474674247, -0.010544068101699791, 0.001154042431672363, -0.005994973613481505, -0.0005085742775403548, -0.013860024430770378, 0.013490188096333657, -0.010588741330400967, 0.010683772110124917, -0.005580192364482541, 0.006637439799030524, 0.025533224998613265, -0.013935745984188773, -0.005917123554000925, -0.007121829666836534, -0.008655160531925825, 0.006111876172386749, 0.013058605019167386, 0.010395994580167739, 0.013271053503891232, 0.001863257774537148, -0.022105582070131236, 0.007304525949615734, -0.005668872315273033, -0.004874477910881595, 0.016947135609690907, 0.011467283950813874, 0.0007139167023205039, 0.011704333113712554, -0.003425104476931227, 0.0008795765368712041, 0.009265044213067031, -0.017333946889592836, -0.004304478520210016, 0.01178713597785242, -0.020514651122452553, 0.021800969777527053, 0.0030612553048329997, 0.01971037350076456, 0.03176301546355282, -0.001275294507888199, 0.004585158187216164, 0.0017336131493181344, -0.011475341023825972, 0.022318664772849394, 0.00036558274730006545, 0.0044199020999726125, 0.012253748541137305, 0.01060272657808761, 0.01654019394056438, -0.007260050038918972, 0.012833215901802104, 0.004953593524817912, 0.008995968977925031, 0.003815437932901823, -0.018395078489830626, 0.003299335943349791, -0.02087812112763458, -0.024576931592694373, -0.008638471895672644, 0.0025999809306786466, 0.004581118921931561, -0.009631114432700061, 0.021037068322793128, -0.0030527814685060092, -0.003035819771235218, 0.013662025968362771, -0.01079086862717577, 0.007658597391825062, 0.0059039427903626275, 0.009189366846598506, -0.004143427222719008, 0.011211612783867968, -0.009850629325898787, 0.01326115296646864, -0.010410009316604714, 0.0029972010750268785, -0.011990628096023859, 0.006160360869160501, -0.014118119880132259, 0.010553484629981421, -0.0069703775086048915, -0.010057121605902282, 0.014579445879789779, 0.029800533084107392, -0.004290201333734572, 0.01342719706366319, 0.005206729029925686, 0.013875368030808754, -0.01822057605379628, -0.008055967807834295, -0.0442086924331339, 0.00567434988775604, -0.009541463700106936, -0.012527913578933346, -0.0015054588862484862, -0.0037583524058766513, -0.016556482101552784, -0.015433663215546383, -0.0026604614783130084, -0.010946099656169887, 0.01287624358908807, 0.0068816725768632075, -0.017404089947013084, 0.0003890469839679686, -0.00023479586774971767, -0.019105305802685792, -0.007530384713797116, -0.0003873991242274057, 0.0012896662221426971, 0.009136095649610732, 0.004010007357695499, -0.010720019364839824, -0.019813219620605012, -0.014189693148966488, -0.006012268774297849, -0.013000419088264777, -0.0006576343512149105, -0.01024132000162424, -0.0008132476720223461, 0.015341606722192163, -0.011234425788470146, 0.012032668120123094, 0.010112578873966828, 0.013671711873286736, -0.003044067339974473, 0.013069202875822064, 0.0004163873722510578, -0.012151204461962058, 0.0006257289501697299, -0.012221008062093393, 0.007233306685571753, 0.009391709592482181, 0.0219385759357207, -0.03142753839555502, -0.0027164948701609466, 0.010224198528447739, 0.004284041963394687, -0.015762681754842762, -0.009885148570843685, 0.015597288075592382, 0.03224214511028929, -0.011313564090277757, 0.007785062391262625, 0.011499187252383762, 0.0020440600958048913, -0.0020875985219429797, -0.0012766229334267084, 0.00372808873450984, -0.021163399575681946, -0.015765752000635385, -0.01760005635716449, -0.011590070997331055, 0.010511134311433305, 0.009119109561138653, 0.015812678007795317, -0.007441841358693108, 0.005526071127995798, 0.015855889052869575, -0.020563059466132964, 0.0005378860823196046, -0.004002438107227787, 0.017580124941116028, 0.0012518531390224147, 0.016781505312853183, -0.004801415385550716, 0.00016953328250065154, 0.0009138831860749627, 0.007084074329659272, 0.0040965526276218345, -0.009383657080641754, 0.0023319460680135315, -0.013460942053191254, -0.013407345810367033, -0.010490348578050882, 0.0018021116266368066, 0.003952853714419505, 0.005755733669009887, 0.011194598518389123, -0.012407558999981678, 0.0034898075792339856, 0.002673731042580296, 0.007511267866713099, -0.0037597927962127104, 0.014630518984692841, 0.005291730985379392, -0.011995366854762298, -0.008367211132054351, -0.004269889840673642, -0.004384428519387601, 0.008992017021772575, -0.013014912879423768, 0.019124281916684246, 0.0013959583515543174, 0.011818189505652724, -0.01399903782997201, -0.024088866386082965, 0.0006807941298660629, -0.012950238001319028, -0.004273445398076288, -0.01843675401629484, 0.008838071082619421, -0.003701638297081118, -0.004850593563106657, -0.020876057269219997, -0.0013435236151585635, 0.01491035889915341, -0.0022118034227370164, 0.015673466944043337, 0.0034089100602205146, 0.01867131013754587, -0.0092899505048127, 0.014657602865366692, 0.016210580851122206, -0.0029636517852212048, -0.001110325218292054, -0.0019069850527580546, -0.0008917679179520024, -0.01896308758350216, -0.01033842523684693, -0.015540363509308826, -0.010649726251769376, 0.005736718156557281, 0.0030517824575079498, 0.010377187136394213, -0.019830036475133577, -0.01004771105782001, -0.012964086016642626, 0.01335813578459655, 0.0023184056534499096, -0.0018741172039944398, -0.01549613633998619, -0.011009699527883577, -0.00624939631803963, -0.0072544329302822565, -0.017474684137310334, -0.015880836851184226, -0.007237365412519284, -0.01753677211081245, -0.01172825495564771, -7.103401395637178e-05, 0.0052541743807552775, -0.00634535377143045, -0.016036569865989204, -0.014858465584518893, -0.015820122510837725, -0.022612375339301168, -0.0056991496101634976, 0.001716264725697645, -0.0016926990722590115, -0.0012330469308761834, -0.019225094893070904, 0.002532417204665306, -0.01851507493868353, -0.033665284236172766, -0.013465712073545593, 0.022771907372143567, -0.0062565583253082445, -0.025078199358027308, 0.00899938554312707, 0.015200134116588961, 0.004675121904971546, 0.0011293283882568487, 0.0010556855582594998, -0.008942073214326236, -0.001762607666846195, -0.035346903917220875, -0.001066709132987874, 0.0002470835024868854, -0.01346501143171369, -0.019986582928958736, 0.004915301515139905, -0.020987455358186892, -0.00044411033760407084, -0.010027025180557961, -0.010464348004182757, 0.010118697080939995, -0.013968841716153277, 0.0036982983691374624, 0.0159804848943428, 0.006303561277852189, -0.009728729085694719, -0.014742466272386312, 0.010098340502974963, 0.004570399130644979, 0.0014169416369959793, -0.003546280668453766, 0.019948236139583058, -0.0160505970974824, 0.0029077948403638362, -0.0005897139139208012, -0.021583707171291194, -0.007346566784841236, -0.00023544499658605575, 0.008353979680906206, 0.0012830634013755034, -0.0008141180812209841, 0.006936512150115387, -0.00019000099335719794, -0.008655214516458426, 0.016689863507897116, -0.015080897106224074, -0.0036003204138906316, -0.014566582628442102, -0.0023609121024642595, -0.0078110462676733595, 0.0014064625852894478, -0.00013775532312472298, -0.003244016877352015, -0.004010340067675695, 0.006881204949208155, 0.00962325070215289, 0.011411769272302235, -0.022792390302539982, -0.005678954367760552, 0.0016118568485923106, 2.3623110068974358e-06, -0.0062678953597214366, 0.005625685786613053, 0.001333800424631194, 0.003517121388015899, -0.020628560746856355, -0.005737457196737743, -0.013156542472185265, 0.014843957235669327, 0.0027892318833340735, 0.012704028617531424, -0.003474028257161086, 0.013347078283586779, 0.00761558353675021, -0.01858096970164435, -0.011376564393675771, 0.0027391022491308654, 0.015331440967690619, 0.021053888641254077, 0.01293866485347583, 0.008440312957424985, 0.001028427700421927, -0.010278624719185133, -0.01948040137316938, -0.00040455194015515193, 0.006849455129881612, 0.014074757483214967, -0.011209973035052227, -0.028260778365278013, 0.0036541561154677074, -0.0016561459844898646, -0.03164675861414899, -0.0032146714437551334, 0.02547453352579008, 0.021902439969155075, 0.0024127825428878658, -0.006561450147748039, -0.022372950068730597, 0.005220307525143364, -0.011164475786730653, 0.006793246037233506, -0.0018789097338998701, -0.010992314994196303, 0.005006053659787377, -0.010756700297553946, -0.012018348412585894, 0.006492558650413163, 0.0060520147818990755, 0.011782375562259672, 0.0017730804387121296, -0.00046789111491081156, -0.001283416489860431, 0.014565099225730911, -0.01607988173119996, 0.0056865621310463466, -0.016729968441856986, -0.005237495313972105, 0.009630787136426821, -0.015658859228855567, 0.008518911591191787, -0.0006115275986040103, -0.0002613518783426111, 0.009421248036575354, -0.01396463504436822, -0.006757145922284681, 0.002002013026566885, -0.003414542303490267, -0.0007633509051723343, 0.020745191198088656, -0.04023121841114513, 0.00939221692746811, -0.015821520491639856, 0.008408538218359317, -0.00225044521332653, -0.009373439286867178, 0.0011752412135175375, 0.00996611439645465, -0.0031431473286876615, -0.002717670288036305, -0.001518673424729233, 0.010330857708416165, 0.0023968137294768386, -0.004847958920653695, 0.009173936242246303, -0.010501736952502772, -0.006834074955772177, -0.01270155708920303, -0.004511340305096348, 0.003433437782910969, 0.01229582557149493, -0.0015830577237857068, 0.0007063395349502008, 0.024560189793398662, -0.008489421749708462, -0.02539580504037692, 0.018469137511272587, 0.009641766462886999, -0.00480701444417211, -0.0014405425546478202, -0.025982124351997225, -0.006395258601798159, 0.003996958394728955, 0.014987728651983036, 0.0045988659644825595, -0.0075345087759400515, -0.011002694825438248, 0.015304001406040876, 0.033182136082831305, -0.010058990147797688, -0.013321663244167194, 0.008665449070104357, 0.009592861791788613, 0.008305361575211818, 0.006918429696862097, 0.004905334551982511, 0.01743679927239246, 0.00535821215270818, -0.0013940148522731896, -0.0029524883415207826, -0.001279135588962232, -0.011440278030742906, 0.018260778141378442, 0.015639698114255463, 0.002212866221658127, 0.018642291280389994, 0.006824761697568387, -0.002442177772566331, 7.797906344510655e-06, -0.008637729972987685, -0.012443081631153012, -0.0022642186959550186, 0.02075985922127128, -0.010034851493020453, -0.006082934493981912, -0.015293125625684268, -0.012678496106322887, 0.012412493046448514, -0.00523559194495566, -0.01257484469366323, -0.023771913802167782, -0.01716229693679305, 0.004478786066910963, -0.014249394869840813, 0.018073902276588033, 0.014940897901712777, 0.004763425249865218, 0.013237129542365543, 0.011634991544801387, -0.012815488893318978, -0.005303368715992121, -0.014027561607772356, -0.002738049619032676, -0.00011350232491778256, 0.015421484841508452, -0.003356853452537204, -0.008993028941848858, 0.010719930534612374, 0.0118231964872935, 0.012634969709576685, 0.00411697324235674, 0.015579211479269875, -0.017347832659043272, -0.006017141246508071, -0.015090991655807373, -0.013283879461543507, 0.024782022266869295, -0.003342183978772246, -0.011105067088122094, -0.019031644894805366, -0.0003578198307157077, -0.009698113668751115, -0.010645330096777931, 0.0008764585909620961, 0.00998659351701071, -0.03386041418527548, -0.0076925088595606725, 0.01076246075577617, -0.006829533814259873, 0.02049065183286495, -0.003920485655065154, 0.015714730023639805, 0.006624234233321866, -0.004799141979958919, -0.007512440651531087, 0.0011882180645829328, 0.008048452804190882, -0.005117107021478218, -0.0023849153199208602, -0.00590942605704128, 0.022132233031668204, -0.004365002910782013, 0.01121138900578393, 0.004506355020073267, 0.010727577687645418, 0.0015741996758155963, 0.010341043325727736, 0.012391577770384282, 0.010550054637978768, 0.024294191159949317, 0.0002416299540667172, 0.000707431144721875, -0.011824233237531992, 0.0014830732708626892, 0.0010157168800749537, 0.010979687101023546, -0.014383843701933404, 0.007323270389279017, -0.0006897067739877298, 0.01630636476834263, 0.003595940521910213, 0.00552002463434974, -0.00766606418963418, -0.009281065926544515, -0.006632884538146301, 0.012858161238150296, -0.009235274001077905, -0.021598830442804536, 0.004537131194333054, 0.010085347705270357, -0.0180290822035068, 0.0010504832131383573, 0.0061956191302721545, -0.009907798214985193, -0.0033927596731186714, -0.008949206123124052, -0.006055027801816226, -0.0037218655684058163, 0.0038638547423926798, 0.0015904353745837825, 0.004994176289245903, -0.0008044634518901204, -0.03940019443733177, -0.005068120079670691, -0.004087349537673817, -0.0017839132878379094, -0.015138530959889457, -0.005542965325618319, 0.0010050794960769199, 0.00936814503011386, -0.004509572510203251, -0.013644786715496486, -0.009837064746839258, -0.0020838606663101666, -0.021803532819235177, 0.00017430320658831826, 0.010113118885958063, 1.4092867515778604e-05, 0.01450583545890215, 0.0035777948476508, 0.008295578915798336, 0.0009783767991955663, 0.005129122346731974, 0.030590573669428685, -0.002089635750319861, -0.005450934970589908, 0.0009324630162847084, -0.010552695144196043, -0.022246700504896914, -0.023461919658015678, -0.02507099692507351, 0.019500367563137447, -0.00067471145204776, -0.011949555947991807, 0.00011615404588081572, 0.01074138327696287, -0.016775806775849403, -0.011540632629450204, -0.024194515711693423, 0.01106810762620527, -0.01419014238549702, -0.013058958953257163, -0.024305438736543682, -0.0009254541901200855, -0.03216784682997654, -0.008478084159111438, 0.013499585547670752, -0.0033505110269776766, 0.008358286180864536, -0.0016531463392553255, -0.00455429622324776, 0.0021875923048701126, -0.0010553953486215704, -0.0339269571015211, 0.009890867704432035, -0.006117180986770542, -0.0004664599256853275, -0.015193897886746334, -0.005807023257901974, -0.007059398434854513, 0.004437290909795861, 0.0004381938036880038, 0.018826997298515728, 0.005330930826893854, -0.00814965351508853, -0.0322668164503688, 0.0026035822949138417, -0.011119284690926119, -0.0027347456473416592, -0.029179627633671826, -0.016883610878921682, -0.004522016433768792, 0.006274140379201327, -0.01148822867937138, -0.006809457722788391, -0.007317283044822373, 0.013363820709470484, 0.005306188547919723, -0.006064934201173188, 0.010356274942107892, -0.002519314758343389, -0.01189158538845505, 0.015030094976910711, 0.0034050381168194703, -0.006943916154343103, 0.02900038188412395, -0.013026455193881206, 0.009211979424208918, -0.01996553897135456, 0.002797855558246257, 0.03249820033771177, 0.009265976913173948, 0.021696423554290724, -0.004365929634664414, 0.0036339704169132507, 0.0015747128830708266, -0.006518708553306824, -0.009820154010731804, -0.00703149826709545, -0.002284631456228341, 0.013077601139424478, -0.016012449338941265, -0.0010376883179228852, 0.0007468150211557641, 0.006872704133604775, 0.0015056968293760127, 0.014175521548214944, 0.015830693456703467, -0.000836874317531818, -0.01757472267217948, 0.013636642289847796, -0.011114739267926941, -0.00385603393761089, 0.0037313528626178364, -0.012365342430272564, 0.003115109481453507, 0.005969900453314271, 0.0027801011661431375, 0.0023537907379329133, 0.013016709336677536, -0.0072567185306929415, -0.014535515034864926, 0.01052934780153415, -0.0036713529341428977, -0.028086312721082373, 0.003820588590235937, 0.0024343676443606206, -0.004639707749778701, -0.008746928879145455, 0.00431242644121946, -0.023668047685014078, 0.005651479853054862, 0.01693030487729952, 0.02075228734606537, -0.00887378675757628, 0.01074878796431101, -0.0034270146417467438, -0.005034015352012483, -0.010391284928227494, -0.02438754691034796, 0.008547238102399301, 0.014564980442711484, 0.011168086817657095, -0.005166785932912804, -0.019103974893754476, -0.005180236942100595, 0.0024750833821134874, -0.011791184230934821, -0.035595122877853554, -0.004796443316329678, 0.010628876561175785, 0.016848853981522027, 0.01459513153209285, 0.006290815807598386, -0.02400020719521165, -0.006878221929218327, -0.00015434531184589485, -0.004248141634942628, 0.0019483972499153054, -0.006797486327840237, -0.02522885102129031, 0.016207581084705065, -0.00418367699116554, 0.0025911651564360593, -0.00045230354312070123, -0.005041179669590377, -0.005507044115178027, -4.687629570048636e-05, -0.009980174855097857, 0.00642621383810335, -0.014887627623941897, -0.014755879848511896, -0.007166638026753123, 0.021595219503278938, -0.006602746328580663, 0.007157106542143391, -0.005245631962898672, -0.008455982866803302, -0.004030350967247555, -0.01570106473363084, 0.00040949227410960466, -0.02218699580695269, -0.0071991709783962325, 0.007428111064937145, -0.018575221751109143, -0.005219976650788124, -0.0049794698715647815, 0.011797016963763663, -0.03711419179961826, 0.000806263719644065, 0.004883120067974394, 0.006568117946664823, -0.007460874424693493, -0.021494497213401357, -0.000984507494254309, -0.0006882719589679007, 0.004655493888647883, -0.009328678951427001, -0.010451339070889085, 0.009591808961320123, -0.009257237837470986, 0.0007089185404517243, -0.01016354418671822, 0.008970034546862782, -0.010007791973882664, -0.012678710232707384, 0.016479078800632863, -0.009932987794411803, -0.009628636080684807, -0.012921450112824322, 0.007991942659122236, -0.015852286077216247, -0.000690599125642074, -0.0014355630409378958, -0.014904464974732757, 0.0028621830438794247, -0.004540518283655499, -0.002661787051628889, -0.003907281321643289, 0.005058603897934517, -0.001763321784005497, 0.0011963947849144298, 0.013744830769986187, 0.020828825858554636, 0.01048145860606502, -0.021127986491378772, -0.0052327656697164745, -0.008595702188961217, -0.010734740267501408, -0.003977021875862872, -0.009467604039749505, 0.0029324138422689976, 0.025373745101874626, 0.015037762288553396, -0.0011962811607425813, 0.01723776565207632, 0.009522331192764527, 0.006498034457892704, 0.00020363564674227445, 0.0036905098784129307, 0.016852536642835408, 0.0010120234501843142, 0.004867235610878846, 0.004221388492548522, 0.008753254185709514, 0.004636906033507186, -0.013121048440718866, 0.005449900327998293, -0.010733629433424837, 0.011901233232296754, 0.009884260051281563, -0.009372673162010004, -0.0013377227273954414, 0.012114278970662662, -0.00212956918582014, 0.010951701084324538, -0.018138385718001193, -0.016070166465981556, 0.0011440713568239707, -0.009456865951118795, 0.016914604411583847, 0.0011518836476376731, -0.013272759262118483, 0.0014031701202288102, 0.013206975263361466, -0.008096236761894858, 0.015365664654894312, -0.008432436199447989, -0.005786285319105097, -0.004767728402407331, -0.01245976151336879, 0.004474777597407227, -0.016285013162194478, -0.00011809600337868442, -0.010540767660424211, -0.0181264060574916, 0.0029746986016254452, -0.0029796837050280298, 0.007016636476784499, 0.0017141917891629879, -0.006967880457981626, 0.012391513858693195, -0.00037790480142637235, -0.003290430395305868, -0.010293671193296088, 0.009236818204460293, 0.003666247565496533, -0.007483680875820297, -0.005748701713516967, -0.022821752793775022, -0.02007421227781191, 0.0012919335216662524, 0.032910730383824645, 0.017496787619841393, -0.009300049476437092, 0.009220010072536136, -0.012742839184733642, -0.012044234111515844, -0.0023303754477317132, -0.0020929469664918033, -0.015536905757390584, -0.01209861111633409, 0.0004014544153524884, -0.010935059279896606, -0.008946846279973164, 0.006675729006837266, 0.009988513254111195, 0.011211433460862024, 0.0039685969416712, -0.00785748748720284, -0.006005369305337206, -0.007478325624861505, -0.01647169365150236, 0.0019125138232551965, 0.003067147230062296, -0.016382156436977168, 0.00840994861053185, -0.009794406265151738, -0.0030520255578478854, -0.001137666521899256, 0.008660016103192045, -0.01638217693888039, -0.010451028257334778, -0.03977699718787579, 0.005334559736933908, 0.007905391558430857, -0.006709442916644831, -0.0036239849645473797, 0.007882406524589141, -0.02546221376545693, 0.006424436177681429, 0.003386870812754299, 0.009978945150852849, 0.0028783829032774213, -0.007101839301194952, 0.01926397476936552, -0.003731644990672692, 0.0041194533281425395, -0.02219646524845844, 0.013375833239990476, -0.008597317719494877, -0.009750742622395255, -0.003694077782531153, 0.009727873955670603, 0.007374438088620515, 0.006842709672874957, 0.0020565079402312977, 0.0016238459608900852, -0.0043359658690311255, -0.006957580260120941, -0.03094339974107174, 0.004821600467607508, 0.014100904357665228, 0.019544295294041295, 0.005302951598190362, 0.0001794899199514072, 0.018162693853549166, 0.008379201122781963, -0.010695274371499705, -0.0036532284253821047, 0.008101373706619484, 0.020005861138717683, 0.010913995658226677, -0.002470875000597511, 0.020551302309486826, -0.008207854622223624, 0.020218293075429994, -0.011466166697271834, 0.00013923523776692646, -0.012428956143662271, -0.0060838819907969065, 0.015185678519291953, -0.017786426516591857, 0.007489048243437579, 0.0011266845124918924, 0.0035670653385605155, -0.016886370742029908, 0.003278800339221363, 0.007390623293055173, 0.0015460971452347816, -0.002761059349380683, -0.003300187766002791, -0.0025186192736545696, -0.00695085447144994, -0.006210089947336053, 0.013753233274724939, 0.01920622494420092, -0.02237240800552651, 0.0060939742370551015, -0.003538280972529793, -0.007682981200659331, 0.0030016485991022695, -0.006974667564411006, 0.03255828921950937, -0.008064510888099882, -0.005384786613955224, -0.007513266672775152, -0.012814113862487986, -0.0039743745226983205, -0.02114139940218864, -0.010607954460574701, 0.004511858997818326, 0.010850142206032386, -0.006074202681511671, 0.0002613170645144147, -0.018038362882847478, 0.00941827068135955, -0.010273101381971924, 0.013218171867946932, 0.0026978443076799887, -0.012358533267465827, -0.006689297310556413, 0.022642282865810583, 0.00625840896687999, -0.0138645132663509, 0.0040886025971059205, 0.009329279183171174, 0.012790816914313937, 0.0074542515664359375, 0.0011517013437038577, -0.004495900022671855, -0.0035303783108325414, -0.00337086246311106, -0.0031629834475077256, 0.010596934779398938, -0.0021392521646353647, -0.0018486274418320647, 0.023111567612561345, 0.004322105915192967, 0.013200036889133043, 0.009149950878840718, 0.01046274072358283, -0.016202781132140007, -0.01068264360555904, 0.015715296193842578, 0.008236718777138744, 0.013193454513663947, -0.020027984679867165, -0.006380318751276927, -0.025920471063455856, 0.0042663445679610714, -0.021792488133222758, 0.01147660999518779, 0.016242409426797853, -0.009971417421628498, -0.01208580681708086, 0.019999437847082358, -0.0009671125632511214, 0.004689314250241376, 0.00404268267612659, -0.01272799356929096, -0.0025537255612452132, -0.02056061243046745, 0.01014403715495985, 0.0200303582841407, 0.01531620948922817, 0.00041806622497246154, -0.00962650867591447, -0.006501588215872255, 0.013253714961041005, 0.021312312374988932, -0.019361913009250425, -0.0023242544320218558, -0.0010768604052796647, -0.014100351004586516, 0.010647719265368479, 0.00938427927653595, -0.02280251402530481, 0.009902443656401116, -0.013447105492915657, -0.005491709190474041, -0.003900911575985312, 0.006039712449842753, 0.0007132841297029496, 0.005686185429641092, 0.010254026228789848, -0.0034683870797418337, -0.009244603992639972, 0.013504450988904845, 0.010087047500111985, 0.002731277402264652, -0.009410533233811975, -0.01134741907671232, -0.004157849407430192, -0.0025620564273668464, 0.0017536486970800192, -0.00787878596889495, -0.008909283130179326, -0.004410602552384703, 0.008160150646415997, -0.009749888403034215, -0.0009710639356669071, -0.006716150655063658, -0.0013616000752598699, 0.001249384257363922, 0.0009777842890255112, -0.004370700123001075, -0.0009842956681102425, 0.012380348594581585, 0.0007143052014430329, -0.004462909696844737, -0.009144322543690648, 0.0077221998148740605, -0.007093602230329442, -0.018559978440823403, 0.008394582181428042, 0.005337418637582967, -0.0001518663283904309, -0.013193419049318294, -0.01901286732583812, 0.000527675359155508, 0.0014837121791161068, -0.0021905544811020227, -0.007266407322301117, -0.023127320351874744, -0.008402005777708537, 0.010944151598071767, -0.0007063066428091413, 0.008382194302274604, -0.021968942366251736, -0.03357312376660125, -0.0009509923140119213, -0.014057841409545763, -0.010764208490740553, 0.0021897743119403575, 0.010757753670173686, 0.008146884312128353, -0.003323027266417124, -0.0078025881125845286, -0.005196765276234619, -0.003619417847211154, 0.008670470123275775, -0.004759325605800958, -0.020787391251268748, -0.01105027078929164, -0.012762192600094513, -0.04908568813537565, 0.015010584976336503, -0.003633037690309434, 0.007153030713033372, -0.016969833799844077, -0.031141520938473943, -0.023071063609948005, 0.004049228176963384, -0.0007174446438115465, -0.005702101540303002, 0.009055482231555544, -0.00753886122408823, 0.0009251410930215418, -0.00939723202541734, 0.004073074493109899, -0.002453107174767999, 0.005131498576320367, 0.005125592065105203, -0.022492409145949646, -0.0010681160826252229, -0.009007254624401212, 0.010046336569855482, 0.01806761019390368, -0.012156705635809057, -0.008249571083142651, 0.01129039329205938, 0.0028670969869106356, 0.006942124413803506, -0.009583428435182983, -0.003459730649740071, -0.009600756245312963, -0.009858966522915496, 0.013985315358335174, -0.009568344842613501, 0.006240668186841648, 0.004989957425811178, 0.0011040269691952773, -0.018587996201957693, -0.0023378541649463577, 0.011548300330361166, -0.005963316916808134, 0.006606701010091293, -0.02326068230797703, 0.00865869810302648, -0.004019224480942373, 0.005081289399620813, 0.008891849476651054, 0.009004360595935425, -0.0035955206806855982, 0.009538423185573228, 0.0006164801676495488, 0.004032572350617484, 0.009264781005919943, 0.005853926846464271, 0.02104853159105277, 0.011132803141177917, -0.007128402337873492, 0.014046298734579892, -0.0043700412849594274, 0.0017534636946843118, 0.005091592605178715, -0.00365804713605812, -0.006912316404192927, -0.0015623835744034812, -0.01903887549112714, 0.009661556154216109, 0.006961428887594806, -0.009473248108794382, 0.023369283519036638, 0.012157377797091307, 0.017547409855726767, -0.003086116251077178, 0.003575791631468375, 0.024705358122760316, -0.004720367324535582, 0.012915887954549706, -0.014363494219842406, -0.003567587454003717, -0.008996277028291828, 0.015210363688288858, -0.019712195691196976, 0.003354721516397978, 0.026300416967044705, 0.005788856486155634, 0.0009526261106313544, -0.007289019636153879, -0.00734717710162672, -0.007987393211002928, -0.002967410503825311, 0.006811910151893203, 0.0015914067867643959, -0.010666049998149003, -0.014936321727718664, -0.008540792785049826, 0.025954708605348417, 0.005903100073525367, 0.002244855040889922, -0.007361180358827941, -0.003590599515406082, 0.019215420968858896, 0.011860788404933856, 0.003934482253908247, -0.009070690213124427, 0.0048365924388409755, 0.006038428980680616, 0.009180814437835113, 0.023571747932213123, 0.01649457459824425, -0.009882220537925748, 0.0035147349150254593, 0.009611611865085098, -0.005994599778662161, -0.01384057674433215, 0.006846100546422882, 0.009100029938577803, -0.0020703428559374973, -0.014991798096229676, 0.02455568183674122, 0.016436142503658116, 0.011120369115227942, 0.0017317910697360699, -0.008498396322456196, 0.010051451355529038, 0.0020999139483545153, 0.007050914802455082, 0.006240640360880176, -0.02216889656269909, 0.026423995708125522, -0.008297051958709258, 0.011777943651301153, -0.01504004288357184, 0.007612223487520975, -0.0015988109701633709, 0.026880211494845534, -0.014253929743558977, 0.007719283445402058, -0.011134084496764571, 0.019312709487945893, 0.01961557481103194, -0.0020891027720838255, 0.007344887264277665, -0.010302151398032623, 0.012920361436418606, -0.0027343762598945327, -0.010175720737267012, -0.011857095603764741, -0.016533328280786738, 0.0031032822093932546, 0.00785681225801434, -0.007480064063922477, 0.007560017999533163, -0.012591921488944202, 0.03197535948559002, -0.023686850940845095, -0.0050352373618157585, 0.001058620216235001, -0.004627093601458155, -0.0036733774167636147, -0.01600959871182516, 0.017453223011779512, 0.015102735223861283, -0.013501581936272464, -0.039179794383308, 0.002772056290309792, -0.0038910951470915375, -0.0013209589777870001, -0.005977200983866902, -0.0241870471439096, 0.00650594483602503, -0.01727097395851685, -0.01819258707803344, 0.0019977459984644812, 0.004514505159905874, -0.015439849404233725, -0.008613052323119551, -0.003520713448958259, 0.00379338864865372, -0.0007084945377665046, -0.01952437213831957, -0.009851225873683865, -0.004888782404969617, -0.007019806497735898, 0.013333992435260495, -0.00941428916700451, 0.001866087077275943, 0.007447530960503559, -0.018302584922242463, 0.007806525049774981, -0.006139965307537532, -0.03793534171078303, -0.022719007733757457, 0.012321167995143477, 0.005438821253245954, 0.0017653354384297864, 0.0229506931270157, -0.010470495896818567, -0.01852556884670816, 0.003476374773015125, 0.001826690649316838, 0.0014586922584352803, 0.0006729090961198021, 0.0012562514892563005, 0.001971974088239457, -0.006570963569598229, 0.00449361259084993, 0.0073320039767797735, -0.0030944487258293416, 0.01842158872429031, 0.0006541700365554664, -0.020345969570039816, -0.01253388991316871, 0.00229921670983826, -0.000896987855124118, -0.0034944922089250514, -0.0034536433705426345, 0.0128271127243277, -0.0012683695313175424, -0.00506534532491984, 0.020815099266002106, -0.00470016027652367, -0.024551827856552886, -0.010245526121486744, 0.004786636624864132, -0.011947879953922666, -0.008993843624765312, -0.014561333301487255, 0.02588779875687548, 0.00652568585707358, -0.00014118009329556873, -0.011742058595415434, 0.01637932243475781, 0.011033038914232868, -0.013024168409703274, 0.009961762697888085, -0.014728790221735254, 0.00976364710573162, -0.0064907180107914575, 0.0009159481473559437, -0.0030825819199331752, -0.00642917003783292, -0.005863762659826314, -0.014570948681975417, -0.005853384092077195, -0.00774100648162105, 0.005353905660679494, -0.014194942121207121, 0.01014458128513452, -0.014709657368347681, 0.002337254379888033, 0.012231886690842832, 0.0036531918808156497, -0.01372107880641908, -0.0128003214987673, 0.01451354013990829, -0.00258156482774413, 0.016307631105557687, -0.002941686813807695, 0.0006247568903681288, 7.759404862041512e-05, 0.03196044631663496, -0.012651630333709094, 0.002806399185116434, 0.013049169624997954, 9.921292522145382e-05, -0.023957233103410774, -0.012985577386175779, -0.0030978836445231406, 0.009406387961771671, 0.0026552123295518746, -0.0077535191355440555, 0.005192106932862925, 0.002981286087935823, -0.0014492096096118423, -0.0018293926142954303, -0.03347763015736083, 0.03652300539040137, -0.009045568023898162, -0.0014661873778115933, 0.013086675690263052, -0.0029775550751449027, -0.008378933614170863, 0.004185351888587147, -0.0007498625844141777, 0.02213047284779748, 0.0006254217006038498, 0.0007061518344524855, 0.011779603463939534, 0.0003627601694874916, -0.018363893589808142, 0.005238591705332049, -0.014953844266385661, 0.0050535310968879785, -0.006993933862067789, -0.004415200272776531, 0.0009915649487545267, -0.0017907997384157786, 0.003756170686261797, 0.0157863823086911, -0.022994279031885455, 0.012379883693082077, 0.00022650039940711958, -0.028474382206595063, 0.0007863488977056372, 0.015548197633185616, 0.011086632485888953, -0.00972112884499994, 0.0161511199383706, -0.0024947920124582554, 0.0035140858394676153, 0.012733470674159544, 0.00413448913468711, -0.007627299391023505, 0.018032555603406192, 0.0019685700770230062, 0.005018501918696108, 0.0069642781244936445, 0.007414041081580541, 0.023744031328288614, 0.0022983793972717187, 0.002112228056495562, 0.0033392367162946753, -0.006851046324191679, 0.01880687378776007, 0.001294606147991406, 0.01783374255974158, -0.006480819917184446, -0.006190026224657488, 0.003425545042872821, -0.022630953656530232, 0.0016100254508988518, -0.004091052594501582, -0.013595207139193589, 0.0037480033190228955, 0.0031754751693445584, -0.0012281520740684104, -0.010554625484877529, -0.00658439017252376, -0.006237459105186205, 0.003941802548391517, -0.024367810853835804, 0.0036926751836215727, 0.014259202379869749, -0.0074006424326378654, -0.010036363211962883, 0.004227774271108528, 0.01407335944270825, -0.007860169182841367, -0.014293337448907616, -0.013002304790383263, -0.0045608439860781915, 0.0019320520742893098, 0.0025888148585260697, -0.008698654320751153, 0.008764124480514448, -0.026272793170512263, -0.008454836250553717, -0.006032032246476401, 0.01248187170239094, 0.0009657491826821341, -0.010343431463084357, 0.0008904355977478707, 0.018742171875835493, -0.008185795146553975, -0.000834063526363851, 0.011918383541338767, -0.0126761330414635, 0.001919975215516516, -0.01052052758680845, -0.005586067742412514, -0.010150220304849389, -0.011326705404983128, -0.002338796366590928, -0.004785332962775502, -0.001171609838666731, 0.012725913463924658, 0.0030391837468771005, -0.004406705590156395, 0.000535608416113036, 0.009702380951574325, 0.006592848608847193, -0.013621213120910932, 0.020854261071234517, -0.001249644068062697, -0.01611847837126374, 0.015406095982133064, -0.0007969828113115169, -0.0036021590173216053, 0.004239693885418113, -8.731500959594891e-05, 0.008091237037137227, 0.004267615277988829, 0.0008220559428394027, -0.0028586242045284325, -0.0019071647790425744, -0.004989614666852917, -0.013005757479976987, -0.010796624019244676, -0.004141116824709688, 0.007351121494386458, -0.014729510165917021, 0.009247534990419243, 0.0019880582972867135, -0.002439408689294175, -0.007486894136002069, 0.014127546598124253, -0.027237586766974745, 0.006025043869642317, 0.007427839302857932, 0.006513487391795315, 0.02625455813990625, -0.007326271931761173, -0.004063429484991727, 0.02765717435624132, 0.010069519138618532, -0.009403657254295848, 0.0025365921040433554, 0.0020142638462583608, 0.0078025048383775246, 0.0035143924272738763, 0.0007970706376984739, -0.005014447982849634, 0.004462529443890026, -0.011784226781164003, 0.004734875434622836, -0.0006016318732960694, -0.01383799177807767, -0.006933832933131159, 0.01665862487564035, 0.01225641316165319, 4.9997025814127714e-05, 0.011689531570877827, 0.003856684691550518, -0.03380387372756063, 0.0031096866213034635, 0.0012663208665826423, -0.0017131766053067195, 0.00625059997586633, -0.002650759264264641, -0.003898738529404243, 0.005108320323669444, 0.0014109971249872816, -0.005216683594504167, 0.013271298332046391, -0.0036883121879929997, -0.02033934048764482, -0.014430676787533837, -0.004292836313890619, -0.000879628053051383, 0.001340579882016894, -0.010908254338871744, 0.008534438281571487, -0.007609286248179181, -0.002723681997541503, 0.004124595608665086, 0.00425348041331259, 0.0052663607065677335, -0.0006904344797830559, -0.0017673328774020919, -0.00031744688670498134, 0.009432444268038251, 0.016178501486869216, -0.006382477378363084, 0.03732814896506445, 0.014683427555347356, 0.0036111916273822773, -0.011371182934758852, -0.01407700162018931, -0.008519425416395504, 0.005948717123163954, -0.010244679345746029, -0.005964504162703855, 0.003057892230261857, 3.4122565361550716e-05, -0.00014285937678257412, -0.009593684979377872, -0.011159813578183436, -0.0007655937616060345, -0.011810283605776845, -0.010252972221624235, 0.016837366337274628, -0.011291268878845885, 0.004708129745908803, -0.004147365271159891, -0.02231080003659902, 0.014993947316403274, 0.010371181703598365, -0.0015509911526229772, 0.021041411301967364, 0.007438924531983157, -0.004474269361010122, 0.0025502526136896415, -0.005805360945318397, -0.001305157356483869, -0.02430565899155693, 0.012544976549822071, -0.00748865988141969, 0.002783068305244215, 0.004247808188557941, -0.010658944637389482, 0.0024843710484603156, 0.02178646103413523, -0.00879025188484599, 0.0038901857792556843, -0.008338571675378296, -0.005732548997771923, 0.009581265254206418, -0.011016565647189521, -0.002431236482078037, -0.007463597477332745, 0.009257480315332998, 0.004526672601771382, 0.0012802575159359241, 0.009410054680888524, -0.009887431449160145, 0.0051824417697035035, -0.00822225598508752, 0.012535869269431775, 0.018785181116548175, 0.017465235540359433, -0.005871610224766924, -0.012223509757639469, -0.004010088396840924, -0.000976322571859931, 0.00010107154199840878, 0.0006979694981919635, -0.01639284508055116, 0.01617788379532834, 0.00045082312589219705, 0.0011157475797503981, -0.012294749245805495, 0.0038546150452399503, -0.016288228141167933, -0.004724578904658983, -0.00408747702503538, -0.0013268510687211754, -0.0020234199210314723, 0.015814122925967837, -0.001344990655815155, -0.008132104021839726, 0.0014165866942737941, -0.008273656963945929, 0.01698816892605951, -0.0018476338296991369, -0.002493220882830957, -0.01779934200404041, 0.019252151739317463, -0.0010450999531809203, -0.0004730871239046443, -0.006960422091756191, 0.007407059627199719, 0.009182197167945829, 0.00751636357828785, -0.022305874125736796, 0.025813980482873523, -0.010031565183085338, -0.009578925571750092, 0.002056657563916582, 0.0015060364593154896, -0.012303128921005288, -0.013911956249801207, 0.0006997515437847331, -0.003507696491058697, 0.009108122632947082, -0.005637223757546727, -0.008699307390797157, 0.0012075702035268152, 0.00395978567458571, -0.007049415073493914, -0.002018998095122165, -0.030757296329855636, -0.010563196460129591, 0.00016438480365022043, -0.0022298048914328435, 0.012323747286902246, -0.004203940074501756, -0.0005763533184118122, 0.00832025550917614, 0.015444088137816156, 0.006902993613657183, 0.006478042202813608, 0.009692220271053303, 0.014532247118399039, -0.011853155286098338, 0.02310664672512825, -0.004008815622142204, 0.004217698405993335, 0.024995909676312978, 0.0174056538066497, 0.008951376311126805, 0.020678565195008852, -0.020689887285872597, -0.00401458832689789, -0.006626099642527259, -0.0063882373903259865, 0.014748777302913466, 0.005584434613097003, -0.0012979195295671202, 0.007461330288389152, -0.0069551091744310374, -0.0007984191349761483, -0.015425138970136313, 0.015510934593182538, 0.002701413676580656, 0.013524629017723949, 0.001749703289828911, -0.011976371549400115, -0.0029461693038459026, -0.006437176513776002, 0.004683173658690479, -0.003939262870133151, -0.008566270079875007, -0.0038393751641123135, -0.005243672745784627, -0.005168257980874404, -0.0060703743246762615, -0.00739942227878423, -0.00822195038192222, -0.004660413056773345, 0.00285489560116814, 0.0019606529577284627, -0.001610118366119448, 0.004881623486868742, 0.0034479156755245505, -0.019825015485870186, 0.0006375843282931355, 0.0052850466963796396, 0.00668098721011607, -0.008783957392327247, -0.0017917835052315906, 0.002642725587832215, -0.006231319160812596, 0.014658183294452646, 0.004798371073614806, 0.014559438257935542, 0.0030906535646719004, -0.005585863410319333, -0.00020419857165502602, -0.008652682493543675, -0.019193092860827078, -0.0021689179732865423, 0.008193062449342193, -0.01061024114016238, -0.004161533441447852, -0.009101999096619389, 0.003029417354763266, 0.011132381812705889, 0.008853185720782074, 0.0039670558492106815, -0.004849878151787562, 0.005086753297121969, -0.01350597262842623, -0.008195031499389483, -0.015219900331783769, -0.03075039816102512, -0.013539364707575155, 0.01742222453441248, -0.0061278518651139945, 0.01788567848099031, -0.012822952805217546, -0.0337037165983494, 0.007353976098779712, -0.004902334478365232, -0.006924795180178974, -0.007417023004004443, 0.01579421947887199, -0.011472180003017248, 0.004043994139734315, 0.0048982209059913, 0.0029110679356374736, 0.01738698553515822, -0.01899952771881133, 0.003984080710992116, 0.005289294690830841, -0.024429649080801474, 0.009645889863861206, -0.010001463579317258, -0.01872487045450063, 0.004696314992052487, 0.004021686515867336, 0.016688767516587998, 0.007153094729839618, -0.013147016256347212, 0.018156875313225747, 0.008954454936070864, -0.009249237260932807, -0.007251927175240473, -0.00942530828668795, 0.038264884828134456, -0.016697749044375643, 0.0037432569226583013, -0.01801181717055022, -0.004378059588591076, 0.005094972749480766, -0.004481773952976387, 0.025910005659142296, 0.012450654781851462, 0.00033967783153096163, -0.02041455860954872, 0.008144326496197988, 0.00926046956765983, 7.033471207030304e-05, 0.0058519557044398865, -0.02440860060397862, -0.008779682076873642, 0.008882928408634319, 0.00589107957969519, -0.00800282805861278, 0.0013618583103032424, -0.0012554924331678304, -0.0211535387548048, -0.007922309750153709, 0.006782627876316256, 0.004809460221820853, -0.010592904152800833, 0.003233961636096434, -0.012879784059534147, -0.011905554512302062, 0.0022427610126500627, -0.0007336370699962599, -0.009751736688458792, -0.009092934173548084, 0.037209217737434394, 0.006297940115389123, -0.0024631241938425853, -0.011811251139962096, -0.007987602747990635, -0.002048890497743193, -0.00885150342090267, 0.0006333090181152754, -0.002472620301349463, -0.005622150947239614, -0.011001743368675113, 0.009664860986902418, -0.02338533864010806, -0.010582054189673664, -0.0009436450683938489, -0.0024918113167406984, -0.022793772640892798, -0.0038749032250513372, -0.003739685248135537, 0.009442664229144235, 0.02293377372392627, 0.012480664256580698, -0.01901075028649883, 8.89693783595122e-05, -0.001869414682798445, 0.0008326444730327, -0.004892626007646896, 0.0028692182676212227, -0.004480101593972496, 0.015272744664533315, -0.009250347298199872, 0.0009732705913214969, -0.0054918343291827584, -0.01966676684975227, -0.0069016032984200925, 0.005703208775574314, 0.016092526537380344, 0.004516436479371768, 0.006694985876049263, 0.0036668168424985126, 0.0015669825557767694, -0.02822176943599013, -0.025176111744160724, -0.007758400009968804, -0.015057591659595066, 0.00021828630549665354, 0.001276775686921256, 0.011932459613047619, 0.0060192871508183456, 0.0037289161552368213, 0.011778243684416866, -0.016799813935014698, 0.0008437118083309953, 0.011019445217732616, -0.009102058368370533, -0.008025010645149832, 0.006838925428852326, -0.0073309189354805755, 0.0013350305956456427, 0.01812961845324582, 0.008893246506749273, 0.01468618884752994, 0.01741580617428963, -0.00763660573628099, -0.006870845569358722, -0.0077743920163452235, 0.0033355088655823324, 0.013988110952352235, 0.001685637249617115, 0.005496705080799739, 0.007525108262588697, 0.0206975565770131, 0.010376273848026906, -0.012803532627131173, 0.0029323681728575406, 0.03297605013166229, 0.008245038686717082, -0.0030626758536751167, -0.004057526208046351, 0.007124527255417322, 0.00520384356372408, 0.005659585594620047, -0.008044914490239145, 0.0035608416651547897, 0.01438653295955882, 0.0025005485633514484, -0.0013923241891227328, -0.016235037199274577, -0.0011961164901994766, 0.004599567505375772, 0.010875399691262357, 0.048151062292576416, -0.008578268514010083, 0.004000356794900583, -0.020648127385338184, 0.013308818175709553, -0.006714245191093418, -0.00296059499380598, -0.007093149692904972, -0.0013421271582883748, 0.0027351378067898384, -0.008653428885967639, -0.006382313517425143, -0.012580819616448928, 0.007296264828937996, -0.007596820744073954, 0.009153375783832294, -0.008936215558990207, 0.018864932924834422, -0.015374216326971626, -0.019975102145712336, 0.006349740868861702, 0.005264746044286563, -0.007670623241204884, 0.004037161008972516, 0.0017032859946912876, -0.0028788172828571545, 0.0021804317759873074, -0.009628659128413562, -0.0021209995903517117, -0.021815778449730625, 0.005934322946558434, 0.009485381554474696, 0.005755054416677082, 0.0030371019949492987, 0.005355742899818501, 0.004219895718091974, -0.010247796801134685, -0.012432806124705159, -0.002095308019617944, -0.024095460381798342, -0.0062727683921575675, 0.015663687830663103, -0.024617750869337617, -0.019571014808753437, 0.010594166886125758, -0.003145088834526589, -0.013051243611163938, 0.014271776274558948, 0.0026500333722561816, 0.00012764603637500715, 0.004145550828254764, 0.020304950361999214, -0.02012040297112524, -0.006387078014472851, -0.005583464136412417, -0.006884466491584363, 0.00829776758848725, -0.0032331532277794883, 0.002135104487755601, -0.005326542397373907, 0.005565097304010112, 0.01538323549887791, 0.007031692542159154, -0.0031743720537705826, 0.01714737583957408, -0.023344421303003675, 0.0022984897996839422, -0.007199051110908532, -0.0010894028668533516, -0.0062636110908344195, 0.0031531348168608933, 0.00457787736844084, 0.01014293627779012, -0.019862260761761952, -0.003657708467762122, -0.015223680532159237, -0.0055055897936559526, -0.022911465403064886, -0.015238793481817272, -0.009042589259068498, -0.001444540933352951, -0.010810762725247215, -0.025857736986248252, 0.005599783841689649, -0.01096248058221666, 0.009244844170467453, -0.017430669789667293, -0.0027075117586585823, 0.004904077936307885, 0.008756035169102894, 0.01880862938936779, 0.005015394624445712, 0.012251713718862686, 0.0043213107156933475, -0.011319428196509504, -0.0076551433817225656, 0.027294389313974328, -0.02938341019833403, 0.0026296526763135105, -0.0071259155864725815, 0.013182997997269729, 0.006296698551829358, -0.020171011742724607, -0.01189730970623085, -0.004040997991923613, -0.014193022855231469, 0.013541779907941712, 0.00996570019666497, -0.0005043474674187578, 0.0029009400563493114, 0.02199513132766132, -0.022900238829390122, 0.008100276658368112, -0.0019694954648541083, 0.006284646116689049, 0.016600944660198545, -0.005823832282458114, 0.0026813159895820726, -0.005525383466167395, 0.0158047098682025, -0.004891950842305082, -0.015014500374268817, 0.01765256436946078, 0.034953754051772166, -0.020137790521054317, 0.024160586594056583, 0.01251712289439478, -0.01431807846318638, 0.0010611354374771868, 0.00012082038437689976, -0.0025215320391377364, -0.00010519518307459274, -0.001074580895483413, 0.0006922641277680497, -0.013391683732551384, -0.014893681038186404, -0.0011323896994449626, -0.0038180360228522382, 0.0029057148895106077, 0.02314500286493628, 0.01373059863215342, -0.005938046690966041, -0.034806284420456086, -0.004160002500766093, -0.016244931019827623, -0.0228777120913921, -0.0009940714771718728, 0.02304493734601779, -0.013228005861061447, -0.0049054080714252615, -0.019697043096231125, 0.008343955730795369, -0.014530687465283477, -0.003746343822668727, 0.001290910993272292, -2.774839356274853e-05, 0.02214023481795888, 0.003414337859175525, -4.633557746587065e-06, -0.01054519472082807, 0.007626580368635369, -0.0011886171843706187, 0.005064228649256405, -0.010183343829118912, -0.00692241154496166, -0.0009684664348259657, -0.003334951674854471, -0.007802237395384466, -0.020777306885737114, 0.006105106976972839, -0.01264312023982545, 0.006100976610449093, 0.002045586477415164, -0.0022533381836030526, 0.023301362299379857, 0.025225572161439527, -0.010538177785799312, -0.011520412320170407, 0.0009849005757316342, -0.006650923545546703, 0.010826815361728484, -0.01060279558884514, -0.0027861435773531055, -0.016536502494159763, 0.022305887150969483, -0.005862024106595512, -0.01627966427833815, -0.008268086987377035, 0.0007804827160371664, 0.011413911453752324, 0.0014313523953213975, -0.01215447881891386, 0.018945144992021833, 0.0050462010936643854, -0.0008961075511475051, -0.0017285744738195594, 0.0035002962888309175, 0.0023851870310381638, 0.01687166517490842, -0.010408432588844658, 0.02385328175578734, 0.01559978727997039, 0.003554291669523435, -0.010263874319082131, 0.011333186336588497, -0.0019362241135730926, -0.016467477461253547, 0.008775182079975826, -0.006133181821944128, -0.025624412655939437, -0.026822179459669186, -0.002382851734816371, -0.009057599753771732, 0.015317571650015427, -0.010969927337447173, 0.021944964053723308, -0.0007064648236786795, 0.007063350327313335, 0.008054856514317177, -0.006922241229792447, 0.01927664513688858, 0.012186742462386458, -0.00902511540166251, 0.003226473163995551, -0.009430731073537507, 0.01782739021471602, 0.014957831421250633, -0.0031846860026067893, 0.011649381935485153, 0.01424326423791722, 0.0005245620942439175, -0.018276768330944007, -0.00479354586473919, 0.023519710097498717, 0.0013756483404348799, 0.0005249429715907226, -0.0011017777143674772, 0.0010153111342299642, 0.008965256247791481, -0.019633680296701535, 0.0019974365240233083, -0.003156632191943505, -0.00476395115236667, -0.001156544041719028, -0.0017323342918555667, 0.0034816310023973794, 0.014654927606621104, 0.01952521228342696, 0.009775206666869221, 0.004193082228667118, 0.01657610696224323, 0.0015460384577425713, -0.0070032015169638855, 0.00848495786725637, -0.009603211709490581, 0.006523769836751715, -0.0017414324554007035, 0.010527567861346884, 0.01166486251161142, -0.031802529316481004, -0.017367251162808916, -0.007916582817399542, 0.01596509042347138, -0.00508483971215651, 4.4116028797014675e-05, -0.028760660627340052, -0.0024572885897736216, 0.014647257268582119, -0.0038669551325764915, -0.00404710266017547, 0.00624159051149779, -0.009363667720299867, -0.012888731432093757, -0.013483787672982375, 0.010427438685567314, 0.011106729361995978, -0.008267963385115115, 0.003382133221553415, 0.00696012545271473, 0.007033587705769854, -0.007459341188939362, -0.001855444310696609, 0.00387952041077273, 0.007180094497912129, 0.021898015539783967, 0.0011905303703241517, -0.017324558313802373, -0.0015831231692544857, 0.006051465565143336, 0.02784481351604321, -0.0076213996939219, 0.014861937154658654, -0.009256405418189612, 0.0017471359357183389, -0.007703068278742925, -0.004234896974781134, 0.01764652031503694, 0.005397036894878834, 0.007678184476339994, 0.014134138786759558, -0.01225798855051295, 0.0017754560448169832, -0.004431880953757774, 0.008939499244738702, 0.0003377633294793428, -0.011849908088552082, -0.004644557410683543, 0.009970776785768942, -0.016079418015732445, -0.005340038058689496, 0.004732917776770519, 0.007888482432418069, 