{"conv_filters": [[[0.02989161210817694, -0.07573700796981078, -0.05783770748121326], [-0.02309801958958588, 0.054999222011480484, 0.02546124323781019], [-0.06846610881851925, 0.0077782102462516855, -0.04544317859713035]], [[-0.08805743349454465, 0.031903933151907905, -0.0802690295726725], [-0.07326592885534419, -0.043849382579332845, 0.014691696475523985], [0.06244791728591285, -0.02690157837519516, -0.08786146106835707]], [[0.02109314316090488, -0.019147853395923176, -0.04240008051923756], [-0.07173504875459306, 0.006603037080244565, -0.0944309155750416], [-0.07888277703933835, -0.07614812600621695, 0.057450233684134704]], [[0.19923956634319295, 0.10227042492218903, 0.010512709935694984], [0.11090869457806725, 0.09600898913545779, -0.04245118132273724], [0.1353404455949299, -0.003764232367769813, 0.02809345554278934]], [[0.06032403539877727, -0.09923415110679784, -0.10051701563950238], [-0.04618115852622893, 0.060153380656144916, -0.02792466578950108], [0.025433004482690383, 0.07186306580360872, 0.05138675841304899]], [[-0.032110115103214716, 0.05629550715654673, -0.07484157801550645], [-0.02735151070078859, -0.014552573348558712, -0.0543360782294264], [-0.036611526800153164, -0.0777089759742229, -0.012151186778337089]], [[0.0581236085985177, 0.1042882544581529, -0.059818721390744976], [-0.0060359522416086366, 0.06556453469232441, -0.073097634184441], [-0.06816448203774844, 0.017693758818679114, -0.09325018096121473]], [[0.10355508186496373, 0.049170404042402145, -0.03390014752626118], [0.0013357733079916692, -0.05805074959766219, -0.0708290144234679], [0.06844949161806191, 0.010863520402857636, -0.08014741634334867]]], "conv_biases": [-2.049776216156788e-06, 9.967642266063781e-07, -1.6056002314073327e-06, -0.004874718251565099, 0.0001189774064119725, -1.9676083780217535e-05, 0.0004287287811758477, 0.0012719545899690856], "dense_weights": [[-0.021625261080812495, -0.027719932681989867, -0.011780168010746512, -0.0033535420368241424, 0.032813001670185186, 0.0009186836713592835, 0.012858009617711143, -0.006860455221246127, -0.010473882666560658, 0.01004097453215517, 0.022027325036631233, 0.014516253580473993, 0.0019308242410755944, -0.03318552700937599, 0.020108845774274294, 0.017133067078194526, 0.000977551318036363, -0.0006047507138747216, 0.007790048948860167, -0.012901896297010149, 0.007040257312587467, -0.0044396017089657815, 0.0007594927593216096, 0.017544723289678484, 0.010835298693056045, -0.027877862782181156, 0.013814427996384663, -0.050633434438122356, 0.003286414458603244, 0.019698902225455728, 0.01596209443122689, 0.0016495412092508589, 0.0207089590950616, -0.011966988643979385, -0.056342109155062756, -0.01515009561079413, 0.0049976716716437575, 0.02109520070698532, 0.015286400592034306, -0.030803277431646896, 0.00872390578272949, -0.0039505316575137, -0.025487879479083323, -0.003440127039829406, 0.003445890165580113, -0.02790701553899671, -0.00609937858894983, -0.007443934050419865, 0.0007410362930947424, 0.005024989860391979, 0.02571832138515219, -0.015399130928114745, 0.017636225807176557, -0.0037349890063330866, 0.008721992245828907, 0.007186359874741165, -0.007308332077360666, -0.004975783307252409, 0.011547455096090188, 0.015579436764737198, 0.0002830653227758596, 0.0044010279877615376, -0.010903454716155874, -0.06394351475536889, -0.024504779723631364, 0.02322245661328856, 0.02737269969166288, 0.03820629402601546, -0.003454799850813217, -0.013109881466521258, 0.016027534518984535, -0.010197787518046801, -0.015821991548911386, -0.013795659625952379, -0.03877496096412635, 0.023828867193393416, 0.041143673310509464, -0.028404950380598874, 0.0063666124816003965, -0.020763884971767968, -0.006279874754701005, -0.00947979913064406, -0.03658743156457056, 0.008648357334678565, 0.016711566940925612, 0.017824374668077243, -0.011194166334969545, -0.004895132124930609, -0.011194410218766868, 0.007063479459900941, -0.0069939564103760204, -0.030037756128912376, -0.021610727553236415, -0.0190380152065678, -0.006940613516611186, -0.014878923308270335, -0.01223858919105179, 0.039381040960585076, 0.005674522263077152, -0.054140238127652, 0.010789446860647934, -0.0032524458848912485, -0.0023804875398065126, 0.005827465609351498, -0.012709989265070254, -0.022752634299014387, -0.004187682352248828, -0.08321731144198134, 0.013788167154742969, 0.004215127804672422, 0.006781920592005561, -0.006288285277161238, -0.020189773366615007, 0.0002875911245050526, 0.02871347969650218, -0.06768756529778522, -0.00012079737796293837, -0.02435889578514224, -0.011430722641171193, 0.0034338701732396764, 0.01855049500350725, -0.013627463127173558, -0.0028443224557543165, -0.08740167800949335, -0.01478010845305783, 0.016960265333915897, -0.013477073733410398, -0.02138677322597166, -0.0012429724541211222, 0.01584560267357126, 0.019564106644785566, -0.08260015860116356, 0.012267745276783603, 0.00191245612947178, -0.002180262318226004, 0.02908986187368444, -0.02347112572858084, -0.0065779644178835545, -0.0062285695196624205, -0.08878678565372575, 9.758211995398873e-05, 0.011844629369952807, -0.019453199345067698, -0.010050307440430643, 0.011845873877680787, 0.006871759691711534, -0.010357456657333107, -0.04320339431355388, 0.0022939490020673897, 0.003974018109570045, 0.01026254186915447, -0.016999733211564675, -0.022367767234880622, 0.0021622477920367963, 0.0023184982697939775, -0.06729409246027518, -0.004261139370923176, -0.03202610992573124, -0.0027810234723476142, -0.013051597659596278, -0.01952408695161756, -0.01236881037212653, -0.015612728670801062, 0.017331813536177083, 0.009978552787805064, 0.010132264099684637, -0.029552481906022464, -0.0035911804953077386, -0.016732397536613697, -0.024167368841873017, -0.0004720960246172049, 0.034021711339244566, -0.0043867279256956495, -0.010162149345976264, 0.0028193874061279824, -0.019335949913477812, -0.012850764150553433, 0.0008267595656435517, -0.013526928041799917, 0.05659808820188126, -0.031063561027250126, 0.005199737568255375, 0.014135201160386787, -0.0014672818960637182, 0.006002635882452097, -0.020739174824303555, -0.01126306585554938, 0.059586262621418896, -0.0015166623382032265, 0.00027128147471328773, 0.003197690399964599, -0.0017935562061963978, -0.004643508812567186, -0.0037034024456183224, 0.010753424457373074, -0.0010820080874590818, -0.010938116981411962, 0.015608656699717656, -0.005921004754431954, 0.027191107586113428, -0.013419234825317308, -0.0012861651995161923, 0.027777518049332955, 0.007074851904976516, 0.004765982495318614, 0.0035534642310567064, -0.007884019604861936, 0.015581202727676591, 0.005155648685177186, -0.005630574500962306, 0.030786392623237922, 0.007897889367269963, -0.020031321172731615, -0.010291683629191776, -0.01608470975977465, -0.00036737479126596785, -0.011563496394885726, -0.019106498007860268, 0.008182464230243009, -0.0093573271081316, -0.004295671477094328, 0.016538514494990542, -0.009002734598837091, 0.01390133998056125, 0.03194842702630561, 0.008478798507591295, 0.03427608973907472, 0.010282468639140957, 0.014523926139352378, 0.005308207114914793, 0.008850417777569336, -0.023532210523384854, -0.0005420509476978946, -0.0012414456621449514, -0.0008344927011124755, 0.001850991584462767, -0.03234285989251959, -0.0065482116484459965, 0.015860853348806783, -0.02039449075739244, -0.023083394224413228, 0.009572811879819667, -0.004332096045272249, 0.0004536954265862942, 0.004089895414201567, -0.00633399015765918, -0.03199943272905758, -0.024924574720691494, 0.030412172524053427, 0.00022268005112500354, -0.01952055001855835, 0.03264031706663307, 0.016447805701585105, 0.0100917480549791, 0.02125765837305852, -0.012263189122152704, 0.02374316545443226, -0.0035080043575550983, -0.01124587314423293, -0.001605723817809668, 0.006516191806720204, -0.010157498776838745, 0.01891909905047627, 0.021535101467199117, -0.029426758739292274, 0.009650569069976309, -0.01752440876179355, 0.023431339082824913, -0.0027722477997458106, 0.0267488022194418, 0.0005345491978978139, -0.003340278901868309, -0.011004369375275061, -0.0006385140097127571, 0.004445735962405388, -0.049472601829616325, -0.011054648908265225, -0.031639558509614425, 0.0010759353515961234, -0.01318539053924026, 0.013423264025267705, 0.021038124249126777, -0.019391757235736197, -0.02123499542372476, 0.0030823170855334495, -0.013042387459418901, 0.005105746249385273, -0.01001728709868413, 0.023986328831449643, -0.0062286257575943724, -0.006969364559076609, -0.01967973489248972, 0.016166528774431074, -0.01486725264377983, -0.010606790635259192, -0.039555521276490896, -0.002287943697060898, 0.012234302544352585, -0.011999722443922145, 0.015796066507392823, 0.0044873238225853745, 0.023152103794125703, -0.006048033503275272, 0.0001877594022046024, -0.0028039772499650413, -0.006202226646943373, 0.0037467525813120704, 0.03057240674040069, -0.005028270867676555, 0.007496520590447096, -0.0033361570331064557, 0.029039463804213045, -0.00961333464314676, -0.02452225215922519, 0.007756192190607875, 0.01447871114264453, 0.0005942673135061243, 0.016891719124727218, -0.00020488078285655538, -0.002674578420135236, -0.03417003015156419, -0.019303548711266032, -0.0010186987793375534, 0.032548323744120956, 0.011113485282478358, -0.0032918653769596472, -0.008189614623262377, 0.005939720036918403, 0.024133778700689643, 0.02526347482170745, 0.022185598056666696, 0.03971837085761382, -0.015091503291581022, 0.019105611927354358, 0.01127847942100049, 0.00440138002178665, -0.020228801711270478, -0.024395784149532224, -0.01328360285898718, 0.014187792702508693, 0.011063813661800547, -0.002325308581142212, -0.019932174210703507, -0.0075735767902620505, 0.003931100739642988, -0.011957627656399069, -0.0010268267863367195, -0.0334594396062608, -0.005359559227474949, 0.02290409796210819, 0.021743116039972688, 0.02095222676578366, 0.007242530503785645, -0.017046088230142403, -0.011422770342179277, -0.07566168619201824, 0.010690992377667546, -0.014475319671725106, 0.022320780845076785, 0.015170522353634652, 0.000840656709372273, 0.005926363062550996, 0.009480142373778522, -0.05541452600414429, -0.0008156014505246795, -0.012520283680492943, 0.0008491481431588153, -0.027864709376375713, -0.007339791673594167, -0.012909835094564538, 0.011024827785571817, -0.03570410532774395, 0.004316082520692765, 0.005782126021953362, 0.009050993062060782, -0.009628446362354468, 0.007858045243870947, 0.024946530973992513, -0.006414485858321246, -0.06879676637297885, 0.003749755308678934, 0.00451350443342782, -0.011441830262739414, -0.003081057139780707, 0.007145498538634555, -0.02338752862269279, -0.009371298836155485, -0.032759207511649374, -0.004804224291617759, -0.006120609693735187, 0.009365217671171497, 0.00489924153414755, 0.004328243675836843, -0.008944046327455303, 0.011921934997221384, -0.041450249657629286, -0.01602607056168965, -0.005220642918065952, -0.0006229694453441961, 0.001737838628551068, -0.002083253606806658, 0.019301675260266573, -0.009998105874513025, -0.029873865601328344, 0.006015403877767124, -0.008759083804565871, -0.012792854666141164, -0.00227622833895004, -0.00287069102609037, -0.011443569989042264, -0.003148529913993797, 0.025093671611892625, -0.0028201253608342866, 0.0038956198976325337, -0.018100606131541713, -0.0308742556921157, -0.015412497096204443, -0.0181697898290026, -0.018604360374075507, 0.03399007225752183, -0.024545133766242934, -0.027528843349186812, -0.01648060620567189, 0.01071078003929147, -0.010673538324558264, 0.00452819341112857, -0.005094473105091409, 0.06424068784364162, 0.017388494248934273, 0.00098558838473063, 0.008383851593236749, -0.024718862778565786, -0.015605876193834758, 0.014376035309830774, 0.006242826359976345, 0.0709718292987535, 0.027366234807153677, -0.012074866871374872, -0.017120485014044333, 0.0012449514099697426, -0.006126213605042894, 0.02491327178520561, -0.00018060466181908264, 0.0489873609116992, 0.0012987455023268648, 0.006859743973464123, -0.012303106337864323, -0.006031162702495704, -0.015022284867309684, 0.002870937190507259, 0.01053322313996644, 0.023237660502976917, 0.007453591754300704, -0.0016493060921954623, -0.017883856463337032, 0.023793013766758856, -0.00943735539954074, 0.005886731589158165, -0.029019518083449367, 0.0008647375873529047, 0.0007132956680529607, 0.016153466840753132, -0.005487275762697917, 0.035852889510629246, -0.019972608443441498, -0.02263910193156166, 0.03795209777338387, -0.027737175133589406, -0.02692696070889587, 0.007534313759893311, -0.024639214509787028, -0.03318161772994175, 0.024918181817932525, -0.01701794925292553, 0.004357377639355016, -0.017792647546183038, 0.004726894396423819, -0.005621138692197898, -0.00959339275088789, 0.027446661617691347, 0.00024614154741153755, -0.013284798879782959, -0.007293082224801063, 0.026070398087040727, 0.023991215207745623, 0.03024449419664407, 0.014493069507335381, -0.0025358391424735336, -0.028785096114776965, 0.013649544415514917, -0.006810238669971092, 0.002302216793133008, -0.0024568103488012047, -0.004149450763510323, -0.007544799431918579, -0.0007756546132759298, 0.01965202752331995, -0.011765742301415893, 0.028111994813900813, 0.05483648823574194, 0.019290570924551463, 0.011263486122345508, 0.009769751659301053, 0.003217165454641224, 0.022799126005983165, 0.012889679525184676, -0.00959349925168051, -0.002312874265268731, -0.008334962254280206, 0.012267947188858052, -0.007684249812894459, -0.013072981119635499, -0.0091605848014471, 0.021073147391270725, 0.003664471238713807, 0.013238717593667362, -0.016588872028218155, -0.008361207247016831, 0.009220139337335414, 0.0020122129425224804, 0.02240516138278038, 0.026237321691329186, 0.01955319134243639, -0.0045886797009219455, -0.009941357620976, -0.005468975260142051, -0.008352959094174649, 0.0066851970554542145, -0.008718938757654221, 0.011025330992248958, 0.012579680609062184, -0.025809697281440263, -0.011684363451779613, -0.014856608268642924, 0.011070593213249704, -0.016740176095908794, -0.003904423914794978, -0.03267057450769488, -0.010218936895664598, -0.0032294889477407387, 0.007811662135485728, -0.01938832753641134, 0.004086552692347227, 0.0021697893446339053, -0.0010992778550655115, -0.002224359493250448, -0.017572801511875197, 0.047711873356938876, -0.017688652707096512, -0.008830782241218967, 0.014964573130365765, -0.029894340915356078, 0.000871657984503459, 0.01864200838006807, 0.026749827963796644, 0.02304516987060044, -0.0034629527087364858, -0.011193190850874212, 0.013299425143595618, -0.01923508314476907, 0.009072021841025233, 0.013425789445389925, -0.002615148636908171, 0.03410775059443289, -0.039080505174593196, -0.01062770874547042, -0.0061025285101862945, 0.007088753163465757, -0.02748122709407847, -0.013835862207772652, 0.0010896841136531705, 0.019932303627088303, -0.009095321881974861, 0.017879938119896216, 0.002964151437940546, -0.013575285928318163, 0.005047880931719088, -0.023637483460274496, -0.008639167157814749, 0.004425055500163932, -0.04141428085430642, -0.0008821336043626197, 0.013480765617524983, 0.027205826514789068, -0.018332544183537077, -0.018160481136349296, -0.027788352590950357, -0.022072100469902628, 0.010193286744744633, 0.033909119455125855, -0.013550149756980932, -0.010888557140234977, -0.008602508909463057, 0.0056344082243218905, -0.00955168980729886, -0.01667030012687081, 0.00608817678530923, 0.03767438349036385, -0.022889492867059255, -0.002374071403483179, 0.015453014329159563, -0.004191391626269931, -0.013049368864946793, -0.002603855174266652, 0.005981607191379816, 0.012701378861491926, 0.0011559713028695818, 0.020550762321431354, -0.0029960109372143074, -0.03166908096928332, 0.0012501433636329538, -0.008362719426365135, 0.0071667558018302805, -0.003261329648980733, 0.0020825965666981835, -0.013027479937735923, 0.015425236264343558, 0.02262624900564588, -0.0008998551196793582, -0.0031307442722880345, 0.00019665488138480357, 0.01053883315501661, 0.0012676058701065888, -0.009880896998216846, 0.0244329198364123, -0.012360439923026633, -0.03139616560683898, -0.01825867092440738, -0.000230298470903078, -0.008486958383535565, -0.006576383949182982, 0.01294628406595048, 0.0064448285480251674, 0.029572989747023444, -0.03688757830468302, -0.038542921769929864, 0.0044712001725756385, -0.039030005962110405, -0.009763572616801433, 0.0057921132245557, -0.008794104324118692, 0.016363538957303487, -5.13040761859147e-05, -0.017013669365811883, 0.025141036369200207, -0.01065570681474945, 0.01844562416008029, -0.018132515714111255, -0.01325089723112123, -0.00474644139876276, 0.02162810955648865, 0.006794157747287853, -0.02454007377660306, -0.014374615225868581, 0.031011564858266283, -0.0044020811732106615, -0.012036363842921609, 0.01620564383362296, -0.002005454292287527, -0.01562356563617065, -0.01009687735977297, -0.006531339879845102, 0.002933676005056979, -0.01922696171680266, 0.007834455291899854, -0.028125134697140536, -0.011978352873117243, -0.008087964370029576, -0.007062806473872795, -0.009973531029614992, 0.011694855225972566, 0.015138875521220667, 0.018744279857786882, -0.009518119876459277, 0.00026713315584845916, 0.03904564097187619, 0.014124369259541912, -0.015692210773592834, -0.02332754144265023, 0.010258071577099116, 0.0406211268812116, -0.008449480127175259, 0.005599057904416349, 0.04728126682999321, 0.0008493783469595311, 0.00503490903931636, 0.00028346260864311616, 0.004042191029775937, -0.032166828376081105, -0.018990077228813955, -0.014881092002868305, 0.030674742307289487, -0.009257351582182057, -0.02940493379063596, -0.011691166957262349, 0.036721673765574864, -0.0017008713533953695, -0.009096387690704012, -0.008682248269570246, 0.03617848210525147, -0.0038192386038369756, 0.009622689209221193, -0.01080324212989308, 0.004415992213946591, 0.026033976606209232, 0.0003441672508998773, -0.008696595269056232, -0.02256408315385146, -0.010714882492273235, 0.0305646145838112, -0.004269575805922927, -0.0070680965103921065, 0.03872221072570363, -0.02490053348137179, -0.028223461466835027, -0.009810979347046219, 0.01650876591111064, 0.0003066114534863952, -0.005275177917324198, 0.020510191065688483, -0.04126220889873512, -0.00601552412302225, 0.014176775630105512, -0.013858144252058103, -0.0007676170986166603, 0.021384469609619625, 0.0008737041816873803, 0.007988509693505876, 0.011298629536756444, 0.03296019337942181, -0.019430864346627767, -0.009684774718642743, 0.022397766789353915, -0.006688829976499968, 0.0072159430804440965, 0.013557109157194012, 0.01495165311176489, -0.0024611696898150094, -0.02016744753298186, 0.046508261143539925, 0.0017549460785382712, -0.005688152528989458, -0.0076395345387640125, -0.008617041546571622, 0.005058458363926221, -0.0063398628523040025, 0.012734014102049695, 0.030214412090573097, 0.035622944862339655, 0.006595151045377466, 0.03341740561653569, 0.0014083174977528245, 0.01793348659648795, -0.013928877611627456, -8.230258389527527e-05, 0.02360343857943829, 0.005553521728740236, -0.015622588802549247, -0.018153586161944117, 0.005725838038509756, -0.029379805737524814, -0.008239982512780094, -0.016073994873578593, 0.02212073116572784, 0.0012563174785306624, -0.005324625374004596, -0.010148303111700337, 0.013006025553435921, 0.02165293506812032, -0.020537924110314396, -0.01100368208462935, 0.0035235534380888443, 0.0009139837857544828, 0.004521257522898867, -0.025483263187249045, -0.013994760218518107, 0.0017636637980169019, -0.01711947239425943, 0.006246766876882842, -0.029838333504404062, 0.014717272559027866, 0.006101839785770971, -0.01809828636227037, 0.020046884519815938, -0.02108973256918889, 0.0018194035870299355, 0.020279926896930554, -0.0031413470765109495, 0.02722315142192673, -0.032058482127451576, 0.005311788917448697, -0.011869699813740312, 0.0021038770196317672, 0.0028628479729396507, -0.021929257722534932, -0.008326365547619018, 0.023847527308902793, 0.018202842316231403, 0.012237358004850441, 0.03821956244144598, -0.020466976958093658, -0.010177197254584882, -0.002931498978996216, 0.04186062600085956, -0.006521467633273112, -0.002089777409196222, 0.004500800243878044, -0.009012802276339245, 0.0038876075065464926, 0.015286171012527777, 0.0021117697849831448, 0.010291950770823075, 0.0028864120795661316, -0.0020019764070647265, -0.005431405182406572, -0.01777273033766819, 0.0023219267294236202, -0.018987077992256525, -0.03678103109030493, -0.024933304403728977, -0.007517090075896781, 0.005138005508026361, -0.00015789046180959097, 0.0029989519931134753, 0.00860967044957246, 0.01006309671050708, -0.010326126476231665, -0.01088037649597121, 0.008709874913716678, 0.0275868922902306, 0.002059197411304446, 0.025871641317845653, 0.005087853927937768, -0.015307575626254928, -0.012349985086302546, -0.03611555852314583, -0.0002721616273705179, 0.017497461772470344, 0.008611648516702087, 0.016358880387984213, -0.006065209845755233, 0.003979013880752754, -0.01823758619250977, -0.024737711542441806, -0.03417618942925294, -0.020855280283250812, -0.015419020211100727, 0.0015762054893412006, 0.002224130516746449, 0.0005355153497261611, -0.021434153927360342, -0.011914583629235566, -0.0069107284624140295, -0.01760779351929309, 0.028464406348671856, 0.014661383322557368, -0.02285285877752142, -0.01013622226118898, -0.042221225227759264, -0.015908062649048142, -0.010531616541649844, -0.01722778946205934, -0.009680614107755024, -0.02069865537991515, 0.008745132971438465, -0.002332974183858428, 0.051422251061591304, 0.004070309936001603, 0.0027939227928051487, -0.006432218108388469, 0.009585447382246388, -0.0120246077454201, 0.03290144775960789, -0.0013601148812585908, 0.0009262315258959348, 0.001485847281993523, -0.008462865250876058, 0.022915200666468686, -0.044917482548891885, -0.00787639577678384, 0.016366018982870902, 0.005337547411399741, -0.018601416161865957, 0.007671307432683525, 0.011505956565939321, 0.018354378751515948, 0.02723103676883963, 0.0016698129943444025, -0.004516088063247189, 0.0004441765528577963, -0.0018781947505564947, -0.04961814851344322, 0.0008341424503550795, 0.0357562088215576, 0.028197339350847977, 0.019173323941722418, -0.003024067329954394, 0.0012280553994705448, 0.011012926420948227, -0.023043547915710758, -0.030547732761825184, 0.006406022842652172, -0.0063726630797057504, 0.02021879124688781, 0.02239283942444092, -0.01797381022126184, -0.019327581789067814, -0.03923117798728789, -0.028481115162185922, -0.01048056426621377, -0.000893791661010962, -0.016044605749549534, 0.0023567844257569724, 0.016511054482161513, 0.009231828202536837, -0.020451365268687793, -0.007504394835985688, 0.005073435069958318, 0.0012986414106571965, 0.003403897637926176, 0.03253457769955912, -0.0022837059831421337, -0.02989068567442719, -0.00034983582639665917, 0.03092909441609132, -0.022176265978160765, 0.02262799722006509, -0.008185985318426632, 0.025107230824874135, 0.01630576761434469, -0.010655384007700242, 0.025268892148238457, 0.006370023687689289, 0.01529041083301536, 0.013494001920462035, 0.009939790821715162, 0.012835432545997338, -0.011215363186179814, 0.015796474703870918, 0.042479158509965316, 0.0144218559055549, 0.009705840943133143, 0.01198607729822605, 0.006136300867413431, 0.010555537608750285, -0.01633640393094829, 0.004022866558513946, 0.018358351907487094, 0.01742527633722432, 0.0036434063621640592, 0.012488029620997501, -0.001529410004725831, 0.013756347879380503, -0.006923200193023589, -0.007863416791435311, 0.0043449697916752425, -0.02009026107596444, 0.016722145087725977, -0.011289661917021082, 0.011721858616290506, -0.014092871426830099, 0.01327491542925936, -0.006392202611609085, -0.022944494764664907, 0.03154772823760708, -0.0029536543182872364, -0.02280211287829681, -0.00018617898658819347, 0.0033198339234395443, -0.01033802959139471, 0.03998846021372043, -0.00919941452583061, 0.025901250903295932, -0.024086486522127304, 0.03529146750532577, -0.03542739932728124, 0.03383590303791181, 0.006825454653206765, 0.02087603948589447, -0.00823201696155972, 0.00519349108728456, 0.03805375184126146, -0.03128374762061743, -0.012970414190495988, 0.004528401678564299, 0.00865839398938199, -0.02277415056272397, -0.0040290453949295, -0.008002540098820643, 0.0120348077938602, 0.029719859871788688, 0.009251047025225468, 0.009320767043447009, 0.014927957944511449, -0.02309486229901039, 0.0159495074936474, -0.018948005369879697, -0.03329208842427114, 0.0038678651008311, -0.014522168283589949, 0.009361012830917035, -0.01573502558246739, -0.006037908421041086, 0.01594335718369529, 0.018363360926378674, -0.003661360402640919, 0.006979175096690504, -0.005932821320265472, 0.00948320848635649, 0.0024428278312548742, 0.001841792410751677, 0.008645884298028594, 0.027703730470253252, -0.028053925910922657, -0.012448406484452515, -0.006548998109309397, 0.007166107373281141, 0.018444235938844554, 0.0038932447931356033, -0.05012517698895913, 0.028027041495630914, 0.002542724934505962, -0.03264767334144879, -0.008005937993517563, 0.02083830467565594, -0.02030691341683956, 0.02455637910535295, -0.006805095530503368, -0.019635800912598096, 0.0004498905941917083, 0.0031244580393139905, -0.021794538931089565, -0.012584558754190097, 0.007886360442592033, 0.006942638218497585, 0.03165586962904313, -0.015582159450181305, -0.020907093552966438, -0.006986402630808396, -0.004261088524815468, 0.009785492841705741, -0.011664114627586809, -0.0038246159840960954, 0.040179552340528106, -0.020404356607363665, -0.004290565182986478, 0.020684051422964943, -0.017366063131475935, 0.0005688867202201361, -0.01527543349178544, 0.036548116787152835, 0.03369011723526887, 0.0008551362196884977, 0.00639291435574421, 0.0007158233831276099, 0.004518749805613643, 0.033033866605418086, -0.0022741100454815215, 0.0036045048529455403, 0.0007632099996887581, 0.022564950484005763, 0.012278734939180809, -0.019039509418664377, 0.011088562562064455, 0.011412341837479962, 0.008528667187318739, -0.028096592006140505, -0.01573843879340347, 0.005152878722429764, 0.0044636274851623916, 0.0008491126941918335, 0.019046790367720036, -0.030887813954618773, 0.002966730929694584, 0.005911613105732073, -0.03760482907719801, 0.013709845275184995, -0.010890585366213562, -0.02343336708234089, 0.023989905502850545, 0.006691425558671585, -0.005910596213104536, 0.018162932704333296, -0.021236196466451238, 0.027145247623663365, 0.016738292433189736, -0.005671043362269137, 0.015445822180114904, -0.009914063617263727, -0.034540697841163, -0.011610984900135624, -0.041466544719227304, 0.0006516280513605705, 0.008283138191580837, 0.01808100707822748, -0.0030599906675862457, 0.010625124730956644, 0.01915130457928744, 0.03593855893160744, 0.024625424086964835, -0.02826144644261686, 0.0017859615520442072, -0.012947232749707552, -0.00790533617282083, -0.030018940449938872, -0.006178257979290131, -0.01637899174035643, -0.01076640705776019, -0.023339218218847806, -0.010979643630623455, 0.01838869218738166, 0.0036917567491345647, -0.016895635608046786, 0.025828588335436782, -0.008069573525339283, 0.07421561907966086, -0.001208797453677747, 0.0006299513872817668, 0.015914361106361335, 0.006773327400491868, 0.016680606346943305, -0.028613626782531047, -0.005467172876028571, 0.009054903955406009, 0.012790836753989116, -0.011577170837714298, 0.003893636133242444, 0.021717315278544633, -0.01831714783595283, -0.03331573361972883, -0.006375744820781628, 0.01070322124076006, 0.022799111345276814, -0.021252105299218404, -0.041487007105923165, 0.03212043391277127, 0.02072539074700227, 0.0036747355661292187, -0.006957106990177309, -0.02268927806317813, 0.042225033684884686, -0.001994974131009363, 0.0020021066754698446, 0.005128985933604285, -0.01613143449664447, -0.004877404964911904, 0.014615494410145353, -0.06162914179708451, -0.017616971113384058, 0.015812210213947263, -0.023803234158649676, 0.031438597342435974, 0.01982271183708156, -0.0069880819463333, -0.012477398939839766, -0.049862968236182456, -0.0025975343904855158, -0.0119708990208101, -0.00918844613975872, 0.022647935378292985, -0.007560945706814357, -0.00665937803996792, 0.003217939716447973, -0.03118629468837726, -0.016823734079932116, -0.011220353899501443, 0.01280468992480156, -0.01762402920324268, -0.014896889828849692, -0.01919613249387254, -0.0150507339799154, -0.007434093140873795, 0.004536632913784706, 0.0220728091742809, -0.0010757410573798635, -0.025559115444538122, -0.018127619788302667, -0.015592020959462261, 0.00011764650450497066, 0.006057729054703597, 0.023640953046316252, 0.01929245771595338, -0.010525775322193183, 0.0005660527912733852, 0.009009549757033228, 0.017390787915555362, 0.010821621527392274, 0.02974737876475121, -0.005700711998907029, 0.011468144026392043, -0.020843533285290143, -0.013417622281945185, -0.0072387610379495045, 0.013855034477077503, 0.002619580608559027, -0.009971103107295017, 0.005912285318708026, 0.0012978124476988576, 0.006558065036773344, -0.006595830010864473, 0.010246873166789008, 0.008073853995829383, 0.006838149113042864, -0.03872704431640322, 0.027486245897929768, -0.013947255446321674, -0.021717364245958024, 0.008192679037783205, -0.017947110875152727, 0.0019215081153391895, -0.010358480108807666, 0.0016352742043271424, 0.02902772633788055, -0.02422222352208274, -0.020719633635681536, -0.01566364418388381, -0.009331349516034126, -0.027851047384941357, -0.03680539833027967, -0.043903260255821246, 0.01706370456996033, -0.0003769765723946552, 0.005577142514867247, 0.0039860029013512556, 0.003541142565410793, -0.005926786652807041, 0.007143623565191762, -0.025950175217290365, 0.026211126078823463, -0.0319967779508836, -0.024092093895272594, 0.00728172762983864, -0.0010539684138193067, 0.03785084562454551, -0.016784653559503294, 0.002750612825026563, -0.01755626013118564, 0.009054432831086914, -0.03290245158691947, -0.02086378389093766, 0.002573442347315146, 0.016205859578746182, -0.010674270693695313, 0.0229199802657584, 0.003143787448299055, 0.021347088077057104, -0.003973881458186711, -0.0037854953958463486, 0.01990059169945009, 0.005981017180141861, 0.016912236357786208, -0.016536354062083737, 0.003018676513424407, -0.007566647876529771, -0.019946405541551672, 0.010341239283966543, -0.004105737482401576, -0.02405828205855918, 0.002499709717868529, -0.025306112901084834, -0.0140306825449442, 0.032273148715161265, 0.0022105716894381747, -0.0014532523180289642, 0.012982904514341255, 0.008403035993743776, 0.01919687503177636, -0.020255860178224335, 0.006322162640968267, 0.01255578569916274, 0.005155194410658006, 0.000160916370216658, -0.005869689383483849, -0.013352114256186579, -0.0042470323285079105, -0.05125974645459543, -0.012409288406523625, -0.02040179946890153, -0.01719428742636369, -0.003730988474123909, 0.008478116608964435, 0.007902622710083155, 0.02867047636822615, 0.018877533401013374, 0.005531622484873396, -0.008725530497380118, -0.014649312702249496, -0.0048392164603932464, -0.0004279132374336898, 0.025175943291681664, 0.029821192284563845, 0.03976885711608072, 0.004320340188028722, -0.02975207464610134, 0.001779022257826811, 0.005851043028272999, 0.012529389927388331, 0.00981245777287699, -0.01985434487281745, 0.010669911549546038, -0.018926370516308067, -0.014059106257838858, -0.007488351012185072, -0.0003109304648279165, -0.007727335900034485, 0.017722508977157672, 0.022207910804947963, 0.02512308573218463, -0.007708667588528299, 0.011425316510039106, 0.005355231722740539, -0.010566739355538179, 0.01717084014951118, -0.011804686606056367, 0.03437798520724511, -0.03176745565499529, 0.0032178684303376124, 0.01782395540150304, -0.014497167329150799, 0.02287618777383541, 0.02111513550674218, -0.00967942982436639, 0.0008259160682820461, -0.06829781990096305, 0.0010224047557569628, -0.00027602339834149024, -0.019793024682948912, -0.024649426281593348, -0.006941156255633444, 0.0012473742235450086, 0.03525669028817919, -0.06958748090209879, -0.030438666762766575, 0.01709845801888391, -0.012556303784604171, 0.02388713880091136, -0.02465627105269191, -0.030820245530388778, 0.02987581235662743, -0.04763554776517445, 0.012363685091866087, 0.019919775959477876, -0.002814187262056834, -0.021702972373753526, -0.010370522669208557, 0.013991501833766963, -0.03343543836297748, -0.010035940976060904, -0.004089093674432522, -0.008818569350893018, -0.004915763651031713, 0.006726946851430355, 0.0072716845445811385, -0.016349736166239724, 0.00488776285294534, 0.014582892479308647, -0.006826807651504476, -0.0008528373619585623, -0.01664581854413582, -0.023725440021409288, -0.032227015049735165, -0.023074637910881476, 0.02629522627628931, 0.0061025854395743975, 0.00932559597192902, 0.00023525749284386977, 0.0006352886107653852, -0.012656905274340423, 0.002365406433979508, 0.002270002121284567, -0.0008125049211732888, 0.03453237784625216, 0.02281386252939865, 0.010059028087141242, 0.003226353676315946, 0.02412826260033222, -0.004251220722252062, -0.0008659864438037006, 0.001947776096401025, 0.008541730093547672, 0.00837818758459579, 0.009206076898215333, 0.00940452139739577, -0.011816589942545043, 0.0062261909233002274, -0.05097292406875816, -0.02931070395642835, -0.00430049588207176, -0.010914028700919506, -0.035915240243705536, -0.005607250750743167, 0.019592155883530495, 0.00325335553832509, -0.005582999081167616, 0.004051969082083026, -0.03267809785629924, -0.014531487366933665, 0.0074641046518771435, 0.009985870010704268, 0.013915204161474291, 0.021645904465452472, 0.011723523823103776, -0.015907932800854407, -0.08141144111644764, -0.03918667788278971, -0.016577651838351536, 0.03174615378112643, 0.009512431546398716, -0.011347700749025913, -0.01973523211638074, 0.00742058227883883, -0.031029759201319475, 0.005175338080848711, -0.0022544885727660293, -0.026136225281078007, 0.013126578988121014, -0.008265378863462092, -0.03055504457005942, 0.034296357755111355, -0.015448821594446532, 0.020665832697725484, -0.01883709022239194, 0.008904251898079559, -0.011393147975160802, -0.002239460681972778, 0.044220801343298685, 0.005904297330725398, 0.00989395808587685, -0.026185149639459636, -0.0041799093022785875, 0.025317219735801137, -0.019089699120774784, -0.0061536704020870485, -0.005307294858069831, 0.03000414577631442, 0.01852817748526916, -0.016828381499751716, -0.02520661516195698, -0.006328897818399675, -0.017851786612433557, -0.009713185898944878, 0.02187820003404276, -0.003764946373614737, 0.033909615810106125, -0.025760861877325004, -0.01603127286378447, -0.008470805001268877, -0.010681128547461203, 0.008853659938775713, -0.015909721263779455, -0.0038770634035036754, 0.00090587455170721, -0.016308784825930497, 0.007858660587667323, -0.006882987222817278, -0.026073925233488168, -0.005912922793310212, 0.002245876210796741, -0.008731713358853824, -0.010565279323942372, 0.002906388008162199, 0.006254780234063029, -0.02018259524454428, 0.014210854036508253, -0.009580318279947694, -0.027954662212415597, -0.005357172849163057, -0.016396663548443217, 0.029523668852572512, 0.012222423144983584, -0.013409152985887334, 0.001538130577157825, -0.008710202887801192, 0.0192215572918407, -0.036498822368296636, 0.013000087750468164, 0.02629404472685967, 0.0005382158386283318, -0.0031772470258086822, -0.004178468141871123, -0.008388981365223737, -0.011274634863041836, 0.017156992458643737, -0.020088038329086972, 0.004706141772266853, -0.016244525683894832, 0.004093769480944835, -0.014670265228603612, -0.01899632303631481, -0.01664885511887458, 0.023086695326536892, 0.03959971044202466, 0.014869836830771529, -0.004408597937643007, 0.012391880336824463, 0.02186290504059012, 0.030073622677989846, 0.00873260314533532, -0.00018115765341398388, -0.004885640236471439, 0.011841512975806245, 0.01051704447140251, -0.005966093440161123, -0.0022569849475252233, -0.003814643336374313, -0.001184305076181796, -0.025328367763065875, -0.007005888309301132, -0.010210311752434675, 0.002614445527608823, 0.004820409689362368, -0.006766077569878836, 0.0080310738623964, 0.032357288389356656, 0.008259437047975068, -0.029849695245436736, -0.04312511638199779, 0.004845770940042495, -0.032284784652796834, 0.0044324778760696385, -0.0010557013816076444, 0.014737732606016456, -0.0014583058184389752, -0.010795170961593886, 0.0013076334080349382, -0.022544175020811512, 0.0055817449523556505, 0.022753464383176502, -0.007086378622766599, 0.010475335439889958, -0.014013713673223484, 0.011877332871088551, -0.009030114079505507, -0.012662493107840674, -0.0036543119712154296, -0.022600132211386074, -0.0016980742921568926, 0.0037290608206204724, -0.014023642591216846, -0.0001943773911250355, -0.0027549938642074737, -0.010698293596030762, -0.006629387836058483, 0.019852806668992293, -0.005564706632898703, 0.03029955835350578, 0.009065817280803423, 0.005301663523672636, 0.0058909658274710185, 0.021919662504626403, -0.004264961925705892, 0.029353922012611215, 0.008940265729875427, 0.012855144327231893, 0.024374171821533966, -0.007471327875993631, -0.006495121659395962, 0.06187840641238463, -0.007777234614773959, 0.006578300428811497, -0.023746852512618474, -0.02361127319481095, -0.005419496500754451, -0.03703378420826239, 0.0042603202664857715, 0.021044504702064974, 0.004177399246501016, -0.0021220514342763486, -0.022304983444120328, -0.00012414485085104348, 0.0030091415034800006, -0.04980834293591323, 0.048660163893177476, -0.004366069120314668, -0.012381387839728069, 0.013168189171423036, -0.025638356915024647, -0.004446956908441608, -0.009578493485814726, -0.030516143028966578, -0.005969664708305895, 0.03511701193103093, 0.02093943070141792, -0.028693929066096194, -0.023685054293416226, -0.01832968330015457, 0.006289899574074617, -0.026422645877674573, -0.0001397806021611517, -0.03506296069976294, -0.004948112779221294, -0.009310551627941383, 0.012315937818293574, -0.01983321545811563, 0.018716202109489783, 0.012307937219926048, 0.023072705733963753, 0.018139132572699567, -0.006252055175416625, -0.005443767910558447, -0.0020791431276601614, -0.0009149221629411068, -0.014628429103301541, 0.022566577754925356, 0.004565928478515684, 0.013396954934375161, 0.0002688792154923628, 0.010729270243734752, 0.01898450109891808, 0.0097390797860422, 0.011271038571124246, 0.014418284522825196, 0.0024726303630624134, 0.02249817311461856, -0.004467200324889803, -0.012678884692978324, 0.016504539876655483, 0.01523736470890288, -0.019038752692054923, 0.04102305227876737, 0.001689067301362408, 0.003719160787433291, 0.00022627385910022066, 0.017737095934158422, -0.0005790388916738641, -0.03802356622692293, -0.010507660650231856, 0.024829379979125963, -0.021708702476908873, 0.0032855981824172773, -0.022206546500357853, -0.015157537319246541, 0.011409733951143548, -0.044632966933900155, -0.01693844002420115, -0.017491659214354423, -0.008525787324028753, 0.004404428363118771, 0.033179527564962404, 0.005591801531333281, 0.004585235201522866, -0.0034111077237146156, -0.013155244239188919, -0.08521459915257869, -0.008193765976824158, 0.0204018609457996, -0.02959181058551436, -0.0033606673661542544, -0.027671253844833033, 0.005821901176435065, -0.0019778606473164003, -0.061210252292178614, 0.009007280071076842, 0.02185972743687541, 0.014532718772577169, -0.02181074599218135, -0.012025516885351665, 0.0013841211196357623, 0.0006133157885123566, -0.08001198312120096, 0.016457590189094547, 0.004797685867251172, 0.011650717996177774, -0.020550519994605134, -0.006886587916009986, 0.014674232689625876, -0.0019411167321701395, -0.03193347477723764, -0.010549810517974878, -0.04631107563044004, 0.021850560674098345, 0.0027032279313037528, -0.019787556154465567, -0.0008894806683426799, 0.005363138752692277, 0.00562545362370675, 0.003128585269034605, -0.01660475269622097, -0.034189162637730225, -0.02077860261498301, -0.002094813012650214, 0.0017736917118520992, -0.013397506966775089, -0.012892544466246459, -0.03613975879666084, -0.017159240499861297, 0.016857291549441353, -0.0029897313737911376, -0.041596857732730017, 0.012589736777224886, 0.003872479305006557, 0.03889516418332418, -0.011723500249278235, -0.0026928565688151985, -0.020359663871294082, 0.016299304441473667, -0.018043482275293007, -0.031394046499043884, -0.028461518570328415, -0.01690287340663245, 0.005241483617668449, 0.021698045330610462, 0.02491339530406559, -0.006576797638581183, 0.03765028829176746, -0.009331266125349203, 0.008189603629611221, 0.007000780739635063, 0.0004523994427199537, 0.01323514033501409, 0.01625554720373976, -0.005440594997988863, -0.008955157540434461, -2.3446229976372424e-05, 0.011392540779714924, 0.019947867693724832, 0.00518219083005525, 0.032234255604414994, -0.0031091001234066938, 0.012253644681636934, 0.0037457632881707868, 0.026363266100406475, 0.03292657102753331, -0.020407262526544647, -0.01279375662441009, 0.0017167254120616234, 0.007867041709215521, 0.02874196404764341, 0.035235632112138746, 0.0022671652206234356, -0.01891513880425058, 0.009591197682514405, -0.00505019968074641, 0.019852641421521953, 0.0033578549513204013, 0.005042619076967746, 0.01715401168497104, -0.0018992196482217304, 0.0013197750692474416, 0.0630997553460144, -0.0067593918281960985, 0.004062416408180615, -0.005719275396113147, 0.012091859710331302, 0.040401624914105976, -0.018074377146104995, -0.014920170335684272, 0.008726310333731419, 0.008745067495058094, -0.03557421200704933, 0.03534412991255417, -0.014573412886262774, 0.007285772320134245, 0.0072076978284940285, -0.014748973556026763, -0.06862755602088313, -0.019829764596710646, 0.001028003142232769, 0.0014619008775868404, 0.019881348219921085, -0.0019637904361321, -0.00036984632154700637, 0.014720449068237194, -0.07628497608861645, 0.0006291554213833328, 0.007561547831746129, -0.008145848102764903, 0.0014122333658517718, 0.031119751134829024, -0.0009721133412021568, -0.015353679559275307, -0.03886527217320656, -0.019648364710637127, 0.006277631100300066, 0.005645045600448993, -0.011654018008526992, 0.011387134902852673, 0.02054264284017752, 0.03603946928284972, -0.012483697792733686, -0.0162822749071226, 0.017497805663197016, 0.03284321101362574, -0.011532614238803023, -0.024375192478859362, 0.01365890352458289, -0.009798801495394962, -0.014802653437759005, 0.01175108123885149, 0.022117563395525546, 0.0058178645178882955, 0.004690255768977958, -0.00045501532368944907, 0.0037028821581607005, 0.010863458438490113, -0.0065319589451712946, -0.019842794372669347, -0.016017342289017394, -0.012467916124168423, -0.004093478931795352, -0.005659758990668368, 0.026748095520600274, -0.00789815486620641, -0.03182175830938111, -0.01071489012958188, 0.015007563587105787, 0.005761904268348384, -0.010505033480381525, 0.008768331398855054, -0.002508055531566477, 0.018216203917615553, -0.03574298811886267, -0.01968771668385259, -0.005819062363552971, -0.017797298449819733, -0.01379978727198647, -0.02903875672503098, 0.013595602616184034, -0.004970714039528703, -0.044071522929450345, -0.011744679026985585, -0.03684525774075897, -0.034413584871153945, -0.00014209265016978614, -0.0016549234495356817, -0.022708050885436582, -0.0037322930060435743, -0.0069308597910925415, -0.022245783251598372, -0.0018578235985620617, 0.007381284291401257, -0.002811929512866314, -0.007905991890607273, 0.015024113717529219, -0.024614417777345327, 0.017834144222621223, -0.028573261926953475, 0.011829333458140405, -0.004343324299093861, -0.0012539035245361905, -0.008534414993420439, -0.003509863718965125, -0.008297797956092994, -0.024483591865912303, -0.018407898051524058, 0.021720338876057982, 0.004399484883857502, 0.007713421126147196, -0.023287172318843717, -0.023266314563245637, 0.004007247101968253, 0.011716740789792672, 0.002215457530771613, -0.012569684931738968, 0.009333067706952594, 0.019265593722129812, -0.0066997643872490015, 0.013032964428593861, 0.010565594728986098, 0.009248152562958804, 0.023770284313218246, -0.008264757443249157, 0.005165913261360792, -0.008837457541102704, -0.02991289359069423, 0.02596542255277678, -0.02236518835323116, 0.010274848259326431, -0.014351229670611716, 0.029325907239209727, -0.025305847224648653, -0.0015341705162251877, -0.012169372405863186, -0.008325064402356105, 0.0022882447022226425, 0.014500111691226955, -0.005608202889311786, 0.01618969982006481, -0.016770778757201087, -0.02349219912657943, -0.011317068992370328, 0.008976195352543284, -0.006663940501075523, 0.017468848496679085, -0.03524019630883915, -0.002276126251639573, -0.004477500572111778, -0.006932477112456338, -0.007209701003492403, -0.012948079109920662, 0.008256598855882567, 0.002919511015741119, 0.023350816089584073, -0.015687998359677078, -0.009388869500018911, 0.0012363486745799951, 0.003871643781878236, 0.018887765380184628, 0.0006301629819526587, -0.0384474813092906, 0.03805941803246872, -0.006840583765717285, -0.026671871709804073, -0.0038414340271234132, 0.0195778045893626, 0.004624061790779639, -0.02275286680203785, -0.016526018803513, -0.008833135466584596, 0.020899382812665537, -0.013914555948135374, -0.02132705619565718, -0.011749286490437738, 0.025490329051721817, -0.0035895426248140614, -0.035437947136201436, -0.019279946166284454, -0.012931874937279183, 0.013924786718115386, 0.01243150864898548, 0.03739508795239053, -0.007499530884520238, 0.014306088794745849, -0.028201067793563066, -0.006510045355360911, -0.010313205622394614, -0.0006738318568041627, -0.016644432321711176, -0.03974698202930272, -0.011013009304782453, -0.015585771766077287, -0.037190652160585, -0.03050420685343659, 0.0023709509725868463, -0.01520024872489018, -0.010278825601323533, -0.00397419381952199, 0.032837744491775345, 0.03161263508177464, -0.018528178350423623, 0.03904497981291206, -0.005665060195441643, -0.016892613812323657, -0.022042145849801603, 0.013714593843535452, -0.010667615195687711, 0.0029932691345060506, -0.030822214093643004, 0.023905541463122598, -0.0031015625014395426, 0.0026694933820634974, -0.0062210996752677305, 0.010833664629874288, -0.01152094693885915, -0.0007144771149848579, -0.01143766330685308, 0.0026016425576894987, -0.0007784590592220413, -0.012711591414188417, 0.025883424435139066, -0.008632506315415418, 0.0040950713688184155, -0.006395637646075818, -0.05747583255228091, -0.025165865545243252, -0.014073239803515167, -0.013181453577436029, 0.007099196998606583, 0.05441944589876845, -0.032921352788427234, -0.005991064510342902, -0.008970220132625922, -0.04753943880668678, -0.034146407313942084, 0.010921283977486667, -0.002278431852382698, 0.01140795990159171, -0.0012003664087447234, -0.01896259957273221, 0.000545767434165932, 0.005685852242491109, -0.03971626411222548, 0.0045680266128426735, 0.01887273561705321, 0.007908274868653168, -0.005614708839605996, -0.02360006157262656, 0.023777426369003502, 0.03259304569280532, -0.016119695498315243, 0.00952279713516041, 0.017663681194515207, -0.0055177715727337635, -0.02014956676957502, -0.012534766694090281, -0.006106812040012091, -0.015029771838367477, -0.0031660610147383143, -0.0015251082781832545, -0.02022861441517196, 0.022553061484274647, -0.003375755608640471, 0.025316665529489912, -0.02989653810794972, 0.015673718973390115, -0.006636439571743826, -0.007179353529998166, 0.01367727889439302, -0.004214526498750275, -0.0456947859057741, -0.0047411247293061825, 0.01603562039513095, -0.015830120654558025, 0.00013518305083042275, 0.008198034167470286, 0.020775167299000138, -0.011434037719719703, -0.012475790417565554, -0.0019350569233749712, -0.033733245584059754, -0.00787768082558308, -0.015338322427904658, -0.032033023740376164, 0.013728338663678332, -0.03125105139693139, 0.014990150643858974, -0.00020955163346854093, -0.01948997757461321, -0.014156613920002932, -0.008164475964340822, -0.023722719231207556, -0.027322359874388583, -0.02254186046350841, -0.006934672578583357, -0.011769848770760594, -0.01344695757788944, 0.00013756211828148618, 0.0004108748464918264, -0.037370893347898566, 0.009718416790883333, -0.01583803065104055, 0.011080580780002656, -0.005926840853333213, -0.04434774645319606, -0.02310250568778533, 0.015780744765180026, 0.004775158109393106, 0.014501612622437089, 0.016073212270698804, 0.00477702187848219, -0.00246886336600812, -0.026531741365936282, 0.004771265128952464, -0.009599826730045074, -0.01394258584205483, -0.004051133502995879, -0.01906113151858064, -0.006569505685941446, -0.0067014501806712526, -0.07293223388543893, 0.012735418150080141, -0.007979687598804594, 0.006943079311414242, -0.020926196040983374, -0.0010603819959093656, -0.019595036734751773, 0.00010424902847095605, -0.013530824629824486, 0.003987377596415545, -0.0015547583515909118, -0.019274321383854882, 0.0005347670235274963, -0.029652812237591142, 0.0001072015325923631, 0.0012070804185431393, 0.04525682645189388, 0.024804775345422983, -0.018073958461273885, 0.0174037747802712, 0.015204301343683741, 0.05265878291973902, -0.009688776060750994, 0.00925564334796944, 0.05629050238565257, -0.036665732595184866, 0.02271899969016015, 0.013639583004979815, 0.028539152558685065, -0.01010340337435289, -0.006938167976384069, 0.0050349024943184195, 0.023197752455757236, -0.022677987711380646, -0.028979606495650328, -0.012746156074038823, 0.046583717982891536, 0.00040900069808927244, -0.012963956127930318, 0.006571410567142726, 0.02233340808805645, -0.0028328809635806223, -0.01939874377096361, -0.018184433080118346, 0.024129212687228375, -0.0037792145305530324, -0.0249790809875048, 0.015198438344389055, 0.028062511310890097, 0.04264256691168383, -0.01169953397829986, 0.005020054351654918, 0.03530112109845008, -0.006641851704838179, 0.013234141971730423, -0.01645252323531534, -0.0024847794765089034, -0.00798887929881312, 0.015372869084923493, -0.005416113630051877, -0.007820987769243276, -0.016920770108262605, -0.00015375546449646676, 0.0013839647133080221, 0.020093669852472754, -0.027505133165743392, 0.009991065111821728, 0.012920984485036494, 0.004472741754468096, 0.01112319006400824, 0.016811642323085966, 0.029814748379894115, 0.007370195743177187, -0.002056347259574439, -0.01951952852016, -0.022407732050599743, -0.018151398682287292, -0.0008279031602781917, -0.0038414337042237097, 0.027992010383722402, 0.059211845532254136, 0.005171582880097904, 0.00727167721463309, 0.007321074139217479, 0.0004604185288677409, 0.01421986115860396, 0.028593775104755532, 0.004697589086641087, 0.01673386464947754, 0.025382958708538104, 0.004087075243217942, -0.0011339455853495847, -0.011859089133344861, -0.007996357654826656, 0.0015966614791982855, 0.008002350764764176, -0.049273714716226616, -0.009113352961356262, 0.010220116999319854, -0.01347388157323706, -0.013516977944632415, -0.015416822656751518, -0.026653658491013144, 0.010272410270519948, -0.012115341678667957, -0.009918806055360645, -0.0035819475668549764, 0.0073591417264132495, -0.021795076390242998, -0.00792097568588381, -0.0036914558804409755, -0.005688521283638296, -0.03453492572603589, 0.03168209022503193, -0.004850620686516388, 0.01521256895311763, -0.027458921243132855, 0.03535477918287542, -0.015467870143232698, -0.007801108621635886, 0.014571961747767821, 0.0050112549288553, -0.008412770039762438, -0.027083084902826973, -0.0013015570656173077, 0.045908678342877, 0.015525654294531328, -0.003914736476071271, -0.006204719980296155, 0.01047943725179479, 0.0011849290443513925, 0.021926863893728655, 0.004413935847792818, -0.035477182593946915, -0.00946120962102455, 0.01441358009538644, -0.03270942081938269, -0.0040208369668750235, -0.014101111937331559, 0.0007045628499049825, 0.00328721836263788, -0.005066528113914628, 0.04352286958306341, -0.010350906224974163, -0.022243574872606864, 0.028405807280441463, -0.02619100350296315, -0.0010149125376698606, 0.025701628062685434, 0.003318035350322849, 0.018574324776946143, 0.0061110696302981, -0.010239213668335382, 0.01587890806260879, -0.034040227634086914, 0.015607163058385628, -0.024808517673506485, -0.0023911883119197403, -0.01687217407018567, 0.019753816076903113, -0.001710866877046728, 0.00021859276848158578, 0.013878926245619445, -0.011334038395365696, -0.00037851610380920653, -0.006215715121285551, -0.008214371922790073, 0.003489757796912556, 0.02349467987353282, -0.015107265525290577, -0.005676768009303202, -0.02022881324870305, 0.004440145020146546, -0.020003386144913583, -0.01140186438363062, 0.0033675716773720423, 0.03885509340111934, -0.02137972340795282, 0.027281926929449536, -0.020501114545695143, 0.0252893141926852, -0.00744133383410671, 0.01985638077300506, 0.0040287872929902204, 0.021945360410499288, 0.029916541264008577, 0.029188397771745027, -0.005420794027891289, 0.01780097759316124, 0.0010491942897806958, -0.0296583066196551, -0.002826237625250053, -0.0070318432221361344, 0.023202474886489535, -0.0014308973672184282, -0.020188776057910852, -0.004377854112121071, 0.028730619083223715, 0.02201443437780661, 0.010083770639271832, -0.026684643733136455, 0.03128171550018403, -0.015575572516908982, 0.0014093327943872145, 0.0037854566666199185, 0.0008038385152212816, 0.0363414761755846, 0.002932336117510218, -0.021130340697835703, 0.008894586457062348, -0.022938590597256364, 0.017684584753726904, -0.012696314288215554, 0.010874278321203272, 0.010385338850786125, 0.009496171253595509, -0.03301884686157161, 0.017251782255760958, -0.03461350568204817, -0.012367783698843383, -0.02040123884285587, 0.017093708104551044, -0.013206514459300142, -0.029847986744566235, -0.025916058323320907, 0.006031143097713429, -0.011007635306107398, -0.0054494033056347495, 0.005728345840802024, 0.019094678321572394, -0.029618490843486063, -0.014492839423393567, -0.024549499948564032, 0.03152325245888784, -0.01374891040207612, 0.03294510968006829, 0.002078005116658652, 0.020152152803692307, -0.02017414557735316, -0.025811102114549823, -0.07965951786498363, 0.0047823352749371845, 0.0017876212355106126, -0.024114047643313225, -0.010883306181076276, -0.010227504011469655, 0.021550826298635382, 0.009817842054816171, -0.04443602289503934, -0.0004924393365781654, 0.017538522255646075, 0.018189515107945066, -0.015348986101592042, 0.016038780039105686, 0.0013723394365697747, 0.010101926815205399, -0.007464857650688479, 0.012132676388148925, -0.012605408889958878, 0.02602950744479802, -0.007313059945983002, -0.000642711861172095, 0.015345063387393124, -0.02067741726743671, 0.03303110080884164, -0.011898451828253245, -0.0051825656578373255, 0.009205511515270071, -0.011946440282518504, 0.014945190671189981, 0.029592816786218314, -0.00016025124200461503, 0.04863889344186988, -0.01731166463717596, -0.025506434300695626, -0.00745302172918577, -0.005434899902931999, 0.0062644207886838965, 0.025431901236761978, -0.011549065981833608, 0.033016262876253505, -0.00446126484643832, 0.014358888185925553, -0.024525685212277507, -0.01244580245026706, 0.015259277823822333, 0.044362265190927265, -0.016734510640389836, 0.03937832148189034, -0.028113258710346794, -0.03197385131673963, -0.01996274601035692, -0.01148455325386001, 0.019799508609337865, -0.005219131250960793, -0.028788345614352447, 0.005390054881997283, 0.0038810023561484798, 0.013005683851840758, 0.017513361263795435, 0.020780447174681572, 0.012793132898202074, -0.006915886425856225, 0.0067174534058692115, 0.014422366449081148, -0.00017120519032459561, -0.014415477406397124, -0.0021600327625452367, -0.008229244047042337, -0.03458872027272348, -0.024880760751254262, -0.008945217539738395, 0.019162260422327496, -0.014636160649811158, 0.021618176248089538, -0.004780333741443268, 0.01186231985936026, -0.02268738001681626, 0.01700301674448036, 0.01567306467740221, 0.06260947176026949, -0.0060202442394135455, -0.008882780506480607, -0.008541908230810902, -0.03451709189849783, -0.006725942519904069, -0.012908510520141124, -7.956525563374196e-05, 0.06918747460444093, -0.0054970572159346864, -0.007026272371901379, 0.03138951729182215, 0.005136843123725422, -0.006936655943523034, 0.036092999693834046, 0.007752061157182914, 0.05842197270305111, 0.01215109116837002, -0.01360455710008305, -0.01031178644570338, -0.008621573608348575, 0.0024009110371868768, 0.000725349473510112, 0.019524781670528946, 0.015405110521843067, -0.00731244167353706, -0.02941301690044066, -0.0077448631549881086, -0.010499252691336947, -0.0008451046661753702, -0.0063866989921634474, -0.017407084121590515, -0.027529801554310125, -0.005387388167676695, -0.011571774933783373, 0.0060291301711523125, -0.03505618962937133, -0.019496541934789717, 0.033812750626006215, 0.008380139523086718, -0.05386252280358841, -0.01695751802615723, -0.02693524483325701, 0.006810517786250529, -0.0052018228230715936, 0.02657913202383222, -0.019002213368871188, -0.014003557892864381, -0.039865610071414995, -0.00950933962101583, -0.019142882751284725, 0.02190711581667422, 0.026557241416198488, -0.0047004236047008645, -0.011006184335100888, -0.006315647647196509, -0.018310519770185787, 0.022673868278870874, -0.01881914400801985, 0.02476874931563193, -0.003517570651853229, 0.008355828419317165, 0.0018938780341672806, 0.014612389909268593, -0.022508112891028165, -0.061974114608487674, -0.002209749727924194, -0.008315705521368719, 0.0256071917099401, -0.02117824488972135, -0.007686700315833792, 0.0025952260667153125, -0.013500471397172874, -0.0005121320216434541, 0.02427436471706746, 0.005589919314788836, -0.0005022253370005997, -0.001962402704053727, -0.008531991955681315, -0.006542852078776675, -0.030351971239441906, -0.02294636169860286, -0.039301067821171015, -0.005177931261513521, -0.005971857340938506, -0.010208927637618565, -0.008813132327961272, -0.004811033798683473, 0.010459239880460797, 0.016021539398484663, -0.010622089425758641, 0.0004721006053489735, -0.031788512997433696, -0.01702969656143482, 0.0038576475328067667, 0.002199041283018248, 0.04359446305684177, 0.008865798669278054, 0.0017421743042644279, -0.0007189768395278415, -0.03478107974431061, -0.0031825767243919075, -0.006134885142494327, -0.012084902054858244, 0.05351669959262758, 0.00879987694034055, -0.005160989248422149, 0.03484732091911455, 0.011984480662747985, -0.0007942154231302193, 0.011639577297348918, -0.014424843211553708, -0.006195073271473772, 0.015085858879230828, 0.014286994513989907, -0.02289616686596027, 0.023486376181595173, 0.017903150330111833, -0.0014156127295617063, 0.01916764051790585, -0.035091257809038885, 0.00020272011695124815, 0.0017767301249300622, 0.004081384488535268, -0.0016518231489902997, -0.007490284418318406, 0.01487389198204969, -0.0014735501111912048, 0.010770469414160634, -0.007962033810187131, -0.028318654497597212, -0.00231600805145686, -0.0007725397562591799, 0.0026596785587969054, 0.00033465085273770014, 0.0024718476718364585, -0.032756631746166984, -0.015649751959798425, -0.019502441534250608, 0.009766521540433356, -0.004751724958431732, 0.006149593529768634, 0.007460762120678286, -0.010275358291655077, -0.022386395148439514, 0.010124249530502678, 0.016169525255839264, -0.005546559727621232, -0.005021350996380216, -0.007249763016553849, -0.021066686471054162, -0.0066530564684228145, 0.010542948152881019, 0.004465657278695868, 0.021561411645694174, 0.007684020656991355, 0.004564689335732591, 0.006039555603305096, 0.009135435492085111, -0.0014550624071713388, -0.03561401817975498, -0.017788614466482767, -0.01424936540720888, -0.006795593288769477, 0.0022816371823019305, -0.026714521931371228, 0.027796021072598362, -0.00044547188943081396, -0.04653794083883086, -0.005995124350816032, 0.002743096778822671, -0.025285921577003177, -0.011404336900136662, -0.00310921935070797, -0.018269214275201427, 0.007421065794024002, -0.001099450462870729, -0.007996470267276828, 0.009442033242304646, 0.012115078110942, 0.008619248989100199, 0.002691298759978844, 0.011217121891296545, -0.010027039940227083, 0.029191063225306887, -0.007868922124808329, 0.01258864789126042, -0.009585984669964052, -0.012644886448359437, 0.02665321766956498, 0.03413617851364803, -0.007149875858281476, 0.03382203360120269, -0.001638071352948199, 0.0060923131786304605, 0.0022620057966290397, 0.012280106881319067, 0.0187750913431786, 0.01091384777268421, 0.003588049806027821, 0.0610544222360457, 0.010718671710147275, 0.00650885166362761, 0.028166481143762526, -0.019108420063351412, -0.004356283079003319, -0.019809475255831984, -0.008382626693543444, 0.02131708517100745, -0.012931970667965068, -0.02442897533883877, -0.008029762158185483, 0.01379217305722388, 0.015481270806227855, -0.024226672000880523, -0.011953808352061853, 0.0011886950694096204, -0.01915910528032564, -0.009771212621336012, 0.014188253658426029, -0.011238561689457952, 0.017035965619522, -0.022610982284465828, -0.029781379350471992, 0.0038449429794513617, -0.008736359926080196, -0.023163851748513573, 0.029187345969461865, 0.00835869319963981, 0.013605149762191593, 0.0025030471977537834, -0.0016855041554047158, 0.020089357663709805, 1.882241748309502e-05, 0.005959120335506582, 0.023470515815636864, 0.012244597603096678, 0.009121997102934144, 0.016868115013190275, 0.005966588321720261, 0.029417370789460585, -0.0018398674078779094, -0.02531054450779553, 0.005758533709597508, -0.020201210242328828, 0.009210745335111232, -0.006673321778864468, -0.014034416454585644, 0.020383557430670645, -0.003731108808249316, 0.0006428745060974175, -0.0003870250116697269, -0.020783654182209517, -0.005597182108754934, -0.006338427793791632, 0.0009871997335425976, 0.05138968309717443, -0.03255973168151372, 0.0010054050257169616, 0.004597419045607739, -0.0016856067347915179, 0.015268243351751485, -0.011058923087925325, 0.0216866467663466, 0.087810336114202, -0.018798582465130123, -0.004892871948576654, -0.0025028842662911588, 0.0020636903311408677, -0.016835190403976828, -0.007303568321816165, 0.016030521152395158, 0.06190023877864052, 0.022557873629416823, 0.03006220960243932, -0.005799242138509221, -0.007602531604041271, -0.004796381271833911, 0.01523678085770107, 0.01914530013401783, -0.0076850543138190786, -0.002241707950109961, 0.020196858836211078, -0.027675891702898553, -0.0339044530159098, 0.011534128764769053, -0.018589587625971016, -0.003967784352535448, -0.013208715262116736, 0.024953248564072696, 0.006741918080909841, -0.006085127964825754, 0.0012789631983457987, -0.009502404869994504, -0.04033937602560957, -0.003915426700051608, -0.011585793116355811, 0.007959948939352068, 0.0026708586060025905, 0.002571262661395929, -0.0028947904927611183, 0.0061011448383994, -0.015697266085112866, 0.01001060684585959, -0.03823182480837932, -0.014551485177704167, 0.04956140341095558, -0.013620890268823481, -0.0005898888281906399, -0.004683647100913046, -0.009081287562891588, 0.012174471861300324, -0.0052962946763382415, -0.006421869280572406, 0.017826650667424986, 0.01340786211125247, 0.04206123568059011, 0.00028041141286108066, 0.012896908665907668, 0.011673638537677724, 0.00900738917513131, 0.0038167048554084994, -0.024489080360302718, -0.005844754335774458, 0.0034686848318644667, -0.04267730205558107, -0.021435650353826927, -0.01895424556916389, 0.03219553761788408, -0.0029939732149866782, -0.02389975054091249, 0.023737946956930975, 0.02608481434600851, -0.010160309910287388, 0.0004705093786859895, -0.01518055947749381, 0.008652084866005633, 0.010971942350155387, 0.0031040505863962533, -0.007057402248924123, 0.007537431848387944, -0.01629038040861332, 0.03162236135984738, 0.0014490447511182564, -0.009270412564354357, -0.022340901476169885, -0.0017309199456417383, -0.008908735509498816, -0.038089099929175835, -0.021287479485287406, -0.027705123054773014, 0.010901700560821933, 0.05865490553268188, 0.0010157950425704683, -0.025074495990321848, -0.029504929234712433, 0.006020812436925711, 0.001986240834533221, -0.019840263221349217, -0.0091520656036993, 0.025758304177963785, -0.015008277631792771, 0.021597124440664764, 0.019915972591372413, -0.00707214059252747, -0.016092975027629196, 0.00598078847199247, 0.011086679942876454, 0.0030926050221374637, -0.02916241581860295, -0.0034605766237146033, -0.024273743243242694, -0.005627599026446025, -0.012106994352462057, -0.011827914996303568, -0.020114789181057736, -0.042149464460442536, 0.023770757120650673, -0.025954997444815518, -0.02329844631636281, 0.02315209392877988, 0.028349144272506573, 0.010154976431797672, 0.008717635225445936, -0.022019500872508653, 0.019251481226880283, -0.011249609864055488, -0.006813673649597352, 0.01995807993204358, -0.02168738525620409, 0.007633982506403685, 0.003279969719235842, -0.02222556165703053, 0.017023895492837938, -0.0044079679970951595, 0.0003066038344535298, 0.002365768212569938, -0.01815118768967789, 0.021355165341293093, 0.016783573081297062, -0.03360859253309806, 0.026015713610510523, -0.010333863551462714, 0.027273956480946, 0.0016914921405135385, 0.0061427492031038596, -0.003236736137369416, -0.025294320655352327, -0.06139596523303059, 0.01678996596748267, -0.014087702383242676, -0.012336091902160465, -0.0019826305847710185, 0.0001473864558041435, -0.011292148828734727, 0.005156914866996846, -0.03894234451383638, -0.000886276599725207, 0.007469204565293554, 0.019975016432774648, -0.014995261285486557, -0.04370733696019348, -0.0014382257467519229, 0.006280983780596957, -0.008925122859563822, 0.007221212798205126, -0.004099308423775501, 0.020515016021167974, 0.006081935374600393, -0.0040306763988995, -0.006667176728369813, 0.0037545755990395415, 0.038767521043291495, -0.010627561647307852, 0.009860393692602464, 0.0013128671561344223, -0.022062718756400125, 0.0032072995687192326, 0.00821055082309095, -0.003167228044290581, 0.03825007006880895, 0.0012866223598282408, 0.003390874229711841, 0.00593601958291638, -0.02246153499771262, -0.002624041181832632, -0.018697251036971844, -0.03488861730447273, 0.0657261464489368, -0.019674039822811188, 0.01880986411007575, -0.02023342023973522, 0.0026911871766742055, -0.009407299252205984, -0.0041870957050679355, -0.005958171853864727, 0.03884445712454827, 0.007391905554093079, 0.035433864806269345, 0.014214258326579571, 0.015689773056908645, 0.00956484084363536, 0.016435510062528608, -0.01691360530633797, -0.0020478884930720553, 0.005357910011790998, 0.0068414605073447215, 0.007600150850973088, 0.006111713857154785, -0.00929053851275418, -0.017309885439604863, -0.004959751091990143, 0.00894006879087502, 0.0028282108542057407, -0.03689282485297828, -0.019615322483866705, -0.02810459329144266, -0.019507017793078837, 0.00983536171031377, 0.0025861772988966776, 0.015008731734683083, 0.009454288621665245, -0.037082668381858544, 0.017486485890750355, 0.01848811069440644, 0.01831379581449884, -0.005762789118322881, -0.010743564746870311, 0.005783112794112083, 0.006167744204910082, 0.01706596925913789, 0.0007917433147072364, -0.012094685768879718, 0.007889646502838826, -0.0035569715703534016, -0.008508865933951558, -0.00035674162850428707, -0.03563577938661741, 0.019950331061349517, 0.019107837797439547, 0.004319794235926905, -0.009266281495373572, -0.003276011962095133, 0.005214795726972867, 0.03474477282555271, 0.025901880075064172, -0.022713113652257987, -0.011477900543074241, -0.020292720297017775, 0.005073811374672894, 0.005744020182493135, 0.009972249553949883, 0.032193220074378255, 0.021760895701240256, 0.01287250673167722, -0.0005811741380496612, 0.002103959367266819, -0.013086883561541812, -0.0016367685799941124, 0.011173499195729394, 0.023925697679517705, 0.006550746887901228, 0.016817613755673855, -0.01146983686193643, -0.012300821551932621, -0.0050234004332991074, 0.0034722317516441264, -0.01997092486132754, 0.0019035221884641492, -0.017902095433654484, -0.00924111269108271, 0.020122478084015225, -0.008291572852646005, 0.018325623539544637, -0.03616872917089286, 0.007335821898833797, -0.013495652130640929, -2.152353530937063e-05, 0.01579938901005821, -0.0034136932371091875, -0.02153923163180412, 0.005179562951134977, 0.019669451110311677, 0.02357807420019394, -0.007613647052236966, -0.027500416830962805, 0.006738876808744443, 0.0028804684154337575, -0.0012402178132078162, 0.01691232402775653, 0.03095431295959933, -0.015792769857639506, -0.0198269311354328, 0.007054923061601191, 0.017291296704680482, -0.022022737269752415, 0.0007050480289737251, -0.019978981083331095, -0.015014548223785543, 0.0031823884903392392, -0.0032855040380349245, 0.004790106434065339, -0.002667276736910584, -0.0017751081491164003, 0.0049934610777857425, 0.014727115870367255, -0.003709669566764459, 0.003286033997312386, -0.019798969258447527, -0.005379285803720298, -0.0007738509353944854, 0.01915266455723595, 0.019429027497949346, -0.0021400191936197907, -0.01313028175032617, -0.017811707659530805, -0.0040190033678410035, -0.012039860482187891, -0.0067893852554482366, 0.019022720668726376, 0.0062233920639943605, -0.023956207309533958, 0.01869660172617327, 0.031664835348357505, -0.025604835016447468, -0.023606325722224264, 0.025794230409385163, -0.016377006707509634, -0.022881679768259864, 0.04455874220852036, 0.009908354191517704, -0.033440942541175266, 0.03513276484279188, -0.0007777644088979945, 0.00970810315874365, -0.02413652059958753, -0.015830837538809515, -0.00410069300959526, 0.02721299725677498, 0.012467357885723474, 0.05734977541699143, 0.003918922678036789, 0.01032136562717408, -2.0627896765913322e-05, -0.006809269550949206, -0.006483340553896496, 0.005491691423134716, -0.01631714877320284, -0.008681446606958864, -0.006143645026163838, -0.01654655447419095, -0.0033480523712911795, -0.0023349658595399063, 0.015266286563718204, 0.026341852370642304, 0.001403206044394365, -0.019745125319939376, -0.010396462513720018, -0.026029057672356887, -0.023060412998731218, -0.005015436233359523, 0.018695988888751312, -0.0006333462273526979, 0.010006504384704573, -0.029548876269601964, 0.025459647313362442, -0.03849966457973059, 0.0025116360774526236, -0.018379574566633843, 0.01956322394990927, 0.006958764139713819, -0.01660013930843188, -0.0011444200532885922, 0.005101915786497189, -0.017267531122025667, 0.026867735003444783, -0.004887939946313136, 0.007157036519752829, -0.0012700265276673194, -0.011628458176741227, -0.029811510269800372, 0.0170698167109765, 0.013999293583985542, 0.019687157010871002, -0.014528061571151876, 0.008228450959657253, -0.0423947585730171, -0.021155616297102574, -0.048119138077997614, 0.0025495896139956795, 0.001777059489642627, -0.005789426257474259, 0.004331457613093604, 0.014032260399668586, -0.02417994269002098, 0.03164398398139537, -0.015949065376048656, -0.013809856319486875, 0.01108419426731179, 0.015507118155674815, -0.018135233800763147, 0.01740539899706438, 0.020532477050788554, -0.012817392534417316, 0.004446172979368808, -0.026555012169866086, 0.001169054395319196, -0.01747204120955783, -0.0019486087914408728, -0.0045783100278940485, 0.01130752569295222, 0.010530290854674575, 0.010782247132941661, -0.010402621221333001, -0.0014219089758600871, 0.005404539310569101, -0.014581641863359147, 0.022723306441322498, -0.008682721532285585, -0.004262160012302763, 0.02163570831653954, 0.012675175188806771, 0.018591979692101693, 0.007454902985451536, 0.022666784811841742, 0.014761298952015556, 0.004157886649422933, 0.011686781069565017, 0.06450153833196845, 0.0015411787655006807, -0.012887477826661114, -0.026924532613230554, -0.01793616601719128, 0.01232644585334969, -0.00982458833292347, -0.005315875696403395, 0.021257507230916135, 0.004713373081327092, -0.008003279176937305, -0.013592940882136254, -0.006068038247353807, 0.018487006901061642, 0.009445783634763437, -0.006903172966004568, 0.013093325666324287, -0.00031357648705717425, 0.020667518460439873, -0.006835901119069044, 0.001166460325451726, 0.010546019149723107, -0.009412865157380951, -0.007767880422681163, -0.02066457223719973, -0.005577860791849305, 0.025273738758106432, -0.011847356532425708, -0.025467771272829762, -0.011866616740423282, -0.015222836047767871, 0.010389896820356806, 0.01705799226908267, -0.026995526851186454, 0.007963630899758862, -0.014259768833478771, 0.013825111679050622, 0.02334012707385063, 0.013817640140163689, -0.02697165428441964, -0.004515516765171805, 0.005650629837376561, -0.004072366979236287, -0.0034690540709980135, 0.01486388515749654, 0.012522450077021225, -0.007175475695976231, -0.011322000299536611, 0.02961704573461283, -0.00331435292437394, -0.02778862807779477, 0.038279682346845076, -0.006848386810520507, 0.015094565815970623, 0.019418773535318574, -0.013164395509209824, 0.03746906240608543, 0.004946442912391822, 0.008307741459678258, 0.009207624486660156, 0.010349970077484118, -0.006929579771665975, 0.010960418138999688, 0.050779282676053625, 0.05051473140019984, -0.0060452805687301716, -7.196251445902184e-05, 0.007764014638953116, -0.009534427471577742, 0.0286058858209486, -0.028367234359575777, -0.017227127724973562, 0.06701237341090456, 0.004922068821893397, 0.006728381302336957, -0.0014148021874322647, 0.019171830448836705, -0.0041787953879834335, -0.027915737348078708, -0.01892542132524288, 0.038312701509301494, -0.051787529334447274, -0.005216767799669393, -0.0014079279265013392, -0.006675848276800395, -0.01998475352548958, 0.003563852665035671, 0.015512903141949298, 0.02024339529629943, -0.01625295873104421, 0.010972061770105655, -0.0014537127953664188, 0.01345116948555403, -0.0021139682406458565, -0.012367871599013584, 0.012532989831500013, 0.016529835801102268, 0.01114556234411806, -0.013629518670555441, 0.004378904828888544, 0.021387004900873825, -0.0009788958663726414, -0.03219724503906352, -0.0048102296577150596, -0.03130370701101639, -0.018976957415216832, 0.0031134328552659017, -0.01938630741375688, 0.023090851419336877, -0.02328256810931209, -0.03207337446155687, 0.03119280938751278, -0.039121314434699704, -0.0032954282652410895, -0.01194951519178508, 0.0210888554137799, 0.00012047208595541552, 0.024346095914483393, -0.017761870226507975, -0.014291111503862756, -0.017548245668400738, 0.028738287454772797, 0.00034197868855452573, -0.00954394428439989, -0.005288694892273915, -0.0010823344451314188, -0.012533214204602773, 0.019684509945304147, -0.052508150301114505, 0.006405027129885083, -0.01183637470756518, 0.01676159701380755, -0.008964407508283976, -0.005772322015267972, 0.01982941299208534, 0.02808565432855002, -0.012318830819538041, 0.02189773571684444, -0.0262186458629366, -0.012085445875196667, -0.015086057125143588, -0.00023184595918668014, 0.004128978229233831, 0.03148912568358046, 0.01068440463871258, -0.029494258550719958, -0.01070904281042636, -0.01605880962295164, 0.04185776786522156, 0.0012317435124216524, 0.017199461101630557, 0.0015342145538104024, -0.009572883587073559, -0.01050831568630417, -0.005505104628571851, -0.005888518385088174, 0.01328189216963703, 0.019730225307653414, 0.01345981464422321, -0.014782809440574559, 0.054620063182328704, 0.008677660393769862, 0.0056418276657632495, -0.024331285590208467, 0.022853507399806083, -0.004220505473819076, 0.01664735499416762, 0.006085194533255549, -0.031086332863371365, 0.01261480422650507, -0.02577793389528904, 0.002279739377993588, -0.00776063897149886, -0.008716653053028193, -0.029239611740655473, -0.00575107205380108, -0.04875839266491846, 0.011963790899794763, 0.002721520781503496, 0.0092439550367951, -0.0020430766951074725, 0.004609882416631015, -0.02278757591926053, 0.008894011076830315, -0.01970548627290301, 0.00495755455704286, -0.00942841278357349, -0.028537202478776766, 0.025304034135203872, 0.01869640183551798, -0.018839765311613427, 0.0023091586000099163, -0.044880407267091575, 0.0048701151773560165, -0.0009100506956470336, -0.0013410456275316878, 0.002985052997054395, 0.0018235957938399325, 0.039442006119939615, 0.027315572753575997, -0.012317516650806302, 0.0010628602526358039, -0.020220139131360396, -0.01867712946090561, 0.022596824429420573, 0.02165495193830418, -0.0031892493308028633, 0.006524673960885041, -0.03499395570183916, 0.012855178580201942, -0.002534386766456594, -0.010498088294990214, -0.04374399101010921, -0.019623200626359968, 0.009352784548342104, -0.0031613071851584688, 0.0041642249768466, 0.01310539798037932, 0.004965414191878153, 0.011505027846197866, -0.0039569618802899895, 0.031128157617809318, -0.016349842291199845, -0.02233092363414638, 0.006054034614413175, 0.018059944951035307, 0.030673191822513792, 0.00754791544722688, 0.03019341990484806, -0.00011954295536956214, -0.0007814682308017537, -0.020297061690587048, 0.028007857789900635, -0.008283170224702908, -0.007469422351824218, 0.03959246041333758, -0.008749863894103383, -0.028693004438471753, -0.017654061475023526, -0.00978920748659981, 0.0380502750763516, 0.012459244238301654, 0.018097149107698416, 0.0016423605848784198, 0.0014107793939099138, 0.023110936986304696, -0.0004922604278833862, -0.012861301363717504, 0.03201363319005156, 0.013796592626360219, -0.026448760556879433, -0.002952590099081714, 0.02087603602972714, 0.021746306889840847, 0.013637992259339047, 1.8692458418627846e-05, 0.02303277152908905, 0.009026735180270676, -0.0004503081725186638, -0.00750355856577583, -0.017441466637302356, -0.014968376522832174, 0.03090729787929453, 0.010329084042338116, 0.03163165302661328, -0.02879865656310603, -0.02855149031950981, -0.038746297425300544, -0.026021496446073596, 0.0007933624016336046, 0.00608671174532239, 0.0010600446126491718, -0.029481424891163066, -0.0022734460879084966, 0.005786162986682924, 0.01393787779274413, -0.013278191979693245, 0.016465236233759194, 0.005220485419210251, 0.03275702776357918, -9.225750024818261e-05, -0.017285242096723375, 0.008535719446902883, 0.0282818081970222, 0.023901996584307108, -0.004433166030367853, 0.006046372979501423, -0.016393249929477948, 0.0010043485574819596, -0.0010577535652533407, 0.01047090002889809, -0.026527339416418168, -0.02141827903559583, -0.0033864319421707595, 0.005605022572734385, 0.004006128589014595, 0.03040296750206362, 0.014714362019739684, 0.014653511375794414, -0.003605100648598978, 0.01878803184711244, 0.004487064737523079, 0.0009038691801127604, 0.00798251562170154, 0.0271121764705956, 0.01092590778655538, -0.00038897568633375465, 0.009721177252171039, 0.017139909283601706, -0.008890037947710573, -0.0053387769935987275, -0.022252082843398708, 0.0003475607371594576, -0.010446360484887812, 0.005039172511245987, 0.0006211643744863677, -0.0010108749771214846, -0.01248781027312901, -0.005696214563608017, -0.02536533572583735, 0.020237828576461957, 0.006330242558938313, -0.008016559442662687, -0.009502185979502482, 0.025638306869825687, -0.029072277522038455, 0.015829284744248624, -0.0059605950487123536, 0.055613919393031966, 0.01125721222290443, -0.005536426026854928, -0.015860174741762642, -0.026073534468931236, -0.02113130279639636, 0.02277201704815839, -0.001320678876853758, 0.05052289233441165, 0.0006560624431829132, -0.02428581139359177, -0.0029484807215617117, -0.0008101486049755364, -0.011515581972162911, -0.006643522222047094, -0.01621929689402548, 0.021309450619833317, 0.00020658817182062444, 0.008439149085628036, 0.003387074907136061, -0.004720747475164193, 0.0036190063866134168, 0.02062078316594581, 0.014343548345218466, 0.02889359810995703, -0.047855027876707784, -0.012002449785166696, 0.004170887769663391, 0.0015436447055082265, -0.007778928899234678, 0.02753322780807369, 0.02976870011038397, -0.022841423059680132, -0.024231109069136007, -0.009861230264539948, 0.0006527128915450974, 0.01943472564733317, 0.007328908379385353, -0.000250347440119567, 0.022868763688908375, -0.036300965848771315, -0.03114478760616038, 0.003726601670459028, 3.0191827282849524e-05, 0.017070882628488722, -0.012335501109815562, -0.02255194912891408, -0.011190135543348455, -0.051244369869548376, -0.012325471123105166, -0.02771711254180158, 0.010094313339356509, -0.004060379107997228, -0.004115505570079078, 0.018699220149251673, -0.023375205128526814, -0.027903342673017133, 0.007781570430688797, 0.0290852258238978, 0.02249109435022189, 0.0017213290393000814, 0.00537124075495581, -0.03362514550730776, -0.027370279489188958, -0.004009345827312297, -0.008525368883445574, -0.022865855778792632, 8.402281549772679e-05, 0.02919404284754371, -0.0023532059103512602, 0.004613723237113411, -0.00996310571160239, -0.0010743379006387288, 0.00593665524634144, -0.0025386535174471716, -0.004715652222762586, -0.010939979193759638, -0.009547849742276075, 0.005023283956568843, 0.03164209948621125, 0.015338232075737687, -0.023213213820193777, -0.015173365740552315, -0.006072552909574513, -0.013324702999264536, -0.03897617804177439, -0.01885934657939645, -0.016996984098248284, -0.018899710796807103, -7.514880663313428e-05, -0.01599539145078952, 0.0033673043342526913, 0.021721358952668596, 0.00568748041230463, 0.005958029253538233, 0.011605530030274213, -0.05130546280558239, 0.015457706945976646, -0.01759363127939967, 0.0036409381205370437, 0.008838251358855888, -0.01143256880603748, 0.015908954911381428, 0.0030054583720305274, -0.030764286980115022, -0.0016431072199626572, 0.00819032778788735, 0.038770098080319185, 0.007693112653797129, -0.013405371886594438, 0.016486379983869974, 0.02732275635210247, -0.004120593033197285, 0.009390271626817333, -0.017701179627719627, -0.009638558462560709, -0.049753656280588594, -0.022700872873322897, 0.0008854096487718404, 0.016513542103703396, -0.03623528742478856, 0.027524408131540383, 0.010315206170751939, -0.012144821293760221, 0.02059144319998707, 0.0012101904233340797, 0.028082384276474033, -0.006874996866087991, -0.008454780879905862, -0.014211910468686181, 0.0009662058444926847, -0.010935167778059817, -0.008315285382180754, 0.01860547247496042, 0.000530585273145433, 0.003829437911196818, -0.0004494050463370601, 0.002945782012853885, -0.000719185402742422, -0.028262798579584553, -2.8566994003831384e-05, -0.005671825895844336, -0.0035358520840848956, -0.019069516116520746, 0.026717053401798696, -0.014834706420356, 0.00299473015445808, -0.0014499685037283974, 0.008413777256720253, 0.0133700976343242, -0.003993149557754542, 0.00956850590917825, 0.0008959578900264638, -0.018550507777140905, 0.01239700803152667, -0.018131837215183466, -0.010719303100196835, 0.016297643550214343, -0.005209289470671159, 0.003436375872240237, 0.04511590014712143, -0.002909929080709598, -0.0026307957391154494, 0.015647964120666026, -0.0061693961574201, -0.006641479900839768, 0.008805761457934958, 0.031725989981280865, 0.04112932831059722, 0.008431951560697915, -0.015064197038924882, -0.015733051398249178, 0.026013869587775334, 0.03217898929510138, 0.02916932767807482, -0.016023868639512762, 0.02935302734163143, -0.025118108634854423, -0.012695997098335469, -0.05132365086124409, 0.001177223249103898, -0.0013179174059861371, -0.03744752808285373, 0.005066062734471526, 0.020917426908538046, -0.009229705176123837, -0.020746143527998716, 0.005207328819804566, -0.022819206621177885, -0.024994653317985716, 0.0022300793231882906, -0.0070454446547379935, -0.01634946940517108, 0.011357180510369345, 0.02306105059903636, 0.033572806506621, 0.007559365808765022, -0.015921937639692144, -0.009738391467414296, -0.016638099007172332, 0.01137577622503693, -0.014173944177102556, -0.015633976447664708, -0.00790011803923187, -0.005908263063699975, -0.01458522596290258, -0.00217779579187369, 0.0206221787810363, 0.012143109351667212, 0.017896820240594715, 0.008667616006578175, -0.0030945628831391555, -0.026519350578962736, 0.02699366738898874, 0.02675104857933401, -0.007599520061276079, -0.0121865263778897, 0.00889804804768153, -0.0022657319503279756, 0.003445418316464403, -0.010036961218567775, -0.025726752771887858, -0.026922583291975784, -0.0130923796627781, 0.0012974878229493618, 0.03140987873712562, 0.011771922960678124, -0.012512789501491768, -0.02319631453322372, -0.021383145751328693, 0.002789999802434443, -0.034464589378511, 0.02165125912567695, 0.022060681994259965, 0.01919704875576874, 0.026371286647474776, 0.01776637129979235, -0.007592927335444458, 0.031755349853644574, -0.036455305326562645, 0.010355638773308971, 0.019322124481740196, 0.0018336840381051134, -0.012404637033118454, -0.040120511133639784, 0.028618631359671836, 0.014203873175332164, 0.016331025944853993, 0.041207847566788296, 0.020531798987954455, -0.010083342580972342, -0.004390967264997261, -0.004827626190374005, 0.034573732803814886, 0.007239911166318023, 0.002576297670842826, 0.038854344903121125, 0.021353919162923667, 0.011956497865075796, 0.009004829267671153, 0.005965718451558373, 0.016203807582779638, -0.0031524610383352825, 0.02606645230559542, 0.03103204551632343, -0.017461218146865565, -0.0016286212168048545, -0.0024013074387632853, 0.019680977275961013, -0.0141286247490573, -0.007740806035181995, 0.01378891591633504, 0.04120691720417356, 0.02635495700858173, -0.0004455505571323536, 0.0024452837148439066, 0.01910105096256179, 0.010319968513184698, 0.013533323938125248, -0.0007665198134000925, 0.011900330183768973, -0.025140461797461548, 0.02306932619339035, 0.0010904731280174996, 0.022868775442079527, -0.007827677130613196, 0.0012989750733912995, 0.007753785116252178, -0.019009977469258022, 0.03836704237013974, -0.007155855475835235, -0.009275889501470869, -0.011246557767574501, 0.022885710842122122, 0.0014439869683231415, -0.011429640757507463, -0.020704546154250325, -0.02312404930158007, 0.04438700945498224, -0.023905213413427207, 0.01113131733241135, 0.0214508286186535, 0.009719849552090787, -0.02683319630869755, 0.0047130706810601915, 0.017670913575384837, 0.001504304683755779, 0.03155297320606187, 0.027506940809587606, -0.0016541939258628295, 0.003920645267852214, 0.024398173150294425, -0.02362856976707523, -0.015097761410702326, -0.01730365573201383, 0.020595957013515544, 0.02441874015685104, -0.008460294055154357, 0.006079318583904186, -0.007112034632841269, -0.017094321164690028, -0.01769300117161989, -0.012397780933849484, -0.0015322109227756148, 0.01748841702588049, -0.037133855286113064, 0.013394913407858967, 0.003397628476749841, -0.013500846742114329, -0.02064878939024577, 0.0003324680862615965, -0.062315493464731656, 0.01726963084337756, -0.013672352027962402, 0.010095479528318855, -0.0002636776532035983, -0.022334747497580017, -0.004067139504017539, 0.013437007501523759, 0.013874582798252556, 0.0028353815116088244, -0.027049220304369546, 0.011186205165912797, 0.011131676177540854, -0.07779642973942405, -0.002454283138041329, 0.001980678860680191, -0.023482799421760667, -0.0019823740319679078, -0.022425338251741884, 0.014978797839230574, -0.0020153969865378246, -0.03376229309598535, 0.05614631611956017, 0.00772157120958924, -0.026817145764187825, -0.030899114506949304, 0.01951435442084992, 0.0011355321236511623, -0.012873238900392702, -0.021413964831301327, 0.006285152574332646, 0.013223424911042279, 0.0057421288700785144, 0.014626439407755189, 0.008661584774255115, 0.0011070290172855142, 0.03501596223413536, -0.01677378258446485, -0.006422288830100449, -0.005367663787136988, 0.005658350490103442, 0.013487552915924031, 0.04897483206198282, -0.00867967235410062, 0.005674747142880401, -0.028577388236264212, -0.007248644280913128, -0.017035112346741946, -0.013337088643814035, -0.0034129877392992296, -0.001627106424735003, 0.004919590833259063, 0.012655761224924105, 0.004590526870285186, -0.012751071484582458, 0.002453840915681155, -0.00039685168070738216, 0.02297686654469393, 0.0040144738102856755, 0.0007632206512613388, -0.020827094754137947, 0.011766649274657013, -0.019409644548798954, -0.0005530175767800201, 0.009185667009320348, 0.024240370083931644, 0.001959689471373287, -0.007729356841919003, -0.00011355547857749279, 0.0460624329287234, -0.007341848286824895, -0.027542363495585347, -0.0012869408888867482, 0.0019261277620124116, -0.009650639195226404, 0.029851398642777183, -0.003910807369151096, 0.05780827407585222, -0.03642928776496449, 0.009659429262758272, -0.00994621462032956, 0.0005913660673876097, 0.031568662635833855, -0.01960486174153996, -0.013170589241104515, 0.04056901108916151, -0.0025554022049445618, 0.009617260477463793, -0.006201408135917822, 0.005779120412439452, 0.004640541600366736, 0.009794562012339946, -0.014422887128716776, 0.02007495758460951, -0.010780365806505036, -0.024458467440109245, -0.016086999559961648, -0.013159632494697164, -0.017180364009228153, 0.022655450220024107, 0.022492938671693902, -0.006547254494867373, -0.0017162246531681558, -0.012304495615160485, -0.013714188204938107, 0.0020910276188432627, 9.47127018995948e-05, 0.00852067701900218, 0.02772827209580147, -0.008493806310670463, 0.009793443082784412, 0.015209530995320736, -0.006740722102967526, -0.01934397857930005, 0.019988441412680795, 0.039985795312426894, -0.016284542738577795, -0.007101837035060694, 0.018128828340353047, -0.01309569346142589, -0.026786006631202702, -0.006185314408470292, -0.006782873652738871, -0.0070496361807877855, 0.01142315605068345, 0.02936531100387019, 0.016788158823760814, -0.0034971043684668556, -0.028117646538612012, 0.014870607291889612, 0.011525744583703267, -0.004288496267043318, 0.0033294349214949863, 0.008684249947479704, -0.011421849237381938, -0.029284101870641777, -0.019992860006980667, 0.011482539284055022, -0.018428733250193466, 0.015519305270587943, -0.028171123023362162, 0.04634396226408524, -0.0017435043964830737, -0.01697442441535063, -0.01892540456439157, 0.023819933635860813, 0.012258689668593347, -0.014105815992662345, 0.01613988328725067, -0.0018468995275791066, 0.0020543726762543906, -0.002103119987378717, -0.017990703827228848, -0.00678274976857336, -0.009491882181904191, -0.023258019276651207, 0.027836822804139662, -0.024763755545827205, -0.00835594067817907, -0.010427484649004387, 0.003643495168112597, -0.0010777992508657925, -0.025452870008652918, -0.005714509136370694, 0.016844520032879815, 0.049937478326406395, -0.0030652023551694806, 0.018702567119266232, -0.006654513431502929, 0.011640737329490433, 0.021115797884435225, 0.01416684857876331, 0.020344523376085513, 0.038897387652503945, 0.012815679829495396, -0.017023302594044047, 0.0031612355367448127, 0.009407172578790304, 0.019082354502699538, -0.022326819344637844, 0.02863670678699119, 0.041297381654452694, 0.022624865464253404, -0.02515808626414287, 0.020380392982701622, 0.014292494264848887, 0.009976239313989815, 0.019701843586629807, -0.015417167822303905, 0.022720748708288933, -0.011382498459414093, 0.003971309109769501, -0.015529038938802458, -0.006413486395333153, -0.014355093940894318, -0.011724002776973207, 0.0012892269309952827, 0.004943990588286274, 0.010857621312138056, -0.012263155666164332, 0.005389892524242365, 0.004246933819480122, -0.03515947735254123, 0.037354966882031555, 0.026493177513842833, -0.03283024666548431, -0.0073204566357966, 0.0027146763823056854, 0.010377563644781302, 0.05647827711625941, -0.026623023623250603, 0.026409724603985562, 0.01417034624774688, -0.041166386784714355, 0.006814853956505265, -0.022969017902163578, -0.0030810659859228915, -0.009481310018986241, 0.0029901960745753416, -0.005548751020689024, -0.0045841460815441845, -0.030695855447180974, 0.02378293169217885, 0.028845573993389696, 0.015416432039556708, -0.0006449624015404463, 0.008380452319349136, -0.00014223197100849194, -0.033648700661958235, -0.03244498742976775, 0.009678842024209712, 0.01795082971372354, 0.019206417762317688, 0.0021824106036660794, -0.015276753984101055, -0.020660524873222612, -0.012822353774702516, -0.0024993279511543185, 0.017548358030104422, -0.02052115282122142, 0.006807835681889278, -0.018546155144187962, -0.02712004174062987, -0.0005452448559923088, -0.00960939272504494, -0.011877205472076121, -0.02527105650070691, 0.006403605442998764, -0.026119116218341513, 0.0037109167141518478, 0.006720756621577724, 0.029617416206473235, -0.01723078371057155, -0.013907092969089995, 0.010006760836103669, -0.0210509219104426, -0.037325887566944924, 0.011052852268983612, 0.0023713470043335893, -0.01240709043720229, 0.011142291274499692, -0.032180652697731085, 0.00845357029591038, 0.0037153643004575495, 0.00457216227094089, 0.01055551301319857, -0.01724099992409948, -0.008764694033695692, -0.003692570120529768, -0.034084960687928614, -0.003292178616677518, 0.007163705803602836, 0.01569864286839103, -0.013925712829172278, -0.013131050373763267, 0.02419309455787227, 0.01830335571690018, -0.008567633454020224, 0.006009961974005506, 0.009168037713784384, 0.03214677738351413, -0.02199173694181693, 0.007855758404049399, -0.017366966363714455, 0.007336383696371126, -0.006995909736706683, 0.009915064377918042, -0.009345732862495532, 0.027722956683744856, -0.03573208757846851, -0.011429185390482875, 0.0042711702501877415, -0.0023493508636453875, 0.009098037681950229, -0.010401972991616193, -0.0021006974063463905, 0.008026478080773764, 0.022382551077498508, -0.003574232504069646, 0.011818949470884195, -0.024465433697452965, 0.016880934368243512, 0.013311382848984355, -0.019342074385411627, 0.007418453363521441, 0.01595971108966481, 0.026649765229129162, -0.009604853675041382, 2.7894588461882756e-05, 0.033158868255992326, 0.002258456630980046, -0.006668776514410658, -0.014269446536320082, -0.013806704812457708, 0.014659614178300268, -0.03512412310024444, -0.01085653785330277, 0.04155849326136387, -0.005541741066251787, 0.00997769924469906, 0.0029276375386485054, 0.011956256947902574, -0.011155614127167894, -0.022417461230665254, 0.013805137256196875, 0.04738090008958139, 0.012218274525835194, 0.0019438357489917149, -0.01715094588236361, -0.005815451371259866, 0.01860745870641695, 0.015046549998497135, -0.012499485273716015, 0.028488149146527843, -0.02561119236564652, -0.0016629662388112938, 0.006805785793500215, -0.0023237957732712756, -0.020820838081880393, 0.026624306083805022, -0.006356162625886082, 0.028655555976098104, 0.007106667092289156, 0.0010741480873916024, -0.02205694913543352, -0.010329612742156487, -0.003300396573123764, -0.023458303380526922, 0.010738244972923873, 0.04771971623982046, 0.0034774604705017508, 0.00973516245190926, -0.0011002503697176906, 0.014508996647440197, -0.019586764868304175, -0.022393500274609464, -0.015528343322552516, 0.011465003414542266, 0.02656216645698384, 0.027005853323551186, 0.0015193505431417638, 0.00762187036160309, -0.010305560105755833, 0.020756909719757022, 0.009300064846276214, 0.016252994665534544, 0.0021164976268242537, 0.030475059197690266, 0.0009508617576707325, 0.003389505480118271, -0.0006910495083069086, 0.0008388102183624459, 0.04276632993171049, -0.01189129506641734, -0.009384270772171053, 0.02162168728077669, 0.0004396251318533973, -0.0033808294830560822, -0.006557604508776749, 0.005644110383731598, -0.0076246557634214165, 0.024214064009480774, -0.0006832377955879187, 0.00447282071331979, -0.019766111948383926, 0.012334553131795763, 0.011775735981666901, 0.010043364645884395, 0.03467338271999426, 0.009604928790040324, -0.02182396490701474, 0.02444078918601912, -0.02044926287095987, 0.002222664354121856, 0.021508229258486996, -0.020557411863111767, -0.02407276665037489, 0.059024891985760476, 0.003961201052949613, -0.02201432667176337, -0.0018107374463304602, 0.02604787511782095, -0.014010991428692589, 0.021826474594907223, -0.0025633647677346665, 0.04412622671761652, -0.021602004622890813, 0.0002381196147552517, -0.00968833353903673, 0.026549076394175666, 0.004266527278620884, -0.020182363771895535, -0.017183562672406547, 0.029991554033720582, -0.009772105304897432, -0.03272876981426309, 0.0070100812839422365, -0.0007625097836650983, -0.009193631534508315, 0.003509820799795763, -0.0007780778834229248, 0.03318345319795452, -0.00746932715776802, -0.0005940344138307081, -0.005610150391189671, -0.03970682162881318, 0.0016497921602867504, -0.012791973670981267, -0.028178794935265723, 0.050835682503114564, 0.007988898677967952, -0.04023849883005655, -0.00043490303448710875, -0.002590249213170433, 0.006570423944953244, 0.026183768589756008, -0.007952016458175924, 0.043933636548335174, -0.007174719521850277, 0.0012645111134697168, -0.010979437283736368, -0.001958027698835264, -0.003371214429450238, 0.03242321810061908, -0.003725031898399692, 0.024750028623965182, -0.02330233929076308, 0.0015569719886585189, -0.0049587920099813925, -0.002091876322712932, -0.0066176476316393016, -0.02277104977491252, 0.0318390152466015, -0.024809987279211312, 0.01218431625679313, 0.006385023412586677, 0.016901059154008767, -0.03037879800528346, -0.0011841916969834987, -0.008757756644916029, -0.0007905157854034872, -0.029771626262533213, 0.010089195625184056, 0.011605596710172065, -0.03894740872838635, -0.006945128046488481, 0.012804251409784194, -0.015916846890705192, -0.014028473628292265, -0.0350068177867231, -0.00481900061585204, 0.0055559570584249925, 0.01348890208573747, 0.005781714860715776, 0.00387147168766984, 0.016826108567353813, -0.025658787393022568, -0.025870924136468514, -0.0013574004480043115, -0.0017087556990057476, -0.02730950032896463, 0.0005484977999641163, -0.0003041919091333077, 0.03333919275135067, -0.020116000766806242, -0.011074479881667598, 0.01584747809569172, -0.004521995675618798, 0.006834593250255767, -0.0007997096923076147, 0.010616392171361353, -0.012228956522451843, -0.009843455316827631, -0.008712454255071278, 0.014977396300082714, -0.006239067730509712, -0.004111214521173884, 0.016069992842652356, 0.014963179597985397, 0.00017551570808384782, 0.00833348672544429, -0.037269824505525406, 0.00037642032409736963, -0.020877791314888493, 0.010931657501889073, 0.02080491511610785, -0.005243465958685288, 0.014080663820167911, 0.01338233385221083, -0.04341851331602141, 0.010330246704764198, -0.02229839447298868, -0.02729391336588039, 0.0076508176781868685, 0.009627793134568068, 0.005781949739720651, -0.0012906472109810883, -0.035303944702697695, 0.0087638769622185, 0.005974609550848079, -0.002934801335668819, 0.008402031090931888, -0.01938000338976602, 0.011012091728875111, 0.03362811454378594, -0.012953262745872128, -0.02865822584427495, 0.0011150705420573622, 0.022679682283856476, 0.00478711577993127, 0.004174347091675937, -0.00831541787558116, -0.016964436324440457, 0.01751948428462363, -0.007761938748998689, 0.005162178420935241, 0.02240955700844801, -0.010825614081285339, -0.011089219722033335, 0.01884595878940401, 0.01663628864170023, 0.01281611898739024, -0.004249864629100725, 0.02016784881705146, 0.027675768534346206, 0.015685768259278008, -0.0032606067261019404, 0.0033637291099186555, 0.00950709643488054, 0.022692678796186666, -0.0050462104725241645, -0.013877353305025684, 0.005544883243199102, -0.007123852060292611, -0.0099936362130015, -0.02601967331210493, -0.01279341047043786, 0.04072511233365306, -0.013539462595499043, -0.0041636646919829875, 0.008059529779844518, -0.0178046327143791, -0.021198581122745426, 0.014146120236947272, -0.007680172151999329, 0.03742584733673694, -0.02211278981373613, -0.01341071237737967, 0.02329926020790101, 0.0310520943018558, -0.019030421657280482, 0.0011148464326625575, -0.00714835828818086, 0.05139082262528227, 0.01004325841556987, -0.004114439821016056, -0.015550747280335947, -0.014953763526276592, -0.017799054735683564, -0.01146411797751357, -0.005194797416156352, 0.053679049405091425, 0.00285984077840644, 0.019031121264454845, 0.0029961225330506812, 0.032318671562482824, 0.010501012342366809, 0.002260133423014559, 0.02912767444701252, 0.05568530860257209, 0.027570597623691517, 0.030537569581290593, -0.010318364508742503, -0.009875152839483353, -0.03745490996196472, -0.00030623704804168337, 0.012363141982031525, 0.0038610420920649115, -0.007850072511529709, 0.0068543668259952615, -0.024656981076455618, 0.0008208590274194965, 0.02168546828034809, -0.010414007289954076, 0.0023056890143670016, -0.010566931420951586, -0.004960416032309405, -0.001643438277749947, -0.02232699748018744, 0.03653064688174042, 0.007269516783013933, -0.01567763496954613, 0.014805669676432499, -0.00514231801551179, 0.03357369184085424, -0.006238625980615564, -0.005986701711168672, -0.019329372477076407, 0.00032717628151691496, 0.0029357114560361027, -0.0025045086331908707, 0.023187572983947278, 0.003061957938185867, -0.009788439298371546, 0.00969805278297276, -0.026934223723221122, -0.001682213791998974, -0.02626612757068097, -0.0008116271626053857, 0.030904266817622567, -0.011626881711146037, -0.0019140751395185069, -0.03685570690643277, 0.02398123809683953, 0.0031697871463471578, 0.009664117800016263, -0.018076382075847917, 0.009338832529624282, 0.003958260398957226, 0.010574051344963505, -0.017355154118865415, 0.010286716618727775, -0.0031141812156904266, -0.011621167669631829, -0.007990480826419708, 0.04002778770072539, 0.012595061315615783, -0.01783996851206755, -0.013519515041289943, 0.03992715297774057, 