{"conv_filters": [[[-0.013941117597445115, 0.01924349572059161, 0.05648340883762781], [-0.0011184127664685712, -0.014654192697420585, 0.06961232881133492], [-0.05017205482024388, 0.0740751744323895, -0.040735893275384995]], [[-0.004116050426368548, 0.050715835667417636, -0.027900511755227363], [0.010467786133047234, -0.05815887539852155, -0.009970028150286631], [-0.06822116778713072, 0.07889532507904787, -0.020106019498685335]], [[-0.04748834372949088, 0.04257857332644452, -0.05550196828593859], [0.09289914352092704, 0.02203033112139495, -0.08770816865298413], [0.06780038957312219, 0.056119885578773544, -0.08887452486557205]], [[-0.06921832735601958, 0.06869842455294481, -0.021430436213050616], [0.031415992263654, 0.04288697100708739, -0.036303956531644255], [-0.03056401482422702, 0.021407893991021016, 0.0752283716111049]], [[0.01381555458597272, 0.044140097713877176, -0.08043808930348602], [-0.03689557722666223, -0.08753871466192387, -0.0023656967363323593], [-0.05576816598010413, -0.06922144789049897, -0.01494243993254647]], [[0.06477508987080773, -0.07871292857593523, 0.0923721078208041], [-0.033680239865119824, -0.037752573181020474, -0.06495117534338964], [0.05508699274145249, -0.061367334442627285, -0.06353221149618297]], [[-0.033479193192194605, -0.05346951729303162, -0.02876105007872148], [0.08137735870937035, -0.05839260025444827, 0.018504595329610445], [0.03325430795889347, -0.09853280431486591, -0.09225127978995826]], [[0.024336905549489325, -0.09045861263678048, 0.06072324459568029], [-0.06405412703173298, -0.013967587125659967, -0.06698158113463619], [0.06517263614292344, 0.01442546298792274, 0.07063474212852264]]], "conv_biases": [-0.00022004676412110496, -0.00018295431150405647, -7.673917452997782e-05, -0.00025118035630252914, -1.5077091968493745e-05, -0.00012219700772012182, -3.530068312895991e-05, 7.463929911912322e-05], "dense_weights": [[0.0219807756823637, -0.0007884805898522117, 0.007477291864512033, -0.0006807891065372594, 0.01563301675923868, 0.0034138858932305544, 0.01749824625255281, 0.01852709625335426, -0.003590797769764466, 0.019412758094606512, -0.021055897623245334, -0.011087219024401837, -0.03052903119687401, 0.016100853236372628, 9.372170502255789e-05, -0.0052096165847393214, 0.00015019179414162297, -0.01704142770896301, 0.0075626664163456194, 0.0335606807189789, 0.012188611650333562, -0.0016696330433757355, 0.017540266058858917, -0.02066015045218963, 0.02129152658326853, -0.02793939507275185, -0.022338794634008556, -0.0019040178193274475, -0.010953646943130047, -0.009936841942166654, -0.0002571453487402975, 0.00759778432302304, 0.0013654407408782007, 0.007539367554101371, -0.017927168416213668, -0.0265038460044196, -0.001112544917789483, 0.01070112894976895, 0.021231807219347604, -0.009343157138453278, -0.015919890391197518, 0.00549435392411502, -0.01113628511671775, 0.037712956373712324, 0.005146315472196237, -0.013625828514084339, -0.010931310855557942, -0.0010169048622068598, 0.0042196683911984645, 0.028180036388478956, 0.0021820839016123113, 0.04141950205556868, -0.011017687397239661, -0.011045407070820338, 0.005724420656280476, -0.00466441378288545, 0.02592546253447437, 0.018831268640736566, -0.0004842130791921278, 0.02075402248459046, -0.009958021985933757, 0.00029675068572552224, -0.01678988539434918, -0.0041157200646201875, -0.024565042148465565, -0.012231979487258125, 0.014869632239640872, 0.021245456014336892, 0.03152476986753816, 0.028883174874491314, 0.012937137627307521, 0.007243507104117808, 0.005306632271843757, -0.005486896228747871, 0.008023296444717488, 0.017344842636545767, 0.014784920740906623, 0.002592857651381893, 0.0012867429650527391, 0.0011503913248554897, 0.0035435992015173676, -0.008107589415068684, 0.020904153318102456, 0.0033614177689555718, 0.005954693188746416, 0.019978593832975452, -0.010390161734190348, 0.004653435324469314, -0.02832284180129556, 0.024767739527163962, -0.006521194910515499, 0.007887222215555375, -0.005765084332350576, 0.032596747828715765, 0.019024640798675305, 0.0030746226629332113, 0.0018723941065027817, 0.01120352825579741, -0.0029587969697588462, -0.002276080168966736, 0.00011602638022013874, -0.006626148811963406, 0.015886963214602777, 0.009292127618665248, -0.017968248346995157, 0.005160549116086634, -0.008768980146204496, -0.01568049438406904, 0.00963321056632127, -0.0241473155006817, -0.0013474435445657228, -0.004515753251573798, -0.006906520878994337, 0.003537256908477818, 0.005686932119124324, -0.004069787712483735, -0.008844739841018594, 0.008753795554252814, 0.020736422757437152, 0.0038377477571313835, 0.009500086893678598, -0.006218756503556745, -0.007021244327409536, 0.012074518907170264, -0.00039747037841006454, -0.009788125739680872, -0.011799453615271144, 0.010584611545373197, -0.014819888134768065, 0.012717496641548266, -0.009659664192561833, 0.004497420964079689, 0.002501304672971617, 0.0007932020826400968, 0.002248176482801378, -0.00931500462928211, -0.01223163407509067, -0.008121515251265636, -0.0035924220948160388, -0.03820540809463162, -0.01971966874413742, -0.026765191376974473, -0.004285086040339959, 0.005520331354925342, 0.0120474217303311, -0.021105752687988567, 0.013897292941577922, -0.004780162041500739, 0.014263586386852642, -0.02754329172998674, 0.016064462593268273, 0.030296077059277955, 0.010246464743147195, 0.005458511541282086, 0.022420763384001886, 0.003430572903505039, 0.0019473353723654218, 0.043319795097270075, -0.020268379495665744, 0.0018835423740067303, 0.02283665929663292, -0.02352582513135204, -0.004679382524545514, -0.009749011733659267, -0.010548223044769307, 0.008271653436247653, -0.005216148013752394, 0.01643560286216398, -0.018649130223784765, 0.026443341796232842, 0.006253330278972936, 0.018032267833640914, 0.02131720719750354, 0.001858351584749233, -0.012856603178250789, 0.017708672336612316, 0.008602087645492383, -0.007669665929302333, -0.009005781834832766, -0.0058013647767273194, 0.020636014455331215, 0.005899605963940365, -0.01956755191418653, 0.011065451298128446, -0.00568769692549006, 0.026479299522838538, 0.012576664193421063, 0.0070894523338122925, -0.02104267648530096, -0.009615857071845918, -0.011387951131828276, 0.0032417664193795702, -0.021050216686864923, 0.014483812357499758, -0.0028399868378878325, -0.015378816947827207, 0.0002964274794111298, 0.01531813888601969, -0.010168410422833167, -0.0044401680457492035, 0.011710213809210045, -0.0015380181049017413, -0.012900683769498721, -0.019574697276752047, 0.00668905916213595, 0.0011988990005317249, 0.011335443022433249, 0.03302898752408773, 0.01567855767224799, 0.013429248534639468, -0.008013513900675425, -0.0180969648413577, 0.006692647147670802, -0.006003096458712078, -0.02623085565530287, -0.02752373408543386, -0.028409982738348986, -0.015906666941595867, 0.014312372434238782, -0.0005244619390229227, -0.019600813337327078, 0.015124660863747792, 0.008400219187194267, 0.02366193187794043, -0.004464443513730138, 0.012652214732079675, -0.016184915786793267, -0.013276929381652935, 0.009876622654359, 0.011169185889955167, 0.02556009212043342, 0.024953703199855518, 0.028173146941241685, -0.019812671346491485, 0.007899478995408025, -0.01714768179320845, -0.01677873968251016, 0.01877304333024187, -0.03856673668123879, 0.024002451407722534, 0.003372927139352482, -0.022709272942218032, -0.00020498336921627, 0.017031888512232685, 0.01039861608962092, 0.005594734800689578, 0.007872542677619151, -0.049122248131064514, 0.013672273869505541, -0.020426451592148103, 0.007223805094634704, 0.013450668313677461, -0.006120468440935387, 0.004298055773333707, 0.004769956594389873, 0.015845235844342668, 0.012392060349901667, 0.01659225668672078, -0.0007303998082427894, 0.0005365889929860118, 0.004278525930728119, 0.008270431574182438, 0.03563268459760762, -0.005089166935463613, -0.016446416139238557, 0.002561117281649935, 0.01013326938287663, -0.007459977110057036, 0.01562512521006701, -0.005934687606868525, 0.0004345486736024571, 0.007059896966024663, -0.006764267044368579, 0.0017215734747250693, -0.005873932525161067, -0.009744065146062023, 0.023953204872137795, 0.022763498186091444, 0.015881900684845632, 0.0010101935602910119, 0.015232576854772256, 0.02507382667417333, -0.0023902697837575905, -0.047058299694815786, 0.01081429987846168, 0.012278940091020644, 0.020321114007347842, -0.009418082944942426, -0.0010459128200992016, 0.014443323173801679, 0.00086623894036449, 0.007144286404660508, 0.02091215263483113, -0.022526484605262014, -0.005657191481079407, 0.0014949227874784731, 0.011124028855553955, -0.0052127468030286695, -0.004178832941446846, -0.01918474729356316, -0.01824812621705419, 0.00449001126455205, 0.0067601697318917554, -0.004185279378118564, 9.064989377944641e-06, -0.019199314901099513, -0.013943960682192136, 0.011225512044623505, -0.010479216284915589, -0.0033429069233122635, -0.00859523690848745, -0.02515697207577196, -0.005843519193054507, -0.039469928292756216, 0.03147838335367208, 0.008708766244129345, -0.012706429873424789, -0.010643756806062693, 0.024483273461881564, 0.02754499078198223, 0.004733627290420029, -0.010117166825806866, 0.015977091089047386, 0.019217486516718375, -0.012211589772864623, -0.022987855458092794, 0.016543524751530748, -0.018574766029533413, 0.00992969990352672, -0.02368294304379578, -0.007376311481460711, -0.004163328064459933, 0.008113522198151495, -0.00010914084337389398, -0.00657931615777234, -0.004964827830386256, -0.0058615447916069196, 0.012388497752696005, 0.008242368439604924, 0.020567192226199474, 0.0007912626651901217, -0.0023521227946304638, 0.0026342313195856903, -0.0008055990631173289, -0.013124880160331661, -0.0010566177612572965, -0.006713731157173274, -0.007533961735355767, -0.021055740089132146, 0.002003314448257861, -0.007922457508853802, 0.005871956809422088, 0.001135991386181288, 0.011717240360555428, 0.0016747642001499758, -0.01741191848613536, -0.008376345296337202, 0.012454829097211885, 0.016039979017638945, -0.015953786100211174, -0.004876975765798964, 0.021360960946, 0.0032437206078173883, -0.0005034813184567907, 0.006895215340968919, 0.0111585554446202, -0.011359031593241888, 0.00688374815897054, 0.012996615360908646, -0.00195501670369907, 0.007272740782628125, -0.01993311435057338, 0.0038990628911062947, 0.018069381636425356, -0.011762362458707348, -0.004083561662874859, 0.02631868777339434, 0.0030623811971624685, -0.03422240847435196, 0.001048893302929861, 0.015494054627941067, -0.0031625553285736033, -0.005313500301857144, 0.018537933758895803, -0.006785259925136843, -0.010431163947314026, -0.008702727005387573, -0.01793427027981264, 0.01487452506328659, -0.014490003347977669, -0.02824014057508669, -0.02624061915112583, 0.0036638294818958674, 0.024700402519668596, 0.00332828681506353, 0.0009760834953017018, 0.0014423533494555565, -0.004738707239531113, 0.03218925427479076, -0.021287133149041154, 0.005401616097586231, -0.0003715811574617675, -0.033709499218548676, -0.0033066138773984884, -0.03392482156883084, -0.0001413338897737597, 0.00039377870426737457, 0.0033092455579702387, 0.006246996184209584, -0.014550310142307859, 0.011184603470451278, 0.04299905018787518, 0.02587234502993475, -0.024867628684324832, -0.02176453023161571, 0.008708203524008524, 0.02468620506396986, 0.005268161491999306, 0.022352858630277094, -0.01420360483279087, -0.005523995225610166, -0.015075455101700897, -0.0139579116208974, -0.006997410577442314, -0.005865846220050824, 0.01917399625385206, 0.01481801167047406, -0.007896088753411993, -0.008353659694196368, 0.010979925466128623, 0.018340874466094118, 0.02177432900061221, 0.010454918449175017, -0.005643353654010741, 0.018808052472808385, -0.003137109136772357, -0.009240113043912186, 0.01584880392282305, 0.02777320432351721, 0.0038136678063795423, 0.02663322173149382, -0.005519340948970788, -0.0025621308916784135, -0.010095412164322623, -0.02041263985224752, -0.030474559007718987, -0.034709047000264295, 0.017088418341673, 0.018653723525548033, -0.018907264152827948, 0.0013881706864410403, 0.014577182142335216, -0.014868403062723357, 0.02421708885144384, -0.0032884112711649427, 0.021938312984040736, -0.01862187008509737, -0.008349898620290598, -0.010421303800706081, -0.007540220364177622, -0.023781842793593248, 0.016398912806885567, 0.00630685658077151, -0.038125501950371135, 0.014220494666044784, -0.012967483482153885, -0.003187337766740284, 0.003766710316407353, 0.002616144181004927, -0.002818322684131725, -0.007527983423969335, 0.013060883404249397, 0.012736184676679203, 0.004198054336668968, -0.020374809201687542, 0.025330216524889735, 0.02017576103310315, -0.02912321128791345, 0.011138834527315306, 0.022342497567239043, 0.01859543311757105, -0.0020038783070080285, 0.0007007726879287736, 0.011208614669076094, 0.022248941058122574, -0.004816541491807895, 0.004061884070303536, 0.0016839051061671318, -0.006015361497506999, -0.0031310224729051207, -0.0258719101434128, -0.0004080354797506762, -0.0035408827783265633, 0.002583962302269561, -0.016520236167410735, 0.0007041856089057483, 0.004463610239907706, -0.019901563577062166, -0.008597469015541495, 0.005202796784687357, 0.007988902597000566, -0.01611340098620159, -0.002589538403453047, -0.007565989680095952, -0.001939154802890806, 0.004374104435154364, -0.0018551829179142098, -0.010514030947244709, -0.0105819752771028, 0.02308040515324266, -0.022490056407313056, -0.002110459641649428, -0.01331704952698906, -0.0215623723082, 0.03459832303626083, -0.0008137686680623097, 0.0005029043903999145, 0.01772846655268973, -0.001352690303149654, 0.014886016990220973, -0.01760543420758751, 0.02108858503823293, -0.0001825500752490972, -0.015650811017300377, -0.004731206458405874, 0.02062717154999311, -0.008256194043190153, -0.0224627331006013, -0.0046591382961031335, 0.005641616448108591, -0.0261002337576865, -0.0014726431246416055, -0.012558681502027602, -0.023085952576728457, -0.001006318664973311, -0.02929421001499303, -0.012674997934525119, -0.01888981756151643, 0.01963463300040334, 0.013095373819922863, 0.019188548749959802, -0.009913755558119918, -0.016170526206908172, 0.006513704256191626, -0.005960625470417169, 0.010380441450287442, -0.016167884025266543, 0.043024505619189704, -0.011593876825215853, -0.005960419657685977, -0.03144565641200385, -0.010897349455966899, -0.003926335810671228, 0.0068954211685334004, 0.01086529679403659, 0.01117559743877714, -0.025896061445084235, 0.006358905861919358, 0.008713724961468057, 0.001376315942980864, -0.01088624169861535, 0.01196919625013149, -0.0016705374196929492, -0.04824185292886367, 0.02212820631932076, -0.0034518847807856593, -0.024530205815966207, -0.004962156415947672, 0.010786115316595568, 0.0022665758082870196, 0.0008805731982377295, 0.014790691235860827, 0.034376521868318306, -0.022129054791996755, 0.003942700924646495, -0.0024102099430351083, -0.0033730870313408473, 0.022994411364308454, 0.03280058955236773, -0.003933495317562302, -0.0130640921167347, 0.0021457573262601507, -0.013794278819576561, 0.002774275153503439, -0.015498565458221553, 0.004928564278859691, -0.006804264757333035, -0.007578428599238706, 0.0042124408489427655, -0.011514476591371907, -0.02458169168060569, -0.02254517290429516, 0.02355497570610003, -0.010091805344814112, 0.002367750681483981, 0.0073458663153541165, -0.0031066738512299974, 0.016550878461993837, 0.02489856508479188, -0.0008405574296560151, -0.0015620777448829106, -0.014915760820119655, -0.024901770745461273, 0.015689565617609535, -0.015068979329656021, 0.0017037235803910808, 0.008841646496209865, 0.024385117446645798, 0.002824628051046131, 0.015572226295720687, -0.021274048017246874, -0.004783257010873252, -0.009504494423607191, 0.013397789879578874, 0.017037816629402864, 0.0027592008220098324, -0.01229251309009045, 0.0054654614479005825, 0.008023752182865801, -0.01893817250098123, -0.011360217628892078, 0.009122041640017325, -0.02562789157766741, 0.0124400233044203, -0.0131096004039786, 0.0009671550840333448, -0.018090255520911022, 0.004741262638392768, -0.008021771902468241, -0.022083404760327652, -0.021644254259332966, -0.010241217044223979, 0.003562546879548516, 0.0068302183718735, -0.032302058918919074, 0.0024735749142732154, 0.007387956384033341, -0.023307464151435267, -0.040059684776383206, -0.004703307909658021, -0.03157183070402149, 0.01593994378929121, 6.06082051824489e-05, -0.011264911925875967, -0.007646211735861751, -0.006468532927453061, -0.005763730149861903, -0.007484158050725917, -0.005926624044423295, -0.028555436360242978, -0.0010699521453177568, 0.013818043119184787, -0.0019061913350006, -0.02683294864095528, 0.024830685528200235, 0.007160977982290856, 0.008508979326784061, -0.04352693127492663, -0.009478166407262139, -0.003848240090737655, 0.00705263597180226, -0.0158511637705638, -0.01691853577117327, -0.018409661936886694, 0.00744157436362732, -0.021627791970793696, 0.004552206983030384, 0.023273719721749242, 0.026946953661941962, -0.017026909492141012, 0.018792359560313228, 0.021511506347165074, 0.0610263721246075, -0.003723461028610572, 0.01015735057378318, -0.002553328374205946, 0.005681983383468147, -0.015600974554580645, -0.011909548357314934, -0.028243507437170374, 0.003414308213843643, 0.0064899307133364295, -0.022707843998810755, 0.012343089284889764, 0.0013750394021293392, -0.014621448481634828, -0.003348955762217679, -0.0008312299988765096, 0.04463663085493143, 0.0014062654277319552, 0.011227341364693524, 0.008860299613608439, 0.02091795285702179, -0.03366061992852776, 0.0014146228553181773, 0.0051868952868223675, -0.01951830564659946, 0.014484554279405185, 0.015094811755440257, 0.006343053184826187, -0.019219544743744293, 0.017873006286036264, -0.002589280097525983, 0.00417872192242091, 0.005960406840787227, 0.004175052739602488, 0.019552971448946296, 0.024686837421123407, -0.0013433708241348589, -0.013145999735557261, -0.02374236651476054, -0.0033170444999699226, -0.008150987378651794, -0.0005045129408297764, 0.006985840297146388, 0.005828647423783016, -0.0004769299498039802, 0.022221122284331773, -0.018325282565987575, -0.012840961367386172, 0.013003465753350377, 0.0070501553550845805, 0.017058446589816856, -0.008742149912928446, 0.02205153321536599, 0.0010008476888974317, 0.016570844190622033, -0.009344065966268396, -0.0023416869279795824, -0.007098930530207342, 0.0035325259105238476, 0.019227985907423313, 0.02246902179368674, -0.029793550757629173, 0.012470271184843585, -0.01063362903156942, -0.010200069073488981, 0.011511763363616569, -0.013572098079580526, -0.002526497844970614, 0.005009350267531154, 0.0071871711138523555, 0.012526678901339646, -0.015590956556766079, -0.012429206954346163, 0.0074000673762473585, 0.018804434273730193, 0.009456056198342985, -0.010998089426366073, -0.004517319925329404, 0.018980524316608027, -0.01658923250771977, 0.005611872764527925, -0.027747416651781313, 0.006681781115159774, 0.03907684679990981, -0.003973197879680522, 0.0009645037476227812, 0.015499331058157569, -0.008688732407589682, 0.00993516601660138, 0.025264048022128, -0.00022865077350707672, -0.0029468353722722786, 0.01623623459812018, -0.014304822280849712, -6.894348357267261e-05, 0.013598529666510551, 0.010473749196277214, 0.013388104807962781, 0.00826529870150767, 0.006787538775120514, -0.011338164563808836, -0.0017801812359194685, 0.01183760287985312, -0.005036709216704873, -0.012905235705839327, 0.02013867024370845, -0.010681494445112093, 0.002640613048393883, 0.013006291348885859, 0.005340820881610602, 0.01123513284588657, 0.00696063384019151, 0.009046738560405193, 0.01009350589783467, 0.019702825374940145, 0.0014601777751055444, 0.010419030727804836, -0.00956378402750446, -0.010817577817430302, 0.013974642256344342, -0.003513317973943573, 0.027384053342084026, -0.024427648051167795, -0.009809161067211207, 0.010249835612757266, 0.005631716339822093, 0.004235158263406118, 0.014487842230733584, -0.016724133235806744, -0.01732845394274425, -0.0006105809593411675, 0.012937647099153406, -0.010629220372392448, 0.01170583296071893, 0.027551498168079863, -0.006652106679973115, -0.02148577317818488, 0.010930011803523857, 0.023038735868881274, -0.019705834493156583, -0.01143810584449611, 0.01794989189302449, -0.0009514979704939941, -0.019178004910825143, 0.00194382283874984, -0.022070304544917478, 0.013012865126294704, -0.035036691456872215, 0.005508948655830087, 0.02520386484755808, -0.03302968088681718, -0.021351356678866264, 0.005859427003977105, 0.014760483993275807, 0.00630391366581395, -0.018478373581408542, 0.009056372578881559, 0.02668870945662286, -0.029302587845705306, -0.01801786212971937, 0.0015070024266610681, 0.016464518379686953, -0.0068230454840695915, -0.042489365364234255, 0.009988477412380807, -0.03315691635793607, -0.013260487854741402, -0.005812129036556391, -0.008418340123162896, -0.024885339307982358, 0.008566631224245874, -0.016962426404621513, -0.00592851451996401, 0.004622044621778212, 0.010836195355485594, -0.009464244222060266, -0.03571950350201865, 0.018078257558806467, 0.017202710251739046, -0.007832093892034693, 0.001872204312000791, -0.016751850493217615, -0.004564236596294072, 0.01874824851279403, 0.00943575949970548, -0.014261124798891592, 0.01729665040009083, -0.016808578119918288, -0.028015589262801215, -0.018031580107458246, -0.01991890045544595, 0.003539186157164875, -0.0015949724504656412, 0.013857290766588088, -0.014568287185995557, -0.011149215748122028, 0.0024119379447911774, -0.00907792728993638, 0.010589345527368964, 0.010684930826825584, 0.010140668045288325, 0.012475053789456137, 0.03102537094977105, -0.029335899622421096, -0.017960318903642268, -0.03291851008208283, -0.0015441966663941463, -0.03681846601497992, -0.001597348142521829, -0.0160605804040252, 0.031020181683946418, 0.003101059848222841, -0.014612924242174113, 0.0005754168029060459, -0.005250951090426349, 0.007333160019830387, 0.013400709394480865, 0.00015122741916210445, 0.02713971788411255, 0.01351257178864551, -0.022960355901386873, 0.010105681663303058, 0.005776541132827435, -0.015065142812166492, -0.014158411604001477, 0.017502284591072267, -0.030671474698835313, 9.891653298399112e-05, 0.015601505426244023, -0.0009965819284895408, 0.03806967560043851, -0.03642939808207592, -0.0019822060209283925, 0.0042228379224971465, -0.003515940180444731, -0.013193387589839177, 0.00022774632906878272, 0.0087281180462494, -0.00031242728996149356, 0.04848185637499489, 0.005908670007546603, 0.013976535656758519, 0.019985049234851837, -0.012009260951106453, 0.024601408323554994, 0.006064064485118217, 0.013024401554924288, 0.007545341556102313, 0.004256444977868289, 0.011650880700318516, -0.004954510275518942, 0.016678819843048722, 0.007018481882873517, -0.00879265259342666, -0.03886862134483116, 0.002168430989527495, 0.01784474038168586, 0.0032784165005483945, 0.016635975997456972, -0.010119615322234316, -0.0006877539084832997, -0.005480770775933001, 0.023648911437331648, -0.00792345871135615, 0.023832929222095057, 0.020459834739283613, -0.0002604078137251101, -0.013423022724309015, 0.03186131570064777, 0.038008016453793994, 0.006318643256765089, -0.02426260670047429, -0.0009479092554724525, -0.005217568879203256, -0.003560630049281326, 0.021567505910961463, -0.0031900382229195956, 0.0401927831436163, 0.0143863691274035, 0.014036773480659783, -0.004460339665611145, 0.0043685547190620245, 0.0065735921777264695, 0.0008781065929341431, -0.0201457065979762, 0.007181143136602343, 0.018744196228981564, 0.011758908457381334, 0.018666133904864025, 0.02200801104060404, 0.008155108937076615, -0.020131927612246647, -0.0022652372179454918, 0.007239526826666835, -0.003142840102092517, -0.01738919032538242, -0.00790415007703434, 0.014809413421219011, -0.0129569987210589, 0.012044794080188687, 0.017613316081572815, -0.0069125028125403614, 0.018178283856311945, 0.0018967590287691392, -0.030859664437727266, 0.028162283943876057, -0.014450581193797624, 0.009832625673072986, -0.02053730363605581, -0.021567366739661326, -0.0005767560382356681, 0.0031460225204680056, -0.024597459899940322, 0.005542611514300434, 0.01816030096794413, -8.920511011574562e-05, 0.0015353569098886292, -0.01703014781447695, -0.02382515506610556, 0.0159066108057475, -0.0063925193070846, -0.018598044726008383, 0.024791236682451034, 0.0035894935952844064, 0.013434299834830273, -0.013973558217107784, 0.004787658304905771, -0.002864615007223808, 0.011530247978698945, 0.005459988141893854, 0.008621413864785684, 0.004171953634432123, 0.03360481198412063, 0.01583462708402479, -0.0030086808244532224, -0.0034091396627026396, -0.011510911221682928, 0.015106065471974899, -0.012213474043956788, 0.003989086512466552, 0.002406492445481689, -0.016206886513707757, 0.019738015218080114, 0.007962207059534336, -0.01775175304096606, -0.028896399537088474, 0.031237788691273874, -0.010588478138089795, -0.007483133307217168, -0.00392393934085586, 0.003888785030508717, 0.01120606819242826, 0.02058525685089894, -0.01990834134758011, 0.013480986480860555, -0.013178621100511156, -0.0016112305422396759, -0.010699988980850767, 0.018628323726115826, 0.01351174411273561, 0.011886265792271793, 0.0009905617582821487, 0.006130988454671598, 0.005384864851906804, 0.013863215582759686, -0.019266070361186657, 0.0032026523833950872, 0.026271490187053253, -0.00965026118099538, 3.281409090055438e-05, 0.004769926892770465, -0.035021020802961905, -0.0022412476659898818, 0.013499463827378603, 0.004490205042727806, -0.0017244530005361414, -0.012890904284895817, -0.018192364969311894, -0.000516810971572591, -0.0010645124706452807, 0.0003382299868213272, 0.005930149053166596, -0.011582512612483893, -0.010345403279407516, -0.028859792965587418, -0.008772309675190125, 0.007406003675391733, 0.001937292221609713, 0.017467486360391558, 0.014794908555308317, 0.002120053839849621, -0.017004814448221515, 0.008695092443113173, 0.009495540702148999, 0.01842557614459426, 0.0006096179102699521, -0.00436117954771664, -0.004198938013204552, -0.020509656812159622, -0.02522015209629104, -0.02729209147424196, -0.002291528133125846, -0.010299949853944553, -0.0063391527177166195, -0.0030969782566078502, 0.013461004004917756, -0.031510050791878096, 0.0030315712221835735, -0.0035239004664930273, 0.0021690769101037695, 0.006493257479120646, -0.011462598579534656, -0.013673509390913488, 0.0041121208827313354, -0.010002403370772494, 0.013348172778215936, 0.0051663900034331816, 0.011577653290998904, -0.014115545185267654, -0.008548355942817937, 0.015835498306563254, -0.00415804250124085, -0.010729373014611574, 0.022273232835508295, -0.0070283817544209825, 0.00965136852268033, -0.015901283482709062, 0.0062567700834449775, 0.015855088751283528, 0.0113685418133283, 0.014331722167584385, -0.031547358179567164, 0.012218431793047123, -0.02200884987024579, -0.015499246317973354, 0.006196267111786866, -0.0033683136071600006, 0.0032122872077475673, 0.003169510015394725, 0.004782116774753683, -0.006455685639217947, 0.034536480556850456, -0.004087007908188806, 0.0010449494511239248, -0.01979053503794204, -0.017834700602729993, -0.023622531465198642, -0.010176929510990916, 0.0270236026354847, 0.005828274906735031, 0.026388846637021696, 0.010736434092891737, 0.016796283050898645, -0.014903320477555767, 0.002574498782153786, -0.01927220251148152, 0.01944906470587626, -0.01182842390134433, -0.018126790383742906, 0.014497869153031934, -0.006997452680109932, -0.0069381699753423565, 0.0070320459734366965, -0.015569179719201158, -0.020285392174898245, -0.008043819689086762, 0.024011220191082854, 0.006038691197504579, 0.01729932257084656, 0.003570538742480789, 0.012818173015609823, -0.007223511518963133, 0.003110622304675362, -0.013982584333810433, -0.00353088227875998, 0.004283681812793729, 0.007230946964667539, -0.029362684826503792, 0.008644733585763132, 0.023034634080782376, -0.025053647405013698, 0.01566832333923568, -0.003372331426009835, -0.013208651057215486, -0.007011454797418651, 0.00026194074162945745, 0.0036882783349528794, -0.01287793033433329, -0.007905763051507936, 0.005622272681384085, -0.01997023434384551, -0.01695586636214136, 0.0004697137437057745, 0.009208413041323464, 0.006483450992773132, -0.0402300443502109, 0.0031610050242749706, -0.01126747829116103, 0.023706814258010335, 0.0249133335995758, 0.003006988056679613, -0.015462920151538924, 0.004004216825465991, 0.001082019330249242, 0.012400142022675484, 0.0056598889776332045, 0.00346102935152163, 0.02230500553333823, -0.01750419318709698, -0.021002728039962726, -0.009217512736709252, -0.007913577428017488, -0.01455771086563058, -0.0074561593675069185, -0.004819619650797211, 0.012092095522785874, -0.03755425957059375, -0.03526232450709571, -0.01390528071237819, -0.01005416771319162, 0.004390679621493598, -0.01906175610031764, -0.007082783304841293, 0.008979546025599677, -0.013565290102521681, -0.0019243251046616979, 0.019697421259987337, 0.0001330126151693174, -0.01632203991450721, -0.0036574891050292044, -0.0016745835779730489, 0.01311850269651438, -0.034136430765167425, -0.019749759898615007, 0.007301750410282779, 0.00018478119322017737, -0.01923601324572238, 0.003778507090506858, 0.00605744198988533, 0.0036698016451663664, 0.03906433191323689, 0.007488804166450739, 0.00019597815063641456, 0.003900089964492829, -0.0034504452515791385, 0.009314950841441344, -1.041869592341455e-06, -0.015551341651213352, -0.04556870709461217, 0.01871511683319872, 0.005591834577943382, -0.01425298861954312, 0.018079754958567045, 0.0008262543617455797, 0.003197929653297229, 0.024989014601940057, -0.009406971892216766, 0.00988613082511435, 0.007593555657175163, -0.0036961218514856144, -0.011972216770377204, 0.001608686343868037, -0.017782511971455982, 0.00035553649486091, -0.006155270024801016, -0.0043142055118048275, 0.001413678015547251, 0.002777065688077657, 0.012136940825736181, 0.007166931403731541, 0.008867323187173178, -0.008085019155488532, 0.026922615374832377, -0.0023038051107473053, 0.017569842330016357, -0.014203095959860584, -0.02394319500529213, 0.0013906845393117499, 0.01849605996408206, -0.018741605065063012, -0.004613794760414175, -0.01933403382989315, 0.004250416041419203, -0.0248529660256798, -0.01953770509154637, 0.018417211460462993, 0.02334222101456841, -0.002079871140818327, 0.023257289265492143, -0.010907377256172607, -0.030547568688228798, -0.010757617020754206, 0.028109168708761352, 0.007368725469279351, 0.040770990269071716, -0.006895069931702843, 0.002780767711192313, 0.02170153574804986, -0.006828517427357115, 0.03432030514914633, -0.0004586635067259159, 0.007977741015019467, 0.005295453586497355, -0.039960261832775915, -0.01859406769453276, -0.008228717832913743, -0.000354691958639175, 0.00338940786919943, -0.0070282133420135635, -0.0026962215408338616, -0.010286191103947444, -0.004314099308738717, -0.010135508383085476, 0.0029321914904152807, -0.04395325665041726, 0.009497511529416698, 0.00847000448986666, 0.013238432604801344, 0.011678655076813068, 0.00336116958657316, -0.0009425490208816025, 0.010409360116557027, 0.013454520962935743, 0.02785160215409257, -0.00017566051498935445, 0.028796375726961285, -0.027863265207144997, 0.0036701431192833205, -0.005970279315542637, -0.018148522753362605, -0.0030177689648132424, -0.012820849413008711, -0.012625125843450265, -0.0010911441860496469, -0.004403277551813845, 0.013275782322214035, -0.01827011646325877, -0.005382516675188898, 0.018252037811111507, -0.008367719180773482, -0.02889270076085048, -0.023484082116009195, 0.01600536029477394, -0.024540969711801693, 0.009292843608835437, -0.003382468419686434, -0.0030611203514375723, 0.009217693529703827, -0.01793056226222866, 0.007186040830143154, 0.01934446132487082, -0.03067435671564723, 0.0314827046941245, -0.0018495783611037662, -0.0009972764181278178, 0.003500516043063871, -0.0005297107867007387, -0.007813370645413252, -0.002673673683981228, 0.015656318637102325, -0.037560873620813805, -0.0331174196660571, 0.00589745677944638, 0.01646903335061031, -0.021233942814385363, -0.004013421324661671, -0.031469941535400316, 0.007440047260429814, 0.020413789147164095, -0.0048005798225827226, 0.002953203592158625, -0.0026507057326824587, 0.007172248258131543, 0.0010154930903952012, 0.004658447785702313, -0.023189121130626867, 0.004548085632562894, -0.003948389190764074, 0.014872292643278828, -0.03453303460319737, 0.0045061294217750665, -0.010312685014548111, -0.0034720166008046257, -0.023670655354781227, -0.01331087119205908, 0.007300368464899052, -0.010914572632472383, 0.0009099861915962306, 0.01448877643628219, 0.010042684519119896, 0.0040454506577769665, -0.004263936640397337, -0.02257788974997861, -0.011404942154985533, -0.005749994257967431, -0.009882974381572903, -0.014098903617380117, 0.02807266407224107, 0.0019944004461603343, -0.008291820915675914, 0.002330993477827028, 4.4469998631758745e-05, 0.007744709203419293, 0.023731137887356788, 0.0022388448113728776, -0.013745349072351429, 0.00042634086280924873, -0.003009641058098462, 0.013083951495775474, 0.024722290040469917, 0.0207250100421433, -0.025353308463757333, 0.014710740611002075, -0.03916921641660854, 0.013960129088272792, 0.006024924381574397, -0.0230315476590886, -0.010082766312885393, 0.0012849746654994784, -0.017999774450352054, 0.023779978658641357, 0.023113431387393496, 0.0051909053604948675, -0.017433392207415136, 0.017065813289523737, -0.006917705357019547, 0.0023656465118279406, 0.011994359614770984, 0.0001349635368092326, -0.004955655141302733, -0.02168560203235493, -0.014643495022933849, -0.0089860323157509, -0.028439944361357737, 0.019896963182698978, 0.006268107204872602, -0.0045038115849790365, 0.014312192707901962, -0.01816526257512856, 0.02166545650511566, -0.011639869597985046, -0.014061236902965365, 0.03086590679461292, 0.042347829963346344, -0.019162871839935185, 0.005156847348979532, 0.030524660058884868, 0.00415377417490737, 0.018755655067653663, 0.023320924753348297, 0.027344739334476485, 0.010141365805972087, 0.003929918697946815, -0.013675757964229871, -0.0027134436949273213, 0.0018348596232237143, -0.022039618621118574, 0.029321685828080174, 0.01595912769361997, -0.04062571473788225, -0.016311912454732378, -0.014921227135188286, -0.011696631047285378, -0.011641326735922018, -0.010579355848450623, -0.011139341869381989, 0.005721931452094658, -0.025120821441597076, -0.012753112044793392, -0.0012394130804330543, 0.0009847120878447603, -0.009709034902623601, -0.0017311066393128746, 0.015121408163158085, 0.023202150612923706, 0.0019381904423431573, -0.0011307364797192786, -0.010253578791628429, -0.00025928074276922175, -0.007229524598640892, 0.010756061170134876, 0.001763837099526889, -0.015329357515017511, -0.01636946060553672, 0.0010542758366009633, 0.014355705304637563, -0.0029919112569911205, -0.012902710977297959, -0.005020484382852558, 0.005586545075411612, 0.014356048931126505, -0.01966821234283865, 0.004603694029274068, -0.0030288846161129275, 0.011880169873831399, 0.013614926675782965, 0.0369120907741269, 0.006127938966015913, 0.007689016881701802, -0.02834476689610359, -0.0046296574521001695, -0.0001271802730638755, -0.022376346507438943, -0.009953293438030102, 0.02518572713723798, -0.013296117648690138, -0.007814954872466515, 0.03784840308610548, 0.011127368601475339, 0.03182008280889363, -0.007030843584724857, -0.0025805697110761337, 0.015761665384696845, -0.0022320582403735083, 0.009967111381394448, -0.014534950139025138, 0.005353666511492838, 0.0010868857690034463, 0.0013891552540406089, 0.0014965119483335869, -0.020341647035610443, -0.009725633608705495, -0.004138254733629158, 0.017688440853737306, -0.016313582779293716, -0.010277181878338799, 0.006081576390954218, -0.007230000438322019, 0.0007363693947823667, -0.0036555330020664, 0.017282446754216137, 0.025194921326814536, -0.0066666290303129426, -0.004093941483972934, 0.013176145395254876, 0.013938734225966276, 0.01144496575097532, -0.004954580049691993, 0.007464032324991339, -0.0006406488356295778, -0.000680063081381999, -0.006145426196351288, 0.04340586104871307, -0.0034041123113665514, 0.00217766697504089, 0.004657737358939685, 0.0034443166227723252, 0.012897704886764208, 0.010323031938480734, 0.0006717839231389096, -0.02118944949172929, -0.01908593793852478, 0.009447910982749042, -0.005666665849149466, 0.012835265804731325, 0.0025594234942906036, 0.0015044510757129342, -0.001863606716653572, -0.006581568366484113, -0.0077291423414178, 0.00825686957608451, -0.005449798997307552, -0.011890344221505663, -0.01426797746626202, 0.0029455617499894618, 0.015528018628463725, 0.01559034393726004, -0.015175613017436156, -0.016510242947296246, 0.02520831227383043, -0.02114876809129908, -0.00824078996152649, -0.00034175652795184644, -0.015347038630672355, 0.02976604792467762, -0.0040430312913792505, -0.007404480422755417, -0.007555865765325832, -0.005840959570880095, -0.02724508693220913, -8.673986151148177e-05, -0.004224666437005247, 0.017200328930180198, 0.009824026474586803, 0.0055384872194240075, 0.023721499627444367, 0.03524543530737374, -0.008127040705993854, 0.015800598632744595, -0.014883873262320031, -0.013003033724498687, -0.012677913307046318, -0.005612506025439268, -0.008164829588392307, 0.011565908062320737, -0.001731826449071847, -0.006843095963664581, 0.010309339904586948, 0.007935385939817545, -0.023445821253814017, 0.024792981584890437, 0.0025811854439356905, 0.03355136990367834, -0.0014605319680817937, 0.009237650475209061, -0.002802954097177506, -0.024990669487138073, -0.023783142577346546, -0.00014384674281272097, 0.006761275225382636, -0.02157506129484169, 0.026963187947168538, -0.04657089302114122, 0.004433469049372884, -0.005713140818602491, -0.016435333340439878, -0.013330177404634954, -0.016472349150689847, -0.012709689541724736, -0.0051248232404636305, 0.006740008533176898, 0.0033506660763342054, -0.007041267206599369, -0.04423368731950246, -0.037705469267677455, -0.024084577372602257, 0.04456926424279127, -0.000993351835271077, 0.01389766890135285, 0.01340060307386624, 0.01281917460162008, 0.0136163742509821, 0.009664678564367491, -0.012134895450812555, 0.019829429247096072, -0.007943322222476895, 0.0019060186611773887, -0.0050397076693005525, 0.0020941943099654684, 0.006397915036038372, -0.012934051352475004, 0.02480954145024618, 0.017334904433222286, -0.012541543527616968, -0.008105058982532857, -0.0061223297865352026, 0.016989469720656566, 0.026214017309221484, 0.014083846867395689, -0.006247992588468277, 0.00969141103044081, 0.012142776493828618, -0.016398348938254394, 0.024714998468754783, -0.008787151187834215, -0.003245833132298326, -0.04444178151656058, -0.01183484048591825, 0.004326112841141739, 0.006618270022431916, -0.0044147190678752645, 0.012763480322331431, 0.021698052241989573, 0.0015370598997157894, 0.0322790214584635, -0.00749051298908538, 0.022000423779516984, 0.006803479698039531, -0.011317774440612638, 0.019995908794263082, 0.01887205634908192, 0.009765740576946994, 0.01886454581472106, -0.020895521635919574, -0.011726936348614334, -0.013466225846526911, -0.04284877432167404, 0.007539157645879622, 0.0018493960734611847, 0.021379337685758507, 0.014854764455438808, -0.010278474706898248, -0.012290460558956723, 0.02570479225196624, 0.002247179967279467, 0.013544474775327412, 0.011121155085237368, -0.0015702191775492516, -0.016619330596387608, -0.010056014497629896, -0.01718916956994441, -0.006258079695864322, 0.002849117731979674, 0.014082887654918804, -0.00536692682189868, 0.0375125007822503, 0.004360061878270261, 0.005679355951003504, -0.010534508886269658, 0.02823619630086109, -0.0057039851649764725, -0.005633204455552873, -0.013090414626407665, 0.015468398422902992, -0.01563363187056053, -0.004192445715388629, -0.011608462880122255, -0.002048319620349606, 0.0035317929714600515, 0.001746996059461062, -0.020189947410615916, -0.0035934087219972287, -0.005720063589384603, -0.0019188622108882358, -0.006709996647953794, -0.00871731175932647, 0.02254037868914209, -0.013709656345026763, -0.03635590411127386, -0.010535845450896248, -0.0003934305393431125, -0.02752926553828839, 0.02338877885914164, 0.017568860697327503, -0.0182150945605008, 0.0035818956842703187, 0.03187723529586085, -0.002987092322963861, 0.002982530496457962, 0.02869135052312516, 0.0024292483541071518, 0.010995148494811315, 0.01367840844140107, 0.01367256680471414, -0.004608612898074553, -0.0018695331156237443, -0.021578982646113975, -0.01775273906642594, -0.01165336190965239, -0.020252175641950695, -0.011720899042753516, 0.016552176047904505, 0.015351427004926685, -0.015374633459459826, -0.0251759082882286, -0.018785440942444075, 0.019518934151113793, 0.01054324115443598, 0.023155694125462305, 0.0040204063603652765, -0.014981991139157401, -0.0055561816118322145, -0.019597919105612295, -0.0458740569342026, 0.0033863794116157746, 0.017633479677182845, 0.0038574565506002832, -0.020218124126674425, 0.010997706376800366, 0.012320888730302761, 0.002656110074364094, -0.012961928542539839, -0.0080823574633147, 0.012985186818812337, 0.030729180803846505, -0.0080174719240004, -0.010253209203648368, -0.0031090933966517213, -0.01870903753294209, 0.011164027079621323, 0.011518197961321351, -0.0021195032441919436, 0.014094774957236145, -0.0016043208138154183, 0.027056099866556143, -0.021350766522283616, -0.0054540677521592645, -0.008474475631742006, -0.017048481705267602, -0.006763158619330878, 0.018798563209028143, -0.012388047594443008, 0.010524586470419876, 0.001261107519208044, 0.00015589848436978678, -0.001522607176596633, -0.004397420730681846, -0.005290761691154854, 0.015187251657192005, -0.009203144264298054, -0.016099975947637457, 0.009254383346200311, 0.019650819937215555, -0.00946807239329961, 0.000768479465973222, 0.019764787925603156, -0.019211724558738107, 0.0058454725975302865, 0.03145536296621711, 0.0023152431222785803, -0.0022388243545712755, -0.024836101364692404, 0.01245910509636957, 0.0002565091825012767, 0.02920509577123637, 0.005020994189499386, 0.0085485390924393, -0.014111837832801368, 0.0010891183284075096, 0.003969810100321781, 0.023041102870944716, 0.017530745255098772, 0.013723491622089502, -0.00787642155036071, -0.02553605482113513, -0.011697408402878522, -0.016272058600101204, 0.00784528286407448, -0.04442229014311865, -0.0030422209066173025, -0.012772331504210211, -0.00549969612520298, -0.006924012776413326, -0.0013255951051600661, -0.0047498041129870406, -0.006099238644791963, 0.001401260873414713, -0.013383482901221225, -0.016440780898809106, 0.011901057179632048, 0.00829009622629371, -0.02514845343215783, 0.04585772188458109, 0.026150006030410445, 0.004906569416284634, -0.0063244696068742836, 0.014513979695160377, 0.008683832583766931, -0.0006987855935127706, -0.01209354654286004, -0.009137108232106667, -0.04658472957390836, 0.005504611705959463, -0.002781768576004198, -0.024988736940024046, 0.015147306628452496, 0.009957742500051122, 0.02441464396909779, -0.0005984320267042767, 0.005622563656129032, -0.013686457283937258, -0.023828134930851296, 0.003588630661145241, 0.0065052105490774805, -0.007641865978895541, 0.011111568444563949, -0.006936256480920621, 0.014066984470618951, 0.01115923497914548, -0.019972293234032486, -0.003991261565632992, -0.02148458818904587, 0.0036357488431967154, 0.005380033460572471, 0.021220801701443283, 0.00023950410740442756, -0.007085658640464536, 0.016504169139853232, 0.00456321955234479, 0.0023909856622522513, -0.020169654603380147, -0.003250366290053992, -0.010948724248818108, 0.019423470303251766, 0.008962657629144522, -0.010886597818075881, -0.007408210467090008, -0.008097009029060874, 0.01975266487869372, -0.0005650034066654309, 0.044272573592117524, 0.024947347824252532, 0.02603852375203169, 0.0023744569760209564, 0.0011806138004911365, 0.0021516045113394665, -0.027127014804081587, -0.0068169863070534666, -0.001674894700624329, 0.020969753190335037, -0.0487850985829138, 0.003003349487604479, 0.0029592327252584453, 0.026552571756024677, -0.017541028963130815, 0.001198688848824843, -0.008909505094151183, -3.531314103953972e-05, 0.019690033673133746, -0.014755177294513554, -0.005002163706640342, -0.0010708121981384, 0.0056150356651059235, -0.002450559381178679, 0.0025939247297372702, -0.03369080418026537, -0.014464242317171453, -0.03134417807395623, -0.030565482123581594, 0.00042906977823360833, 0.015551140319244663, 0.0004918542759225709, 0.007240887233396351, -0.006701331984247238, 0.023616796064602624, 0.014683851999952067, 0.035343940340006826, 0.023789045405506665, 0.025223901919133537, 0.011823480870371115, -0.006727173389439597, 0.016210351692994455, -0.020723715750359667, 0.010770816101585739, -0.02526171197634096, -0.00236867344199254, -0.008704339863606065, -0.007707989517638615, -0.006590989015523965, -0.023023480271045886, -0.002832472639257745, -0.029587525539254228, -0.012271253974121843, 0.005959259398959935, 0.01692265039335312, -0.006652922346309472, -0.014087083995107478, 0.012785194265191369, 0.012762062464015267, 0.005345508225148683, 0.008920980392540233, 0.003405415270659269, -0.0027251583319758597, 0.00629521914279903, 0.0016297610925624065, -0.022374214684544667, -0.016943757459797357, 0.0007366101928753024, 0.0167490705894712, -0.011804558393095306, 0.0197001130052901, -0.007850495451300397, 0.017870565050361987, -0.011707453595240967, -0.008400411011903449, -0.008241555602259963, -0.0013963463841993851, -0.03604979455527673, -0.012671626910824876, 0.009530536242810542, 0.0009797459429868151, 0.027632963899453054, -0.005088113396031325, -0.0226289144835166, -0.030624211386725393, -0.023719577463344015, -0.0012252272432712364, 0.015179385432064957, 0.015820000776300528, -0.014442135845384174, -0.00012100295163267704, -0.01748923266310732, -0.026906735835676727, -0.008155964331365836, -0.0027498451913779746, -0.01209416537786364, -0.004025888052329245, -0.007799172804355156, -0.01400455466173105, 0.01680257778393915, -0.030458574919079915, -0.0054529875454459855, 0.02911208154117794, -0.028525413786083538, 0.011665233396469344, -0.003023354836980422, 0.016813399895724935, -0.005823238509522137, 0.016993722747480778, 0.021079755030152088, 0.02442631461783759, 0.009146472204899819, 0.011117896548622828, 0.00877652869331706, 0.005590763346355839, 0.031168539794048957, 0.005662589566080469, 0.0061044567326027305, 0.002268306169370421, -0.013352524157755799, 0.009215646546897077, 0.012612474417837085, 0.02019569108373306, 0.0034659320036764694, 0.007621757170797834, -0.01401191187493644, -0.025886874749222688, 0.016780109999528395, 0.008943537407771726, -0.013911033890588896, -0.01717162821687781, 0.004974391130150927, 0.004492362870037721, -0.01449200970433175, -0.00406579209445805, 0.009531221174657448, -0.012124672505170027, 0.012673751740567582, -0.00474940863681966, -5.0229144571850744e-05, -0.0023137175718205977, -0.009465336447145832, 0.017126802582528727, 0.00822394428854995, -0.039606899397414574, 0.002033536457071568, 0.017533018583819875, -0.014055938805168255, -0.00245812550726224, -0.007816053490789137, -0.02808932870736206, -0.01694379105922027, -0.0016673792988862169, -0.007159285747404587, 0.03627138282309206, -0.0027814581201387545, 0.008368882456608169, 0.017961860622235, -0.005260344245968447, 0.009632518812393066, -0.011564612032537997, 0.015906491689574653, -0.030272553419981123, -0.0036428696022792785, 0.018118612865542852, 0.00782963685872376, -0.006357603169309316, -0.04150202316218606, 0.007963656955282864, -0.0032131523509037105, 0.019604736748950826, 0.009976325871107923, -0.02011727295105432, 0.003658210430070171, -0.006276296946556332, 0.00514223274266998, 0.003292045938397271, 0.0027332454649079446, 0.001325986838310544, -0.014945059932424261, -0.007996091573123225, -0.00874716335748922, -0.017265572893863636, -0.01596396287798437, -0.03043314318246339, -0.005930464967430539, -0.007451754451166517, -0.03377776604658862, -0.007416156526276891, 0.019123490485167056, -0.00565788853559887, -0.021533609473502437, -0.012124098431491587, -0.0006796177957578831, -0.016799335674783367, 0.02861416406619361, 0.003655087333424786, -0.03076864531245683, -0.009989240158827484, -0.003393759833021597, 0.02168232154479687, 0.00722726996586514, 0.019471673979189974, -0.00858829524810483, 0.017303209022978876, -0.018164302051227335, 0.009073171053831108, -0.007670123124174413, 0.006102551135767011, 0.005467468911038392, 0.01819929607299221, 0.01148231703207576, 0.0006597044516372836, -0.01591078738157335, 0.009527495206661985, 0.023014119177959598, 0.009232794103722472, 0.007353455251736152, -0.003772147953840456, -0.0023991927588007597, 0.012025863696232205, 0.015293930832199609, -0.002508698289504636, 0.0033219590572955895, 0.019578427852738597, 0.013981972481172587, -0.0007041652099991363, 0.0014190286701652867, 0.006467725215852398, 0.004514394802561863, -0.017577024583659662, 0.01963111808185169, 0.014750545925079572, -0.022918089523662075, -0.02227249547049552, 0.007830583163557189, 0.009557210571490561, 0.03181614542879352, 0.03385103710799604, 0.009201133046999542, -0.003573520040396111, 0.002752848919424242, -0.02161968904643876, -0.003340801823341949, 0.01500271099831765, 0.0031651669909232905, -0.0017941978429064868, 0.014318215719144281, 0.03890854573092713, -0.001326355421990392, -0.03961051980923207, -0.007920418571934897, -0.01938029777586365, 0.008586360404100617, 0.00032678794657650364, -0.016483051477596593, -0.021929692414191505, 0.014509825647636773, -0.03586069582604698, -0.01697516863434488, -0.0018443938401898857, 0.03478942163038654, 0.011881559259461752, 0.005177456672928499, -0.012809486548233221, -0.029034601771169653, -0.002417076647479811, -0.016765445516829763, 0.002907156165948303, 0.016986583522957004, 0.003992660237895853, -0.016606432635156078, -0.0042803493413508704, 0.03137491486486586, 0.021342546926686856, 0.013023247562211113, -0.013464564328396803, 0.018516773931988022, -0.021548002597429162, -0.007362168690058643, -0.007521969613247613, -0.014260448327435653, -0.007519398229743685, 0.02262131586449734, 0.010102788068619065, 0.00039960244896347354, 0.007326096504851823, 0.019552703484016953, -0.00010848537080760633, 0.003049642301977143, 0.004492708175591351, 0.011384420825460838, -0.011227051198736543, 0.02665252118187119, 0.009687314388946834, -0.0018242225186206648, -0.029609155531791893, -0.0036842808257022447, 0.009071690163122325, 0.010243384478157324, -0.007649359475906934, 0.011282095458220988, 0.005734920419380081, 0.009247872239978685, -0.022904353176018594, 0.005763161967037829, -0.008205067298019085, -0.020402189768263388, -0.013843233747990468, 0.02423925665999293, -0.018216787911300956, 0.0026233909460706088, 0.03212082741168534, 0.0012038696769844817, 0.03444177957993778, 0.018473761821955197, 0.00987035556880761, -0.006279669984318007, -0.008755638097423524, -0.020075928367618897, -0.014799187282270572, 0.003642677028776784, -0.01695918382635124, 0.02161025116434522, 0.00361733107873742, -0.01107826304814377, 0.010889080586747996, 0.016009268373951842, 0.0164857601744794, -0.005487274312940228, -0.016284335236419967, 0.025512320539788823, -4.1757270098787446e-05, -0.014629714466589045, -0.02448100450187361, -0.00839672442601474, 0.015624259438218723, 0.004160801829370934, 0.005711861149931983, 0.021931776833566563, -0.013258406746807234, 0.006313605909648873, 0.03215242444563557, 0.007178672791680838, 0.0010264196188723928, -0.030176264106048196, 0.0019446667129650597, -0.010312562624700036, 0.013587762004315091, 0.01273376880794773, 0.017095546272734182, -0.03566745205451224, -0.0024465359602721527, -0.012916308028990865, 0.011691313480911283, -0.0013688508715007548, -0.008985083066122284, -0.003338875908532018, 0.010162916689847512, -0.01708341878746069, -0.001466353643765111, 0.03323004107664489, 0.008570320919489505, 0.019536155564838065, 0.01906676663597261, -0.017271759870491385, 0.004043593350206645, 0.035501531925640414, 0.014623959792188557, 0.0005671750920563329, -0.01737105367949632, -0.03178256681105659, 0.005338090656989719, 0.01119586539988449, 0.012490048613587363, 0.006148595449757933, -0.017335520173998687, -0.015404495376032005, -0.012590232717880371, 0.035694153897666656, -0.008267084176169818, -0.013915186788674299, 0.019491040178888336, -0.002576756899205312, 0.003964248389478637, -0.011958878311210348, -0.019535225038910756, 0.017739529820964807, 0.008559539577127448, 0.0034833052869308687, 0.006478668486435049, 0.005343766477458186, -0.004909247680430435, 0.0015461663465233142, 0.009592765677534767, -0.002500653425515012, -0.021795344785516934, -0.00604026415257724, 0.030054720531445776, 0.007930479225674058, 0.0005273841352521869, 0.006398184111116384, 0.00997470986516709, 0.0028534803154854163, -0.00985599252946128, 0.01185558873353274, -0.020534167274733006, -0.008981359528238472, -0.020185966182234276, -0.0012409285695416867, 0.0035727498187361636, 0.02569522320410374, -0.010437086328503894, 0.0068105535295421085, 0.023221469882755887, 0.004972918573616171, -0.0132510550510903, -0.00185352835050652, -0.021208745644053523, -0.01784830897714901, -0.0014150987952693793, -0.011535902731178339, -0.0164603612465433, -0.014131206916144421, 0.004733343557513535, -0.0190818694413006, 0.005626203152070225, -0.01053390730979906, 0.016698907427512663, -0.012735078743936987, -0.017683364655477832, 0.012210775989050984, 0.00874895183318106, -0.024912213643891377, -0.018770537697047052, 0.00928210926995626, -0.02468393521265077, -0.02887100568952455, -0.010590636370290259, -0.005420234869569141, 0.014261862165542543, 0.015798407886482554, -0.0022801293460930024, -0.00915636375968359, -0.006569082233166973, 0.0028730007812946433, -0.0005133997658898677, 0.01580220333513201, 0.002724785456564961, 0.004314390153025772, -0.0017597409696195477, 0.005474966904603686, 0.013705506683273699, -0.019450458502816258, 0.02161083059481712, -0.008374961913328162, -0.009676441247531717, 0.008732562136753426, 0.015311751805605275, 0.00974011272751628, 0.02832994419513791, 0.005902930691261807, -0.018231984935706283, 0.01057607009069869, 0.0023196454155972246, -0.04099893673928418, -0.024792076585818845, 0.033327593920819854, -0.0023768621944444597, -0.003828580062216408, 0.005514098683907134, -0.005575991306792566, 0.0004576220838374707, 0.009321007474347236, 0.00440578094922407, -0.031703440856239794, 0.012800788239390522, 0.007092973708768927, 0.01698458771231646, 0.0055037246135901715, -0.02165465894186347, 0.011017138747063417, 0.009365679707616833, 0.008643717501898652, 0.003004345020681047, 0.007867583273120603, 0.0015801758927478596, -0.009319503620770012, -0.0043879600620255485, -0.02235986326285475, -0.02309219844444196, 0.016366606443611275, -0.02394305382064282, -0.015981102294107045, -0.010096814900621805, 0.0004084615133548841, 0.0007428218476972602, -0.001161962151127083, 0.013315194030552046, -0.0138099179229027, 0.009517375675014263, -0.011925070641733974, -0.0011273910489452395, -0.014696908092478965, 0.002551800504674744, 0.02190210147487255, -0.005335713672019893, -0.0014495700858779567, -8.482864125090187e-05, -0.028341496756155524, 0.002051412076651811, 0.0029666340607156913, 0.011907183245003955, 0.0050372377006273695, 0.004504901837497542, -0.02288940587423818, -0.016100435435635854, 0.0010978132030680613, -0.005578227877056957, -0.0059712972036977075, 0.005771877860327893, 0.02930381524676957, -0.010968304630135817, -0.024009714173149215, 0.008686283279177235, -0.005602068511978359, 0.0071613556283989886, 0.030430001262511042, -0.012724314522995772, -0.048262252518103343, 0.001710273218351635, -0.018441486429443064, 0.006239096501383358, -0.010322922568455527, 0.005712550611045467, 0.04181951024734393, -0.020962027787556695, 0.03583830822676811, 0.0263312554686849, -0.015904766503887995, -0.015974182022173287, 0.0005924970793875835, 0.015278955254343328, -0.002948469918989774, 0.015028841204139547, 0.016590219321925653, 0.009236314722145237, 0.02210273513880674, -0.012478234292986428, 0.013234130710348846, 0.015635106612123067, 0.007836549051889283, -0.01616748384207918, -0.009881787446315831, -0.021801886872337126, 0.014159065886311157, -0.032980575895853084, 0.0050873283116371956, 0.018805655957456185, -0.010556821537399492, 0.012303284286014786, -0.016757709274639633, 0.0031417332201524755, -0.01829252958485503, -0.009117780571052244, 0.008447495557483323, 0.024612688160295007, -0.018528055228663826, -0.00661480780170302, 0.003608084705703279, 0.01319660118820885, 0.008306644264951465, 0.007128844703327787, -0.00490139026133852, 0.01130522074253362, 0.0007989971039631604, 0.018903829626501802, -0.028524611486534443, -0.00476785637774912, -0.01528467608389595, -0.015074310232846774, 0.0038703902269426743, -0.007402541703905184, 0.013565711658507049, -0.010542470578508652, 0.018419073475694134, -0.017814166250054858, 0.033770239881224996, -0.007297131778898801, 0.024524432639285398, -0.012109473664173752, -0.02410388188490927, -0.00653940612683227, -0.02670650467492075, -0.021280047302348736, -0.017766804088797394, -0.02980812558617005, -0.0023290304162207373, 0.018715406434061013, 0.005677896405192768, -0.001485120945093905, 0.022359780325888257, 0.0005572743832392913, -0.008008472459632985, 0.0029548063832710927, -0.02810547709820567, -0.011082555276167323, -0.021915051075360785, 0.017654991952474105, -0.04081902067011185, -0.023071316945706744, -0.005582396452004966, -0.0211472827733727, -0.020885579974793563, -0.002546422584756822, -0.005322308850714272, 0.019312982029541834, -0.04025122704574459, 0.0238164660307579, 0.011216326531906936, 0.009870391486333965, -0.016724601670277228, 0.009325043927830526, -0.0035192237622728483, -0.018333369854151085, -0.015430077197959172, 0.0075143758711370395, -0.02313256288955923, -0.020687339065922013, -0.019479998929157413, -0.006906583714984272, -0.0009593540452157616, 0.025746331629846617, -0.009229067179810747, -0.00012525268744232514, 0.035135236579500025, 0.005409222146565684, -0.0011208860805498322, 0.003963004324514768, 6.016307507767918e-05, 0.006528671953815466, -0.004624562533862758, 0.0022972389187003272, 0.028098164742857916, 0.009982535990048218, -0.026114932688037572, -0.026574713882311807, -5.563997042145111e-05, 0.03909344987432208, -0.0006656067885456844, -0.017673826707694358, 0.00806231477371408, 0.016532016961044418, -0.009419828429256928, -0.022699278231564007, 0.0063973848752172475, -0.014926588136611133, -0.011786764704729861, -0.0176544006733573, 0.0018158479366512644, 0.01616180147627559, -0.011095428344158255, -0.044877974563746856, 0.0278657240338811, 0.024014552336508066, -0.031924840709677355, -0.0109771569778593, 0.010116092745539323, -0.0034949701401260596, -0.00886870915291423, -0.030593680187011137, 0.010660563051712056, -0.02300942222958081, -0.032969986710828174, 0.013579701999555346, 0.023585086771211638, -0.0027469474244876456, -0.014633445873820676, 0.008462545582689635, -0.005403164350326534, -0.0013115728400202946, -0.014965798432829329, 0.005598524793737241, -0.013625804952595981, -0.017622517285937757, 0.00241387862411693, -0.0016363881019791793, 0.0033593824415126816, -0.0037530886966643073, -0.0047937080808487815, 0.020989971220581497, 0.027461454773445897, -0.0036536229030054864, 0.011510286526593257, -0.021523268818678422, -0.018588065653636316, 0.012812772564223592, -0.013274359495913303, 0.020312412617000102, 0.013916934990585644, -0.004393237821704436, -0.009750891451264976, 0.012443081605901365, 0.0027106556544123825, -0.004671059467287215, -0.0018355512428311458, 0.0020116448031106864, -0.013618301281816797, -0.00441251572649636, -0.032512938430726904, -0.03094485138699963, 0.012737073141502426, -0.014572928618641129, 0.010900994690871768, 0.006940939310675217, -0.016188299236119634, 0.024201188214111886, -0.020208199934724305, -0.013214850208429416, -0.009148671226900806, 0.024875578567736888, -0.010284001997581515, 0.003844481634343991, -0.0034230739351366586, 0.023351763045028867, 0.01725296010067339, 0.0028321111601239102, -0.007911675346416415, 0.02279547465321988, 0.00560036146857863, -0.014422403829786198, 0.017075790862836487, -0.005578018504402593, -0.00917343308128413, -0.01641513340394494, 0.003967688585250935, 0.020594165118849633, 0.017008617812949097, 0.009745203260029745, 0.0017169444327034594, -0.008052247153861556, 0.013003883480301971, 0.01625672682386369, -0.009361906754879842, -0.01667357482046901, -0.01630653804337852, -0.0046356040426244645, -0.02667999751585251, -0.01330608168431924, -0.009616256704735579, -0.0044240513317175215, 0.0280465729070662, -0.0025298617142728557, 0.0016274017269730786, 0.019375370273212122, -0.0250995884517705, -0.0008457278432844494, 0.0019608988253584053, -0.022102856036545854, -0.03206508155125733, -0.046936725707016895, -0.033226289298220406, -0.0037706908972789882, 0.013235276477771797, -0.013933016646186342, -0.004748387319288783, 0.004335033480580516, 0.008489372552285287, -0.0022861420705658454, -0.002130013262763333, 0.01026030477049708, 0.0011266190064291492, 0.01366892283276557, 0.011267585825871021, 0.004037677123457038, 0.015927245828206996, -0.007065823938892902, 0.029399313019682214, -0.02162218765416326, 0.005613820027144899, -0.017530828486842065, -0.010632466969038263, 0.0042740642633956995, -0.009633373252345818, 0.014758576708118728, 0.00158618608906022, 0.01186583597022519, 0.020915996780626268, -0.005096022737349903, 0.005493607168811331, -0.022465171413244438, 0.001387364278117148, -0.008548778370419499, -0.021215964077670273, -0.005320512296104074, 0.010028377977053655, -0.042274323652838536, -0.005094101566357894, 0.011809297671106986, 0.005833217385124508, 0.0251561876247973, 0.0009714064138787222, 9.453413105013721e-05, 0.012936223827565546, -0.019108634746424772, 0.009827708855854454, 0.019645435234932524, 0.012478968202534826, 0.018245527392398795, 0.004094007312282782, -0.0035396477644834353, 0.017542072643176986, -0.005471284025861707, -0.0016864040717312274, -0.006900731279255857, -0.00036160429716746773, 0.020663453230515418, -0.029262410620957323, 0.01913109081315809, -0.02076460166298286, 0.0035025117437016934, -0.00937654564448518, -0.018586894797134778, 0.00610588516633609, -0.014134887969196187, -0.005768305732696644, -0.02521500096153905, -0.002873061317122744, 0.0032994659542328803, 0.02415854519936285, 0.01749629259400471, 0.014171190791214863, -0.00882282203670781, 0.011577354725852938, -0.008462474205520973, 0.0035363803270598146, 0.0051747341597921034, -0.002932783743052626, -0.024100334885763068, -0.00303125272073117, -0.0005099850111183585, 0.008624415394488908, -0.003964400281422677, 0.0077121961725233204, -0.0009475074837708992, 0.005185595517702548, -0.008349495317209155, 0.0008773527124222083, 0.00545525072263957, 0.014053613245261267, 0.016110976371342272, 0.02502933972039478, 0.0012699415115230886, 0.009245676045979442, -0.017691028568175744, 0.006515310549553115, 0.010261641307066608, -0.014786000276340696, -0.0049420372591556854, -0.008667236104156961, -0.007871663953076575, -0.005004621200954999, -0.021642783593658076, -0.0039448911546867286, -0.00436415810845073, -0.004146409362295205, -0.020759452316012388, 0.011225642023063814, 0.02575632631711281, -0.01654831335547481, 0.013765742939608028, 0.007339334688548337, 0.006336135618229746, 0.015558512125570289, 0.016313607580022316, -0.0007093834053927891, -0.0031543507285840865, 0.015253285683755457, -0.00838943409922607, 0.015045294102615965, 0.02181284581719282, 0.01140235841378496, -0.04348463114271975, 0.02641771656208591, -0.0075263033577116405, -0.0004605478340396777, -0.02333530456618133, -0.002496975615770659, 3.585527371712031e-05, -0.00014757622627932176, 0.02616390732078449, -0.0054227382178063084, -0.04066762151674545, -0.0008889858382905375, -0.009691668911624459, -0.00423653775169006, 0.004727126010065795, -0.01133817064056486, 0.0157430058865722, -0.018049752106606823, -0.014819664994798976, -0.007955378133997253, 0.028890826019271305, -0.006057591504055827, -0.0034979133092167144, 0.02755584371855159, 0.03376570001867438, -0.003534367192146562, 0.0016522126264558214, -0.01838859416510449, 0.012842602939625377, -0.017523826318326226, 0.010614669036571855, 0.008290915514615724, -0.010290078159557473, 0.011663915247911915, -0.041439704886100874, 0.003853467742534127, 0.005456613916147941, -0.009514667933880032, 0.012923489146413692, -0.004270377548170971, -0.008254074716715272, -0.02308102194568082, -0.0033129710550800972, 0.008337408563336614, -0.0016245083072276558, 0.027327682341411426, 0.020508220625498553, 0.01644329429543688, -0.0010129698753032171, 0.003603224208432742, 0.021253637299005406, -0.03373840290622202, -0.0086966308526552, 0.02146424384540228, -0.025772493102719073, -0.014565426562751265, 0.03376336906755982, -0.0088496174013748, -0.012912598574244495, -0.023615203606358444, 0.0036432976799801583, -0.005321754701261645, -0.009277970180847143, 0.01998867761928813, 0.004706718312919921, 0.027457253341677687, -0.007253259338177813, 0.0045558379730158485, 0.011652250801472001, 0.001967107062978438, -0.021626430615901353, 0.005487082517498764, -0.04744878083839969, -0.01700334326043895, 0.02492246525548211, 0.015605938420316686, -0.024403923743873335, -0.017638949184508052, 0.0044283926079267955, 0.002381473815215005, 0.018835402162634473, 0.003565903820624099, 0.010740445160816786, 0.009076831566441294, 0.0040232665445455625, 0.018947181862637812, 0.0005095320472264764, -0.0011427448765767467, 0.010060438583238279, -0.011790422101429544, 0.007412118749521929, -0.009585342169856376, -0.010995474150877496, -0.012616220924426887, -0.00626888714495011, -0.011677266982453612, 0.0232564656370735, 0.023294075270266532, 0.022893271542010655, 0.013842097251088951, -0.0009389743780216351, 0.01569719439523134, -0.0029595517182381065, -0.01307963078320392, 7.223911436224743e-05, 0.019649782944009143, 0.021758128058369824, -0.009408582845423936, -0.0013517352271431838, -0.003832502095275401, -0.014235824354203078, -0.004949604476915749, 0.01668569546586697, 0.02154394638257331, 0.03147192920633103, 0.011474349161357632, -0.03150946217233091, -0.0057299288746834875, -0.006908133895251448, -0.0279365606042556, 0.008885235219435938, -0.012962956642637607, 3.0046591405837866e-05, 0.001866858276088259, 0.005294727341669657, 0.009061591954994666, 0.008460530569709721, -0.024865670320308418, -0.0025506951344128324, 0.029925520776318916, -0.016739661993059544, 0.01611749804220578, -7.00334140561036e-05, 0.001505581192653371, 0.01832585507896606, 0.00023013065684716723, -0.014914366764315352, -0.002221825717084191, 0.04045697073159225, 0.006407361508544248, 0.0065235009498376085, 0.02117575324984963, 0.009761314985403294, -0.032701514741513886, 0.008711236570296555, -0.016430908478789502, 0.00991545243052071, -0.01686765482155169, 0.0015243272171192278, -0.007695530693425605, -0.029055436760757062, -0.01474783442329419, 0.019671872211294045, -0.019859064144927854, -0.031221238749017173, 0.0036768880345119893, -0.01454576086066876, 0.0004722754269286617, -0.008528276083754676, 0.01123764325859726, 0.012439838058415536, 0.0072085110691972295, 0.015700373529302643, -0.014845024199929937, -0.022589290964452117, -0.026650745714672165, -0.002092271981303934, 0.02652345554058982, 0.005351332853626699, 0.01959445264929506, 0.019494211315762764, 0.015059474475317967, -0.0055323751864455265, -0.010811894228426768, -0.011133702826404567, -0.0023692296699576163, -0.0027960941270317864, 0.012035572847981298, 2.4173006942993583e-06, -0.03159037252020775, -0.0114073709979051, 0.04093264924091119, -0.0181227812563189, 0.004427510798760833, -0.00408369941048816, 0.006495520860734269, -0.02805665967834968, -0.018550110510227837, -0.02652668554228071, -0.006807240280141198, -0.014426825219901015, -0.004594764510970071, -0.003892673133427004, -0.020519747355191225, -0.019889902704344535, 0.013632753219783276, -0.018566251999613377, 0.022104490100831084, 0.02811551779440611, 0.010238491901527957, 0.013092742536407107, 0.0005870637765306605, 0.009633107768860581, 0.007072245859738424, -0.006911596938539187, 0.009689092701196535, 0.001902579061244718, 0.031237575451543185, 0.007004394949299985, 0.0016821261923252887, -0.0011033272765629126, -0.008857629476902848, -0.003240479875549334, 0.009820046513928453, -0.020732239959211876, 0.015620456223055041, 0.00098995085641295, 0.008178797605401791, -0.0006340795373883802, 0.0007763920446132781, 0.01537816575011278, -0.0020047360962580354, -0.013273978086025796, -0.0049110376663603445, -0.006293256990276714, -0.004382220886623539, 0.0032612495357770745, -0.03935744962188937, -0.002235881134293492, 0.03617604013840678, 0.006293200463283328, -0.017021898351449932, -0.005717724208607025, 0.028826492365619412, 0.01565262843844142, 0.007075284228107569, -1.1329013257265765e-05, -0.017202059981636677, 0.006543193588048589, 0.010741481902372629, 0.008866465716944837, -0.004269749991560989, -0.02530416357016585, -0.01037075192968712, 0.006676590470763552, -0.006109381001034033, 0.014965445653305843, -0.0007252622859971351, -0.004283768262127994, 0.0003100913357881483, 0.015785802783063522, 0.013905749612085287, 0.026555883883790255, -0.02596267755741835, 0.002059668585065244, -0.028195236772900777, 0.012473509656504069, 0.009633322184874187, -0.0014762334902414765, -0.005043585675016377, -0.015757003786083527, -0.020458547210588807, -0.01734441985878341, 0.04212632027391484, -0.024631210829970773, 0.001491887183137661, 0.01631488836304049, 0.008762633677814761, 0.008334562730164008, 0.005340118030666959, -0.016112512457878727, 0.005514231146022905, -0.0046830558701452755, 0.03151224977834991, -0.01749465202769712, -0.023650214439362306, 0.009945823878731172, 0.04176195266862121, -0.011173000958150079, 0.0030250557451441716, -0.008250008883320253, -0.026174058269231984, -0.006172110905020593, -0.026661050207464582, -0.006738315819063634, -0.011134518519881936, -0.022145779877795275, 0.035032171943952625, -0.014060589031483633, -0.004544479508559919, -0.030300710605200367, 0.019406352059509198, 0.022962281397920413, -0.008414888362931536, 0.009218694340686283, 0.004211348427950983, 0.03159778201632122, 0.04224409753871044, 0.00020833713928113343, 0.01021965038746494, -0.01962996853505685, -0.012902294779489034, -0.012928309804615266, 0.0007539785068160155, 0.0169694664100589, 0.020565688768149813, -0.01172359707543284, -0.018572705327299703, -0.027625209239584766, 0.0297895491973122, -0.0006922415302352153, -0.04186615018915125, -0.011370949296408164, -0.01075412055904484, -0.02551846970781779, -0.020735162368338632, -0.01017233448022641, -0.005015292752976668, -0.009703395032784935, -0.021496970706328257, -0.003299407463504447, -0.00011766732977352806, 0.01194134882565672, -0.03825367318384912, 0.03142243777014947, -0.022395799701349167, -0.009514691772787484, -0.0063725118304827, -0.005230912027557373, 0.009683700429449583, -0.034236843573843524, -0.020341632482389942, -0.021634892086755213, 0.01124559751639289, 0.03962240018518934, -0.02391038722519668, -0.0009674923744705421, 0.006196909306547944, 0.044142540281393305, -0.012885145186503955, -0.016715319466321887, -0.010127072050358172, 0.014130199867766775, -0.0065138815585320696, -0.012288399817208355, -0.015981931195076297, 0.005288221771230187, 0.00515371717336549, 0.0050824275090339665, 0.0031712274208754035, 0.008890765492931222, -0.007852613398989803, -0.007300606248267508, -0.019923196928950903, 0.010416993315166928, 0.02534945416677585, -0.005336359865782414, 0.006636131210550946, 0.0006268913535293354, 0.006133577214677549, 0.011588789599947009, 0.009325218748803162, 0.03193006561413119, -0.025799252587371414, 0.0015741823213491458, -0.0014977232652977678, -0.010966324089045198, -0.005760733772690093, -0.02323848994469711, 0.0027299178294750534, -0.008546315732423813, -0.003478171870382855, 0.02156784936642774, -0.005885341722894474, -0.002090590470135912, 0.008557752853483612, -0.003470015912959556, -0.002940246933974943, 0.017835304024438232, -0.036201517668012204, -0.004138007396697772, -0.029475801512277112, 0.028405161376196034, 0.008542574737653564, -0.004115422104451107, -0.004101950260435476, 0.019431661095441765, 0.023153735081996914, -0.009904100985243879, -0.0047494629181434045, 0.011766656586491996, 0.007939148496495884, 0.01438986690516401, -0.008383330900070847, -0.02006003328039136, 0.010558528173550297, -0.023445290789542113, 0.012661796978723374, 0.007219569410249261, 0.00949501881680546, -0.019969487984351136, 0.004355338620500542, 0.008033921144344593, -0.00684002841085381, 0.020341972331162427, -0.0010571697072606129, -0.007077655136920988, -0.017530957731430822, 0.0075735742829676845, -0.017700971261727594, -0.004751808916040773, -0.00259557887514802, -0.004446174054429598, 0.007811375660099363, 0.0018265685383474367, 0.0027192593211617486, -0.0001282961745447402, 0.005112881147358824, 0.005011006039625452, -0.0158954441071051, -0.005128703996348056, -0.008104258878195918, -0.03173920793486911, -0.0299178444668681, -0.0064706726259801724, -0.029481859761313293, -0.032455874675048665, 0.0015113724849364326, 0.008521876984344114, 0.004609732760110427, -0.023194142465659862, 0.001793425257189127, 0.023985427867717332, 0.014219555291248813, 0.012042701747367449, 0.01504063342008355, -0.012473143879221068, -0.01827336064427949, 0.012093363793461914, -0.005102680322942199, 0.018115526340173542, 0.020063662047042036, -0.023343494554286803, 0.00603954049911913, -0.003394472452518765, -0.00025330860316574125, -0.0004980379089023577, -0.005540194633310235, 0.025201335347732046, -0.008790604991051188, -0.012127296242232218, -0.01036765947417803, -0.006856275801367916, -0.0022947258973352587, 0.008696516770565484, 0.009406149411181801, -0.03471332329692143, -0.029245547094278457, 0.0019102374391536195, 0.038576778918059815, 0.006477568624423422, 0.022686175084213382, 0.02968625772364468, 0.0036857380394745808, 0.001994712384862332, -0.0019005437820902922, -0.0004897392179703847, -0.006707211405170669, 0.012687398439863036, -0.02054957376302197, -0.005210551085955339, 0.0032590646768367046, -0.017821780437547965, -0.01938669085743125, 0.012644682187760234, -0.013761783404670767, 0.012650279392777908, -0.023595843085851154, -0.004382697158357218, 0.018238728903134206, -0.007333087862666362, -0.0007392676107320124, -0.007962092875848864, 0.004029398865990234, -0.019961558748195694, 0.0035946491997041526, 0.015477825044311938, 0.023962772989941872, -0.015093665659637441, 0.0020241270448775545, -0.00794889950654119, 0.008325824811770962, 0.019527408652123483, -0.0048355337156659114, -0.009988935214445924, -0.0027377829135059426, -0.0040357430957200496, 0.009506272026119346, -0.0004060149711104634, 0.006304054078404319, 0.008250314968817993, -0.013310876373210339, -0.022987975036829873, -0.030686854435015648, -0.0114727129955799, 0.020816295692157233, 0.005193054145136157, 0.003381126676059936, 0.007409393296119894, -0.02087379057279634, -0.0202615554657804, 0.004240047764421027, -0.009837755177073764, -0.011428955699081596, -0.004187614078745232, 0.014603939583377107, -0.0023307690965472475, -0.03121608613961412, -0.0070207202847800965, -0.006541417032047779, -0.014482937815476648, 0.010547586923682694, 0.008270891999779758, 0.01915661454151908, 0.02135057146073322, 0.0005122932235158262, -0.014163960885991934, 0.008401909540066898, 0.012394087026094259, 0.005235771047125876, 0.02371612868054753, 0.006822614653065945, -0.0029585690197128697, -0.005998061907251287, -0.01690416387950978, -0.011686694257136589, -0.002761850925189411, 0.009709065228801153, 0.032489686982984184, 0.011424406773995538, -0.013758413822536817, 0.02349540681561516, 0.030859331749876907, 0.005977431470339192, -0.007848011957902492, -0.00902230359220551, -0.0017962362854449436, 0.03107867272173547, 0.0018376654165611034, 0.014183777092607245, -0.026253580395295184, -0.00046988022402651305, -0.020095802866351188, 0.011660283870051844, -0.02080162358099698, -0.005604962816321562, 0.004837245851341722, 0.021719561824881647, 0.003272077435241832, 0.012446098541753573, 0.00033648493117205045, 0.0008350395057195895, 0.017036164575773748, 0.0046479028055522184, -0.007019169963504487, 0.03178331308030769, -0.009625521338863997, -0.01007887606163702, 0.0024667538382560548, -0.01867484153261326, 0.0314327485456538, 0.0011728027047453824, -0.02374523926097795, 0.035502277891600695, -0.016137301776033567, 0.036698796964525736, 0.018741256338968466, 0.002396173825207255, 0.008000594570211584, 0.042403137200502664, 0.024142598613004843, 0.008734670596292477, 0.015923477938474644, -0.020857776670178064, 0.02855283561110292, -0.003653949381040359, -0.008827555140713953, -0.009482732298512746, 0.0022823380265640627, -0.020947514445819385, -0.004187472670675492, -0.019727852358826545, -0.0456422364827073, -0.02910533710738842, 0.001220792015670043, -0.008242956480355104, -0.004721743877014019, -0.000856388694434435, -0.023348491628782195, 0.01897246927769057, -0.02857593372730207, -0.019146442945215725, 0.001590261702715644, -0.01947766896344978, -0.007921160552338147, -0.008314930616728751, -0.002806340408442655, -0.007276795495057038, -0.008004182743973019, -0.02124618067207145, 0.03073784040395625, 0.0035562336439490154, 0.045608899858213515, -0.0010301577139375153, 0.016958574327820327, 0.014985699342693014, -0.007835600706194405, 0.013170573072938542, -0.014830446827066973, 0.0008719779591736397, -0.007851126403254412, -0.007340776590432664, 0.001600258034888774, 0.049142989446721665, 0.05062122026148285, 0.011051387927046723, -0.002161679551339859, -0.0024155127260184865, 0.0025781292270608386, 0.007172861925613055, 0.0004191191880604531, 0.015350351055262518, -0.015550333656876804, 0.013694961018202867, 0.023661871845211863, -0.003094378322413554, 0.028627676917993096, -0.009206179165832346, 0.03928507517881036, 0.011966321873974126, -0.022871792964449144, -0.008764318795093866, -0.009604341615300566, -0.014670349996857023, 0.02833768072657078, -0.009033057341997948, 0.013825972103673041, -0.01837551229744112, 0.024164745159230124, 0.013641215809749968, -0.02331050125444556, 0.021013853714973767, 0.0029365182610020957, -0.00029795892639549593, 0.03009339682402454, 0.023189461468950262, -0.0025122334570416606, 0.029417590682535095, 0.022626291686372604, 0.013116259448370644, 0.006375312591121539, 0.02627766434194253, 0.008520374195846796, 0.02815771561782845, 0.008072960662042416, 0.00871097485644828, -0.0007927750371924864, 0.0028843957939903987, 0.002627182111938463, -0.0018860803065947188, 0.023540371899082816, -0.0060476875656193295, -0.012594373240611733, -0.005943059653998136, 0.012009127845674416, 0.015755891005655685, 0.0052235526412867566, -0.02016046611605357, -0.003042164143168957, -0.0053636180368840545, -0.01816674900340561, -0.012630739159075859, -0.010668696172745129, -0.027598046251284432, 0.01579858780112664, -0.011008072677324633, -0.014865430361352686, -0.001039184669705839, -0.00561711209018442, -0.017576452260574346, 0.008975250064999232, 0.015751619287946862, -0.011954006980142338, 0.01367875012036422, -0.011537912839994726, 0.016619796529250216, 0.00048237725970641916, 0.014933674104091804, -0.004547447463583946, 0.018133795686244056, 0.00787019367332167, 0.0008397940341637083, 0.0294571060861829, 0.013732861840645217, 0.00653955889456568, 0.027085401902717635, -0.021306643601832116, -0.027131434472841057, -0.03586172185572088, 0.0006729942392999477, 0.011309555714346822, -0.021871366951692846, 0.012419761086148638, -0.012220090512332674, -0.022525547648810852, -0.009874810976600791, -0.005332024516149342, -0.001999174691296033, 0.0031413657317215706, 0.0017611246437296097, -0.009811344027829117, 0.015300934013616487, 0.008804467140442177, -0.016664283448337106, 0.017701459281477656, 0.01473422182308191, 0.004857582838108365, 0.0009949489733500254, -0.024052365145245138, 0.016183074194711336, 0.016496233140750736, 0.021571297596914996, 0.021026532978492454, 0.0049227863982665866, 0.006501863096211549, 0.03865159063342889, 0.0192272589781783, 0.01738650429204114, 0.005463251590854749, -0.02613736742846689, -0.0006406523176716162, 0.017185986101471252, 0.004495152404769003, 0.006994310210194972, -0.01890506525057138, 0.008352787838496417, 0.009113788778118503, -0.021142333313099775, 0.008642440963668717, -0.014204869147663439, -0.015383245101790777, -0.02987607175852186, -0.006035539496587984, -0.009865765171842336, -0.001868143763928471, -0.008986793298709468, -0.017504536818716658, 0.023680615542293084, 0.022082579752742464, -0.0006206030844853131, 0.01652114013566271, -0.01942570478009192, 0.007271316770263643, -0.006906354808149941, -0.003148413693166111, -0.019449581814503902, 0.017198189684712078, 0.003095257281755025, 0.012693290282983364, -0.020902491472812226, 0.03394368603476979, 0.00242286021597915, 0.005350488188630208, -0.027868405955423614, 0.010703850548896388, 0.008725305030525338, 0.02058810338311216, 0.014204722114845228, 0.012214911336512816, -0.01209356561254608, 0.013627595513854038, -0.029757938972477124, -0.002677727929832687, 0.009598716627334278, 0.004147149616823708, -0.023701862407109166, -0.03437531342909301, -0.0013800248632567247, -0.024107270705631557, -0.02990354284887897, 0.0028081709090858635, -0.009476863067823109, 0.021603340094767682, -0.006977217567825409, -0.007786280300305957, 0.0015911683326913794, 0.0049368925374388955, -0.0034399578504863337, -0.01549504520074308, -0.015173781009945897, 0.0014333881552634092, -0.009248968308818188, 0.02111580675266108, -0.0157299524287675, 0.0013231561910099995, 0.029911835026983143, -0.018692137142491308, -0.02074906719612442, 0.01515009383889177, -0.006797953335870706, 0.017706932216350557, 0.004250337580878507, 0.02865771849279061, 0.016343373162087536, -0.008392688615270693, 0.023993299168173707, 0.01361787300073088, -0.015413046181642027, 0.006467182446306595, 0.024015867213649275, 0.004288523592761099, -0.008859701801883266, 0.012309816126468169, -0.00012571857791158478, 0.023518805205671234, 0.01406087970945505, -0.0031469769633454396, 0.029410221989657124, 0.024951305594481107, -0.001499634656227918, -0.010243239036751945, 0.036369175028024156, -0.003318597482566582, -0.01903502459614701, 0.02267836465264314, -0.01643814941294905, 0.011127535632708251, -0.009004954126563904, -0.009343005003428979, 0.01061339894838033, 0.03317580030143503, -0.01175278627727578, -0.010754399708553132, -0.0033304384589082064, -0.009117845597655891, 0.01316905451054529, -0.005452866188917494, 0.007706279619366744, -0.008160004121603283, -0.03943064960916163, 0.009482300496509645, -0.02089060062332179, 0.018110228048757244, -0.015838264377943886, 0.01451746221323194, -0.02624969704770268, -0.02343408120454448, -0.0026707884650932416, -0.0017013776991258022, -0.02696216903356408, -0.0039569956243963, 0.00869800574588128, -0.006847767878210328, 0.003995326508540641, 0.000332424537777494, 0.0007581454652450863, 0.0072821538773272755, 0.028972992886404193, -0.013880256476309817, -0.005138124032872506, -0.002116416601813569, -0.0019016366968907668, -0.009779605585071656, 0.022256638854403935, -0.00932106656848426, 0.016265293059401175, -0.005149425897742624, 0.01919751561915937, -0.0050486021806987235, -0.00439541444269486, 0.016825022563535054, 0.004347288167187009, 0.007218241113977369, -0.0017949960313493462, -0.025535194346073684, -0.015701317293585784, -0.022313548192768595, 0.02298629213820224, 0.004091240931440055, -0.02042132736134665, 0.0031292705794097385, -0.033402988050264516, -0.0066033872289291366, -0.008700205528902738, -0.0019654403197825725, -0.014374098148061901, -0.017390675869946515, -0.00818229809692143, -0.01948786912359279, -0.005214507667212444, -0.02880335117053611, 0.0031208046639963766, 0.0011130583571073245, 0.02785962937638579, 0.0032303332641185015, 0.00045752160318699554, -0.0016003617448524274, 0.015495597764457004, 0.029733394006984222, 0.01847928413207502, -0.02383009612798121, -0.00011142756906576927, 0.01452901621905087, -0.017444584773174523, 0.02568271744180163, -0.00634821965434127, 0.009947407300030221, -0.009689364742810222, -0.024242642280945616, -0.031337002493169966, -0.01664451405458262, -0.007191819613637738, -0.008841656437579072, 0.0007605797813441137, -0.006193592012897784, 0.010819870212368275, -0.0019811776792040187, -0.016730107494117772, 0.007455754865110159, -0.02541645310804454, -0.0092599149423449, 0.01604152575155603, 0.0034230227934116783, -0.010176868601596131, -0.0023549325627829324, 0.012191133910430824, -0.0002546589893549206, -0.005910390539887124, -0.01707903417080385, -0.010748304489854464, 0.011117490078894138, 0.016578293550165216, -0.012709793072865969, -0.045914726610899216, -0.018746633804327912, 0.027124202934065034, -0.009828506666419497, 0.010405404448563835, -0.023592252085755612, 0.01909828460480802, 0.021766626983999136, 0.00937890997202145, -0.0010781292137155049, 0.004597315309914293, 0.009065487765552827, -0.012649010734184576, -0.019738467110641554, -0.001417181978997362, -0.01383980349238005, -0.01930087881664588, -0.029664361841706174, 0.03543813639679685, -0.0032973998443013683, -0.012924506293964067, 0.0065336817794392115, 0.030751145556605873, -0.020398204121311866, 0.00936997548441578, -0.03535350021320831, -0.004974664094540662, -0.0014055490136052594, 0.025250899295697203, -0.030762564330184667, -0.014438171818300718, -0.002435043416172391, 0.013705212842772166, 0.016410834987714513, 0.0058929719012909216, 0.014697049404372418, 8.621207927599074e-07, 0.025224178068600264, 0.022932476261597758, -0.009085382582860627, 0.041755809484947226, 0.019120810949346617, 0.01226575939702992, 0.009058398112241418, 0.004977342472687651, -0.010055941074118373, -0.014989375943155856, 0.015784626025799577, 0.0038656739547476837, 0.018404714362086638, 0.021759650174439423, 0.002037295306954733, 0.021193692604756006, 0.018458057395794848, -0.010932268755501833, -0.004023086557516071, 0.021200671398354447, 0.025537767905988922, -0.013594826203451062, -0.015310128737812798, 0.018260172912979888, 0.01702671546838797, 0.002566749526131096, 0.004830336853740671, 0.0012510072910901014, 0.003962014087766263, -0.024181930986829775, -0.006273170741021609, 0.016400625159480257, -0.007424152114668169, 0.011199758423405459, -0.030872171935265508, 0.013799292270490624, -0.024869680161144974, -0.021072177719419417, 0.0004914483417444701, -0.025101103083040834, -0.02157655611243565, 0.002618288870116482, -0.004630863452041799, 0.0037600434051166067, 0.00777684540804735, 0.0066312121782552205, 0.02112561651065673, 0.016803262676979132, -0.02590263493098717, -0.0033396598759651715, -0.025024433680297886, -0.006887879730786521, -0.017097497468008226, 0.02286191201966884, -0.007267618830871342, 0.01227150992369438, 0.01554979099478793, 0.01625324549099247, -0.010540626177960897, -0.0007361257664619692, 0.009325235285533433, -0.025461850066804275, -0.0013164068470398352, 0.026001330969437342, -0.008801791873599179, 0.00624218226007306, -0.013082747030867882, -0.0207028559938478, 0.017929555412778124, 0.02052657293225764, -0.006336799343781521, -0.012787411454028504, -0.01466157661789201, -0.012037983174475448, 0.0028292006877252357, -0.013819425909033786, -0.012346957375864488, -0.029044434592004537, 0.008613048299990022, -0.02768879731320028, -0.006259703540464153, 0.004372244113512722, 0.011130289712120966, 0.019100552380603063, 0.006993699283349016, 0.03123127485673118, 0.01262230012153099, -0.0005349746391974672, -0.016454332603119955, -0.010429430020537216, 0.010826711326701113, -0.023445982143240757, 0.02191528930351236, 0.019409566949940327, 0.017595951613277084, -0.020640500803732822, -0.020674646116862684, -0.013601040916809495, 0.011519812966280638, 0.004574588700292405, -0.02108268404665711, -0.02378425176565703, -0.0028429200704539587, 0.004648238395332013, 0.0010046857765662568, 0.00672166166181795, -0.01588093731520084, -0.007944084036901928, -0.013024071184756748, -0.0073771201135716755, -0.030570212943666564, -0.013794474363497318, 0.00450140447759073, 0.020299303141890195, -0.006723005121078244, -0.004270899404178928, -0.0010155044486505765, -0.005540351658357794, 0.012711356811326995, -0.011094695385386835, -0.008794342289058935, 0.017658430894447713, -0.03139052928505978, 0.005564299124006038, -0.014158173126643771, -0.014281184195879853, -0.010565497506050164, 0.006184861519758523, 0.00886308029303884, 0.012336357888103848, 0.003980550145878039, -0.01083756280535167, -0.014587077335873408, 0.010063492928828735, -0.011643098322507602, -0.018695720229746804, 0.011036287036614377, -0.02888066527184179, -0.02020221503427299, 0.012776643083954218, 0.0250980885004325, -0.0018465832587636988, 0.0017613071930570438, -0.021406102448761823, -0.007548435076469279, -0.01129723162510415, 0.001054188289717268, -0.0014188176038661391, 0.03038546528932151, -0.008956351041477179, -0.018448479315913438, 0.006882189666263556, -0.025988328652743156, -0.01905426833475178, -0.02118339283342416, -0.026650078958773662, -0.010828380289396962, -0.017503985131963905, 0.033485027041984, 0.0211641077429347, -0.017918729591396138, 0.019207605808486922, -0.0023902393560439323, -0.008252778675232705, -0.009135962677456144, 0.013650104113418297, 0.03964482493526711, -0.0255989644093752, -0.0226235018988504, 0.022259019126639024, -0.007920418048006056, -0.009810826422346902, 0.021479884775724923, -0.021207819093250195, 0.031218824753696327, 0.028020307028394295, 0.018634405624425948, 0.018471872590595777, -0.0005974692081216164, -0.0285773430019288, 0.005482709276737289, -0.015056811638582737, 0.025579873861147927, -0.000889162374377996, -0.0168047851444299, 0.004151656982924922, 0.022355236897527497, 0.0006079350588695328, 0.0212893655708418, 0.012429733375737604, 0.020714521802360518, -0.003808298625898622, -0.004454230290023534, -0.015707942920407555, -0.009041171950597624, 0.02055242115288811, 0.02263896508519458, -0.017958368735338296, -0.005717896281518924, 0.010522395879820689, 0.011177517821458467, 0.029811201886440104, -0.010049839251539763, 0.012906516059621995, -0.004433882546777574, -0.005931758187892821, 0.01943380822572395, 0.017609144336722303, -0.006164845000431631, -0.00042964750751195213, 0.00037332646927520886, -0.0017950996276269453, -0.02288219693154109, 0.02538724058752757, -0.013664151573413698, 0.009325317980227203, 0.018499269167831, 0.0212983580367281, 0.006678630798261027, 0.008304265016895719, 0.022152470430389454, 0.027011325094996614, 0.026250866364196216, -0.01739887881573375, 0.005036599424526117, 0.007484952349252848, 0.009392298168744142, -0.01948653672011452, 0.010622946717286457, -0.00652098103772129, 0.003719985697724137, 0.012169396579863762, -0.033223555682481525, -0.027427346160737852, 0.0177107653028931, -0.0014451094660519908, -0.012303724497693786, 0.0019416440178919405, -0.01370426287195293, -0.006943202205722054, 0.007690960054185945, -0.008862284553202645, -0.00160679589780286, -0.001045686420905259, 0.0158034267839502, -0.00976050090657727, -0.007951090174861168, 0.00352638505894775, -0.00966662200742461, 0.0044667029784638745, 0.006859983184984927, 0.00786553892136906, -0.017760182533896513, 0.03276963089371503, 0.019152991570837705, -0.006647659276166714, 0.011643797700103185, -0.02697639068353743, -0.014856299476598462, -0.0021545643359031207, 0.005587424727240331, 0.008869688430806716, -0.013124291123374546, -0.00277170714347507, 0.013849575503144241, -0.018244819663179455, -0.005461845025837965, -0.03409116935014384, -0.015441631759927767, 0.006155917548731784, 0.013090114627329072, -0.022578015908477203, 0.013451703600975801, 0.0029257121834628773, -0.019270493024834853, -0.007462507317803373, -0.014332166633330187, -0.025554833889192084, 0.011888782597882112, 0.009258884720949608, -0.034725150451883326, -0.012473247780800008, -0.02933406134125039, -0.010503896642481072, 0.00016543871295549112, 0.0010087544219052759, 0.027370537952692994, -0.0012211568405623243, -0.0036988429768692833, 0.03840381755595208, -0.0033483336353067003, -0.001415922009869127, 0.005634804957567296, -0.03730276162910352, 0.00668258695656315, 0.00488599079807177, -0.03130055411234677, -0.0033787463169373177, -0.0002895573909999366, -0.026370651247562996, 0.016818970978498642, -0.02024132345126965, 0.005337164906869877, -0.04964583586094417, -0.0013779938760584034, 0.027516165467710997, -0.010356309325365347, 0.005972483309472563, 0.003922222004717783, 0.005798770162517142, 0.00022792543608965158, 0.010848155676096996, 0.008954609906329774, 0.016035404831554856, -0.0056045826915129306, 0.00048332396052944675, -0.0063972662807263575, 0.004883009910079097, -0.009757611000892499, 0.008029500338452816, 0.01499160990034869, 0.013207060575270109, -0.023270351254054633, -0.012563315161477854, -0.005309914295355179, 0.017944803089571568, 0.015416277879546624, -0.02398638872181509, 0.013117311566509329, -0.01618561014747869, -0.02089281370166792, -0.009217843386865179, -0.009716617959938027, 0.032557376751425046, 0.017801773008457335, 0.01371261820110951, 0.006655763047664293, 0.0173713919662887, -0.012986616747776994, -0.0072563672162402615, 0.005102148575578149, 0.002902914123307, 0.014667397647744438, -0.014027550183302094, -0.02022042984362471, -0.01580442679937186, -0.005143969202632765, 0.00280322981780349, 0.009082026405168506, -0.0025274422984366777, 0.0194522094624491, -0.005800027405262466, -0.003056063876292748, -0.011662177092575318, -0.015267654232600856, -0.016590702202024778, 0.015748615035843384, 0.013536162856036676, 0.027973731097716163, -0.007733369739592481, -0.03378770727830841, -0.006079571423936567, 0.005928873897662821, -0.0181750646833806, 0.004345185733619832, -0.017717876138233748, 0.0007336538103088043, -0.02685513762505848, -0.002459011490596443, 0.0002447477345478325, -0.018676694184587853, 0.006067476114778245, -0.0230528745428755, -0.002072141028771007, -0.0041090238188022194, 0.01785196558951554, 0.00961576813082182, 0.013820570538664985, 0.009436678806504289, -0.005425750119566575, 0.023421524529270786, 0.023852925205386687, -0.024516674906883446, -0.00682279452527827, 0.017755488265696864, 0.01685475706585781, -0.013159252973636704, 0.005074148193788565, -0.004506946383566437, -0.018216653915177308, -0.002709537820609384, 0.008392046745940206, -0.029586980821266592, -0.023176463824737554, 0.014738713426956245, -0.028531401614160772, -0.013608107658025262, -0.029053792462509383, 0.018836527752197706, -0.015242636334335443, -0.0020063740777621544, 0.001578850921793468, 0.00978524169386715, -0.011144916165059119, 0.0004945708793305489, 0.016992551996668475, 0.0004908004844730091, -0.002739157776115556, -0.024338051389298673, 0.01435056895217145, -0.006069489153886452, -0.028361020353427507, 0.030392821968761547, 0.04037906091774085, -0.01104054976586203, 0.002527456949005394, -0.005824273786996424, -0.014920731528766105, -0.030281778598612395, 0.04339337083637612, -0.024993135830574865, 0.022084620010048184, 0.03453506270066214, -0.009431998799996054, 0.014931470884011028, -0.019901221582921264, -0.011889410259673544, 0.01193336498569795, -0.0009516527469618145, 0.00799480998414036, -0.004996044332565363, -0.008498826230654408, 0.007597675016392791, 0.009257696348813255, -0.00845248016034643, 0.019704389919307164, -0.007459813018644593, 0.0006169974268588693, 0.02473195053507263, 0.0003809719629680217, 0.008274219444204367, -0.019078387502177448, 0.006531621155297, -0.0038210043811367344, -0.011611628835944405, -0.0192133468325465, -0.013957014069120342, -0.003927964370689622, 0.0014756798577529554, -0.02194364038079815, 0.013664008319059244, 0.024162870635665332, 0.002865292361477863, -0.018142306001228497, -0.015205918054684487, -0.0048638460440354825, -0.010573570608534005, 0.0063901248265029196, 0.000617919217711388, -0.001333501954955532, 0.005017231261189503, -0.0038444917894231074, -0.04295776910918768, 0.01552006327202654, -0.024335215978715696, 0.0008222233835998001, -0.01569828826607053, -0.005520777074081221, -0.02293812071539399, -0.00453770204186064, -0.029838620127567116, -0.009330089026106552, 0.0033384349975733173, 0.01124197337447517, -0.03725324246625707, 0.011225002120362128, -0.027789788457236467, 0.004561271511601531, 0.014583262041268145, -0.016464791433914494, 0.006337079305391547, -0.008167561024316011, 0.010306843905236616, -0.008911176365578942, -0.008822247205993283, -0.03184449966291753, -0.01054694510646069, -0.007320913622934007, -0.014739342134555355, 0.023446725013568093, -0.022969411177475488, -0.005088331817291463, 0.015384491405671134, -0.001984061206420868, -0.007192364732083561, -0.03644194700333245, 0.01188008619201946, 0.02115473748531934, 0.008043276101010613, 0.0038296850086297855, -0.006914446673196838, 0.0011249228560359357, -0.0035307851501500246, 0.00962391082880309, -0.006856558597680728, -0.0256724003418081, 0.008908410478926947, 0.004000650119766656, -0.0038190618372332995, -0.015467887915840695, 0.007480858255495969, -0.004624984463729698, -0.0014958974191893418, 0.018352086389561838, -0.006120139159447776, 0.03422417658735407, -0.009453823083785557, -0.012993024249465523, -0.01792759793632416, -0.024634825450048584, -0.04666277740019385, 0.0053759594081875224, -0.011876023913876687, -0.0041664467994438886, 0.016082369971562472, 0.009318587662915071, 0.005984726979682469, -0.036433550505327435, 0.0177557210243943, -0.005754519218183414, 0.021741948050581356, -0.017300012413984045, 0.015310324139662403, 0.005151426479832879, -0.005374666644663273, 0.02927992592229406, 0.0023246522941252758, -0.007230344030405041, -0.015149363115465823, -0.0014123595921965333, -0.02032588367931967, 0.01175590636389943, 0.007023889603407772, -0.0075260308794761685, -0.024695916857449172, 0.012669349107877412, 0.008426208595461815, -0.005318927029803792, -0.013499232056931926, -0.0027023549704372537, 0.02565288624918441, -0.018990507098069896, -0.005338246839565373, 0.006563631456931212, 0.010088252676768864, 0.020708935211854417, 0.006033192098394404, 0.021814786583832464, -0.018978857553143092, 0.019563690330562523, -0.008186978310453506, 0.007625330237060445, -0.005004856883246493, -0.016093472497196646, -0.00024581773083776434, -0.0018211001452188042, -0.005811660963700398, -0.004264511972034605, 0.009987770599082398, 0.014813253830180879, -0.004437140867478013, -0.019206969610909726, -0.03638568352968835, 0.03227328731260111, 0.01607308537972789, 0.004337916252516919, 0.018972233031938308, 0.005286406466507181, 0.00313371751744097, -0.008485385529427403, -0.002869699264371506, -0.018103731914362913, 0.015831680973259942, -0.00065185056973096, 0.004764225083799169, 0.027528031492988245, 0.004699712691938072, 0.015039624600998516, 0.004527187612495215, -0.023598461243161943, 0.01650126602439853, 0.005584221429973867, 0.005302891962157269, 0.01118098045964396, 0.011115956119183335, -0.03303534784096623, -0.017476154474008236, -0.00218218254689819, 0.007762818513840877, -0.00845261029673823, 0.04499318576964861, 0.0041464944362671965, -0.0038170039662654906, -0.008452885568936166, -0.012372875968965778, -0.008924698851680478, -0.020350772017035855, -0.005491885016168505, 0.002140355222069169, -0.0032840889420187353, -0.0014913529828388494, -0.01800441834507396, 0.004213026867783307, -0.007036875470714694, 0.01679468740009866, 0.008065788691057401, -0.015801100160130192, -0.009561136157530466, 0.018659094477380768, -0.004041910906200707, 0.015546376822850082, 0.023165998678299663, -0.0032036578706174227, 0.02830581459037738, 0.04453791729274423, -0.0046332783539535845, 0.0024563187747792324, -0.009846438144707287, 0.01585247622531278, 0.008080734706459189, -0.0015156780204095624, -0.010358049563097547, -0.008970722411087671, 0.036422246577856796, 0.0017650616732428305, 0.021666097778062134, 0.0030873044326212204, 0.026925514291981766, -0.020209530690818912, -0.0023894672109302526, 0.007409128058900673, -0.0035585946206333876, -0.003685345182445835, -0.017065954274270614, 0.03227908390537116, 0.018135813143799816, 0.02592280779856744, -0.01763786189444123, -0.001416420105418934, 0.014877437995325659, -0.015112093393611074, -0.006157631427990481, 0.007071423356350494, -0.053089946236709776, 0.014775462128953335, -0.03079401908315879, -0.006467935210630728, -0.0029433269699249815, -0.018088128786087926, 0.017896753882268437, 